digraph Tree {
node [shape=box, fontname="helvetica"] ;
edge [fontname="helvetica"] ;
0 [label="redshift <= -0.783\nentropy = 1.379\nsamples = 70000\nvalue = [41600, 13261, 15139]"] ;
1 [label="redshift <= -0.789\nentropy = 0.161\nsamples = 15501\nvalue = [360, 2, 15139]"] ;
0 -> 1 [labeldistance=2.5, labelangle=45, headlabel="True"] ;
2 [label="redshift <= -0.795\nentropy = 0.034\nsamples = 9589\nvalue = [34, 0, 9555]"] ;
1 -> 2 ;
3 [label="entropy = 0.0\nsamples = 6\nvalue = [6, 0, 0]"] ;
2 -> 3 ;
4 [label="u <= -0.119\nentropy = 0.029\nsamples = 9583\nvalue = [28, 0, 9555]"] ;
2 -> 4 ;
5 [label="delta <= -0.173\nentropy = 0.008\nsamples = 5965\nvalue = [4, 0, 5961]"] ;
4 -> 5 ;
6 [label="delta <= -0.174\nentropy = 0.018\nsamples = 2366\nvalue = [4, 0, 2362]"] ;
5 -> 6 ;
7 [label="redshift <= -0.789\nentropy = 0.014\nsamples = 2365\nvalue = [3, 0, 2362]"] ;
6 -> 7 ;
8 [label="cam_col <= -0.635\nentropy = 0.01\nsamples = 2329\nvalue = [2, 0, 2327]"] ;
7 -> 8 ;
9 [label="redshift <= -0.789\nentropy = 0.027\nsamples = 728\nvalue = [2, 0, 726]"] ;
8 -> 9 ;
10 [label="entropy = 0.053\nsamples = 332\nvalue = [2, 0, 330]"] ;
9 -> 10 ;
11 [label="entropy = 0.0\nsamples = 396\nvalue = [0, 0, 396]"] ;
9 -> 11 ;
12 [label="entropy = 0.0\nsamples = 1601\nvalue = [0, 0, 1601]"] ;
8 -> 12 ;
13 [label="fiber_ID <= 0.452\nentropy = 0.183\nsamples = 36\nvalue = [1, 0, 35]"] ;
7 -> 13 ;
14 [label="entropy = 0.0\nsamples = 33\nvalue = [0, 0, 33]"] ;
13 -> 14 ;
15 [label="fiber_ID <= 0.578\nentropy = 0.918\nsamples = 3\nvalue = [1, 0, 2]"] ;
13 -> 15 ;
16 [label="entropy = 0.0\nsamples = 1\nvalue = [1, 0, 0]"] ;
15 -> 16 ;
17 [label="entropy = 0.0\nsamples = 2\nvalue = [0, 0, 2]"] ;
15 -> 17 ;
18 [label="entropy = 0.0\nsamples = 1\nvalue = [1, 0, 0]"] ;
6 -> 18 ;
19 [label="entropy = 0.0\nsamples = 3599\nvalue = [0, 0, 3599]"] ;
5 -> 19 ;
20 [label="redshift <= -0.791\nentropy = 0.058\nsamples = 3618\nvalue = [24, 0, 3594]"] ;
4 -> 20 ;
21 [label="cam_col <= 1.252\nentropy = 0.461\nsamples = 41\nvalue = [4, 0, 37]"] ;
20 -> 21 ;
22 [label="alpha <= -1.413\nentropy = 0.303\nsamples = 37\nvalue = [2, 0, 35]"] ;
21 -> 22 ;
23 [label="field_ID <= 1.31\nentropy = 0.811\nsamples = 8\nvalue = [2, 0, 6]"] ;
22 -> 23 ;
24 [label="alpha <= -1.444\nentropy = 0.592\nsamples = 7\nvalue = [1, 0, 6]"] ;
23 -> 24 ;
25 [label="entropy = 0.0\nsamples = 6\nvalue = [0, 0, 6]"] ;
24 -> 25 ;
26 [label="entropy = 0.0\nsamples = 1\nvalue = [1, 0, 0]"] ;
24 -> 26 ;
27 [label="entropy = 0.0\nsamples = 1\nvalue = [1, 0, 0]"] ;
23 -> 27 ;
28 [label="entropy = 0.0\nsamples = 29\nvalue = [0, 0, 29]"] ;
22 -> 28 ;
29 [label="delta <= 0.42\nentropy = 1.0\nsamples = 4\nvalue = [2, 0, 2]"] ;
21 -> 29 ;
30 [label="entropy = 0.0\nsamples = 2\nvalue = [0, 0, 2]"] ;
29 -> 30 ;
31 [label="entropy = 0.0\nsamples = 2\nvalue = [2, 0, 0]"] ;
29 -> 31 ;
32 [label="u <= -0.119\nentropy = 0.05\nsamples = 3577\nvalue = [20, 0, 3557]"] ;
20 -> 32 ;
33 [label="entropy = 0.0\nsamples = 1\nvalue = [1, 0, 0]"] ;
32 -> 33 ;
34 [label="alpha <= -0.53\nentropy = 0.048\nsamples = 3576\nvalue = [19, 0, 3557]"] ;
32 -> 34 ;
35 [label="alpha <= -1.454\nentropy = 0.089\nsamples = 888\nvalue = [10, 0, 878]"] ;
34 -> 35 ;
36 [label="alpha <= -1.836\nentropy = 0.021\nsamples = 505\nvalue = [1, 0, 504]"] ;
35 -> 36 ;
37 [label="entropy = 0.31\nsamples = 18\nvalue = [1, 0, 17]"] ;
36 -> 37 ;
38 [label="entropy = 0.0\nsamples = 487\nvalue = [0, 0, 487]"] ;
36 -> 38 ;
39 [label="alpha <= -1.453\nentropy = 0.161\nsamples = 383\nvalue = [9, 0, 374]"] ;
35 -> 39 ;
40 [label="entropy = 0.0\nsamples = 1\nvalue = [1, 0, 0]"] ;
39 -> 40 ;
41 [label="entropy = 0.147\nsamples = 382\nvalue = [8, 0, 374]"] ;
39 -> 41 ;
42 [label="delta <= 0.307\nentropy = 0.032\nsamples = 2688\nvalue = [9, 0, 2679]"] ;
34 -> 42 ;
43 [label="delta <= 0.306\nentropy = 0.053\nsamples = 1324\nvalue = [8, 0, 1316]"] ;
42 -> 43 ;
44 [label="entropy = 0.048\nsamples = 1323\nvalue = [7, 0, 1316]"] ;
43 -> 44 ;
45 [label="entropy = 0.0\nsamples = 1\nvalue = [1, 0, 0]"] ;
43 -> 45 ;
46 [label="u <= -0.084\nentropy = 0.009\nsamples = 1364\nvalue = [1, 0, 1363]"] ;
42 -> 46 ;
47 [label="entropy = 0.176\nsamples = 38\nvalue = [1, 0, 37]"] ;
46 -> 47 ;
48 [label="entropy = 0.0\nsamples = 1326\nvalue = [0, 0, 1326]"] ;
46 -> 48 ;
49 [label="redshift <= -0.789\nentropy = 0.312\nsamples = 5912\nvalue = [326, 2, 5584]"] ;
1 -> 49 ;
50 [label="delta <= -0.091\nentropy = 0.36\nsamples = 307\nvalue = [286, 0, 21]"] ;
49 -> 50 ;
51 [label="u <= 0.048\nentropy = 0.526\nsamples = 143\nvalue = [126, 0, 17]"] ;
50 -> 51 ;
52 [label="fiber_ID <= 0.463\nentropy = 0.722\nsamples = 60\nvalue = [48, 0, 12]"] ;
51 -> 52 ;
53 [label="fiber_ID <= -0.534\nentropy = 0.803\nsamples = 49\nvalue = [37, 0, 12]"] ;
52 -> 53 ;
54 [label="redshift <= -0.789\nentropy = 0.605\nsamples = 27\nvalue = [23, 0, 4]"] ;
53 -> 54 ;
55 [label="entropy = 0.0\nsamples = 23\nvalue = [23, 0, 0]"] ;
54 -> 55 ;
56 [label="entropy = 0.0\nsamples = 4\nvalue = [0, 0, 4]"] ;
54 -> 56 ;
57 [label="field_ID <= 1.115\nentropy = 0.946\nsamples = 22\nvalue = [14, 0, 8]"] ;
53 -> 57 ;
58 [label="fiber_ID <= -0.231\nentropy = 0.998\nsamples = 17\nvalue = [9, 0, 8]"] ;
57 -> 58 ;
59 [label="entropy = 0.0\nsamples = 4\nvalue = [0, 0, 4]"] ;
58 -> 59 ;
60 [label="entropy = 0.89\nsamples = 13\nvalue = [9, 0, 4]"] ;
58 -> 60 ;
61 [label="entropy = 0.0\nsamples = 5\nvalue = [5, 0, 0]"] ;
57 -> 61 ;
62 [label="entropy = 0.0\nsamples = 11\nvalue = [11, 0, 0]"] ;
52 -> 62 ;
63 [label="redshift <= -0.789\nentropy = 0.328\nsamples = 83\nvalue = [78, 0, 5]"] ;
51 -> 63 ;
64 [label="delta <= -1.206\nentropy = 0.169\nsamples = 80\nvalue = [78, 0, 2]"] ;
63 -> 64 ;
65 [label="delta <= -1.209\nentropy = 0.439\nsamples = 22\nvalue = [20, 0, 2]"] ;
64 -> 65 ;
66 [label="alpha <= -1.305\nentropy = 0.276\nsamples = 21\nvalue = [20, 0, 1]"] ;
65 -> 66 ;
67 [label="entropy = 0.0\nsamples = 14\nvalue = [14, 0, 0]"] ;
66 -> 67 ;
68 [label="entropy = 0.592\nsamples = 7\nvalue = [6, 0, 1]"] ;
66 -> 68 ;
69 [label="entropy = 0.0\nsamples = 1\nvalue = [0, 0, 1]"] ;
65 -> 69 ;
70 [label="entropy = 0.0\nsamples = 58\nvalue = [58, 0, 0]"] ;
64 -> 70 ;
71 [label="entropy = 0.0\nsamples = 3\nvalue = [0, 0, 3]"] ;
63 -> 71 ;
72 [label="redshift <= -0.789\nentropy = 0.165\nsamples = 164\nvalue = [160, 0, 4]"] ;
50 -> 72 ;
73 [label="entropy = 0.0\nsamples = 160\nvalue = [160, 0, 0]"] ;
72 -> 73 ;
74 [label="entropy = 0.0\nsamples = 4\nvalue = [0, 0, 4]"] ;
72 -> 74 ;
75 [label="redshift <= -0.788\nentropy = 0.066\nsamples = 5605\nvalue = [40, 2, 5563]"] ;
49 -> 75 ;
76 [label="delta <= 1.62\nentropy = 0.029\nsamples = 5351\nvalue = [14, 1, 5336]"] ;
75 -> 76 ;
77 [label="fiber_ID <= 2.02\nentropy = 0.027\nsamples = 5183\nvalue = [14, 0, 5169]"] ;
76 -> 77 ;
78 [label="field_ID <= -0.538\nentropy = 0.025\nsamples = 5175\nvalue = [13, 0, 5162]"] ;
77 -> 78 ;
79 [label="alpha <= -0.935\nentropy = 0.044\nsamples = 1863\nvalue = [9, 0, 1854]"] ;
78 -> 79 ;
80 [label="alpha <= -1.174\nentropy = 0.118\nsamples = 251\nvalue = [4, 0, 247]"] ;
79 -> 80 ;
81 [label="entropy = 0.0\nsamples = 164\nvalue = [0, 0, 164]"] ;
80 -> 81 ;
82 [label="entropy = 0.269\nsamples = 87\nvalue = [4, 0, 83]"] ;
80 -> 82 ;
83 [label="u <= -0.339\nentropy = 0.03\nsamples = 1612\nvalue = [5, 0, 1607]"] ;
79 -> 83 ;
84 [label="entropy = 0.0\nsamples = 824\nvalue = [0, 0, 824]"] ;
83 -> 84 ;
85 [label="entropy = 0.055\nsamples = 788\nvalue = [5, 0, 783]"] ;
83 -> 85 ;
86 [label="alpha <= 1.872\nentropy = 0.013\nsamples = 3312\nvalue = [4, 0, 3308]"] ;
78 -> 86 ;
87 [label="redshift <= -0.789\nentropy = 0.011\nsamples = 3296\nvalue = [3, 0, 3293]"] ;
86 -> 87 ;
88 [label="entropy = 0.0\nsamples = 1572\nvalue = [0, 0, 1572]"] ;
87 -> 88 ;
89 [label="entropy = 0.018\nsamples = 1724\nvalue = [3, 0, 1721]"] ;
87 -> 89 ;
90 [label="alpha <= 1.873\nentropy = 0.337\nsamples = 16\nvalue = [1, 0, 15]"] ;
86 -> 90 ;
91 [label="entropy = 0.0\nsamples = 1\nvalue = [1, 0, 0]"] ;
90 -> 91 ;
92 [label="entropy = 0.0\nsamples = 15\nvalue = [0, 0, 15]"] ;
90 -> 92 ;
93 [label="u <= 1.008\nentropy = 0.544\nsamples = 8\nvalue = [1, 0, 7]"] ;
77 -> 93 ;
94 [label="entropy = 0.0\nsamples = 7\nvalue = [0, 0, 7]"] ;
93 -> 94 ;
95 [label="entropy = 0.0\nsamples = 1\nvalue = [1, 0, 0]"] ;
93 -> 95 ;
96 [label="delta <= 1.629\nentropy = 0.053\nsamples = 168\nvalue = [0, 1, 167]"] ;
76 -> 96 ;
97 [label="entropy = 0.0\nsamples = 1\nvalue = [0, 1, 0]"] ;
96 -> 97 ;
98 [label="entropy = 0.0\nsamples = 167\nvalue = [0, 0, 167]"] ;
96 -> 98 ;
99 [label="redshift <= -0.786\nentropy = 0.513\nsamples = 254\nvalue = [26, 1, 227]"] ;
75 -> 99 ;
100 [label="delta <= 0.836\nentropy = 0.318\nsamples = 175\nvalue = [8, 1, 166]"] ;
99 -> 100 ;
101 [label="redshift <= -0.788\nentropy = 0.194\nsamples = 155\nvalue = [3, 1, 151]"] ;
100 -> 101 ;
102 [label="entropy = 0.0\nsamples = 1\nvalue = [1, 0, 0]"] ;
101 -> 102 ;
103 [label="u <= 0.254\nentropy = 0.156\nsamples = 154\nvalue = [2, 1, 151]"] ;
101 -> 103 ;
104 [label="entropy = 0.0\nsamples = 116\nvalue = [0, 0, 116]"] ;
103 -> 104 ;
105 [label="u <= 0.285\nentropy = 0.471\nsamples = 38\nvalue = [2, 1, 35]"] ;
103 -> 105 ;
106 [label="entropy = 0.0\nsamples = 1\nvalue = [0, 1, 0]"] ;
105 -> 106 ;
107 [label="entropy = 0.303\nsamples = 37\nvalue = [2, 0, 35]"] ;
105 -> 107 ;
108 [label="u <= 0.725\nentropy = 0.811\nsamples = 20\nvalue = [5, 0, 15]"] ;
100 -> 108 ;
109 [label="u <= -1.085\nentropy = 0.523\nsamples = 17\nvalue = [2, 0, 15]"] ;
108 -> 109 ;
110 [label="entropy = 0.0\nsamples = 2\nvalue = [2, 0, 0]"] ;
109 -> 110 ;
111 [label="entropy = 0.0\nsamples = 15\nvalue = [0, 0, 15]"] ;
109 -> 111 ;
112 [label="entropy = 0.0\nsamples = 3\nvalue = [3, 0, 0]"] ;
108 -> 112 ;
113 [label="u <= -1.544\nentropy = 0.774\nsamples = 79\nvalue = [18, 0, 61]"] ;
99 -> 113 ;
114 [label="redshift <= -0.784\nentropy = 0.503\nsamples = 9\nvalue = [8, 0, 1]"] ;
113 -> 114 ;
115 [label="entropy = 0.0\nsamples = 8\nvalue = [8, 0, 0]"] ;
114 -> 115 ;
116 [label="entropy = 0.0\nsamples = 1\nvalue = [0, 0, 1]"] ;
114 -> 116 ;
117 [label="fiber_ID <= -0.389\nentropy = 0.592\nsamples = 70\nvalue = [10, 0, 60]"] ;
113 -> 117 ;
118 [label="entropy = 0.0\nsamples = 25\nvalue = [0, 0, 25]"] ;
117 -> 118 ;
119 [label="redshift <= -0.785\nentropy = 0.764\nsamples = 45\nvalue = [10, 0, 35]"] ;
117 -> 119 ;
120 [label="redshift <= -0.785\nentropy = 0.964\nsamples = 18\nvalue = [7, 0, 11]"] ;
119 -> 120 ;
121 [label="entropy = 0.65\nsamples = 12\nvalue = [2, 0, 10]"] ;
120 -> 121 ;
122 [label="entropy = 0.65\nsamples = 6\nvalue = [5, 0, 1]"] ;
120 -> 122 ;
123 [label="alpha <= -0.071\nentropy = 0.503\nsamples = 27\nvalue = [3, 0, 24]"] ;
119 -> 123 ;
124 [label="entropy = 0.0\nsamples = 16\nvalue = [0, 0, 16]"] ;
123 -> 124 ;
125 [label="entropy = 0.845\nsamples = 11\nvalue = [3, 0, 8]"] ;
123 -> 125 ;
126 [label="redshift <= 0.568\nentropy = 0.8\nsamples = 54499\nvalue = [41240, 13259, 0]"] ;
0 -> 126 [labeldistance=2.5, labelangle=-45, headlabel="False"] ;
127 [label="redshift <= 0.148\nentropy = 0.331\nsamples = 43200\nvalue = [40569, 2631, 0]"] ;
126 -> 127 ;
128 [label="u <= 0.142\nentropy = 0.219\nsamples = 36311\nvalue = [35041, 1270, 0]"] ;
127 -> 128 ;
129 [label="redshift <= -0.326\nentropy = 0.318\nsamples = 16966\nvalue = [15989, 977, 0]"] ;
128 -> 129 ;
130 [label="redshift <= -0.561\nentropy = 0.139\nsamples = 13872\nvalue = [13600, 272, 0]"] ;
129 -> 130 ;
131 [label="u <= -1.402\nentropy = 0.064\nsamples = 10008\nvalue = [9932, 76, 0]"] ;
130 -> 131 ;
132 [label="redshift <= -0.676\nentropy = 0.121\nsamples = 2482\nvalue = [2441, 41, 0]"] ;
131 -> 132 ;
133 [label="redshift <= -0.719\nentropy = 0.053\nsamples = 1995\nvalue = [1983, 12, 0]"] ;
132 -> 133 ;
134 [label="entropy = 0.011\nsamples = 1091\nvalue = [1090, 1, 0]"] ;
133 -> 134 ;
135 [label="entropy = 0.095\nsamples = 904\nvalue = [893, 11, 0]"] ;
133 -> 135 ;
136 [label="u <= -1.798\nentropy = 0.326\nsamples = 487\nvalue = [458, 29, 0]"] ;
132 -> 136 ;
137 [label="entropy = 0.938\nsamples = 31\nvalue = [20, 11, 0]"] ;
136 -> 137 ;
138 [label="entropy = 0.24\nsamples = 456\nvalue = [438, 18, 0]"] ;
136 -> 138 ;
139 [label="redshift <= -0.618\nentropy = 0.043\nsamples = 7526\nvalue = [7491, 35, 0]"] ;
131 -> 139 ;
140 [label="u <= -0.525\nentropy = 0.023\nsamples = 5022\nvalue = [5011, 11, 0]"] ;
139 -> 140 ;
141 [label="entropy = 0.016\nsamples = 4690\nvalue = [4683, 7, 0]"] ;
140 -> 141 ;
142 [label="entropy = 0.094\nsamples = 332\nvalue = [328, 4, 0]"] ;
140 -> 142 ;
143 [label="u <= -1.017\nentropy = 0.078\nsamples = 2504\nvalue = [2480, 24, 0]"] ;
139 -> 143 ;
144 [label="entropy = 0.168\nsamples = 684\nvalue = [667, 17, 0]"] ;
143 -> 144 ;
145 [label="entropy = 0.036\nsamples = 1820\nvalue = [1813, 7, 0]"] ;
143 -> 145 ;
146 [label="u <= -1.121\nentropy = 0.289\nsamples = 3864\nvalue = [3668, 196, 0]"] ;
130 -> 146 ;
147 [label="redshift <= -0.495\nentropy = 0.994\nsamples = 211\nvalue = [115, 96, 0]"] ;
146 -> 147 ;
148 [label="u <= -1.622\nentropy = 0.718\nsamples = 116\nvalue = [93, 23, 0]"] ;
147 -> 148 ;
149 [label="entropy = 0.0\nsamples = 6\nvalue = [0, 6, 0]"] ;
148 -> 149 ;
150 [label="entropy = 0.621\nsamples = 110\nvalue = [93, 17, 0]"] ;
148 -> 150 ;
151 [label="u <= -1.486\nentropy = 0.781\nsamples = 95\nvalue = [22, 73, 0]"] ;
147 -> 151 ;
152 [label="entropy = 0.0\nsamples = 27\nvalue = [0, 27, 0]"] ;
151 -> 152 ;
153 [label="entropy = 0.908\nsamples = 68\nvalue = [22, 46, 0]"] ;
151 -> 153 ;
154 [label="u <= -0.81\nentropy = 0.181\nsamples = 3653\nvalue = [3553, 100, 0]"] ;
146 -> 154 ;
155 [label="redshift <= -0.48\nentropy = 0.421\nsamples = 480\nvalue = [439, 41, 0]"] ;
154 -> 155 ;
156 [label="entropy = 0.287\nsamples = 399\nvalue = [379, 20, 0]"] ;
155 -> 156 ;
157 [label="entropy = 0.826\nsamples = 81\nvalue = [60, 21, 0]"] ;
155 -> 157 ;
158 [label="alpha <= 1.875\nentropy = 0.133\nsamples = 3173\nvalue = [3114, 59, 0]"] ;
154 -> 158 ;
159 [label="entropy = 0.127\nsamples = 3142\nvalue = [3087, 55, 0]"] ;
158 -> 159 ;
160 [label="entropy = 0.555\nsamples = 31\nvalue = [27, 4, 0]"] ;
158 -> 160 ;
161 [label="u <= -0.451\nentropy = 0.774\nsamples = 3094\nvalue = [2389, 705, 0]"] ;
129 -> 161 ;
162 [label="u <= -0.591\nentropy = 0.626\nsamples = 473\nvalue = [74, 399, 0]"] ;
161 -> 162 ;
163 [label="u <= -0.99\nentropy = 0.413\nsamples = 361\nvalue = [30, 331, 0]"] ;
162 -> 163 ;
164 [label="u <= -1.248\nentropy = 0.177\nsamples = 188\nvalue = [5, 183, 0]"] ;
163 -> 164 ;
165 [label="entropy = 0.295\nsamples = 96\nvalue = [5, 91, 0]"] ;
164 -> 165 ;
166 [label="entropy = 0.0\nsamples = 92\nvalue = [0, 92, 0]"] ;
164 -> 166 ;
167 [label="redshift <= 0.057\nentropy = 0.596\nsamples = 173\nvalue = [25, 148, 0]"] ;
163 -> 167 ;
168 [label="entropy = 0.709\nsamples = 129\nvalue = [25, 104, 0]"] ;
167 -> 168 ;
169 [label="entropy = 0.0\nsamples = 44\nvalue = [0, 44, 0]"] ;
167 -> 169 ;
170 [label="redshift <= -0.241\nentropy = 0.967\nsamples = 112\nvalue = [44, 68, 0]"] ;
162 -> 170 ;
171 [label="delta <= 0.631\nentropy = 0.65\nsamples = 18\nvalue = [15, 3, 0]"] ;
170 -> 171 ;
172 [label="entropy = 0.0\nsamples = 12\nvalue = [12, 0, 0]"] ;
171 -> 172 ;
173 [label="entropy = 1.0\nsamples = 6\nvalue = [3, 3, 0]"] ;
171 -> 173 ;
174 [label="field_ID <= -0.916\nentropy = 0.891\nsamples = 94\nvalue = [29, 65, 0]"] ;
170 -> 174 ;
175 [label="entropy = 0.0\nsamples = 15\nvalue = [0, 15, 0]"] ;
174 -> 175 ;
176 [label="entropy = 0.948\nsamples = 79\nvalue = [29, 50, 0]"] ;
174 -> 176 ;
177 [label="u <= -0.167\nentropy = 0.52\nsamples = 2621\nvalue = [2315, 306, 0]"] ;
161 -> 177 ;
178 [label="redshift <= -0.243\nentropy = 0.859\nsamples = 548\nvalue = [393, 155, 0]"] ;
177 -> 178 ;
179 [label="u <= -0.295\nentropy = 0.439\nsamples = 121\nvalue = [110, 11, 0]"] ;
178 -> 179 ;
180 [label="entropy = 0.665\nsamples = 52\nvalue = [43, 9, 0]"] ;
179 -> 180 ;
181 [label="entropy = 0.189\nsamples = 69\nvalue = [67, 2, 0]"] ;
179 -> 181 ;
182 [label="u <= -0.338\nentropy = 0.922\nsamples = 427\nvalue = [283, 144, 0]"] ;
178 -> 182 ;
183 [label="entropy = 1.0\nsamples = 104\nvalue = [53, 51, 0]"] ;
182 -> 183 ;
184 [label="entropy = 0.866\nsamples = 323\nvalue = [230, 93, 0]"] ;
182 -> 184 ;
185 [label="redshift <= -0.01\nentropy = 0.376\nsamples = 2073\nvalue = [1922, 151, 0]"] ;
177 -> 185 ;
186 [label="field_ID <= 0.983\nentropy = 0.292\nsamples = 1481\nvalue = [1405, 76, 0]"] ;
185 -> 186 ;
187 [label="entropy = 0.322\nsamples = 1260\nvalue = [1186, 74, 0]"] ;
186 -> 187 ;
188 [label="entropy = 0.074\nsamples = 221\nvalue = [219, 2, 0]"] ;
186 -> 188 ;
189 [label="field_ID <= -1.024\nentropy = 0.548\nsamples = 592\nvalue = [517, 75, 0]"] ;
185 -> 189 ;
190 [label="entropy = 0.0\nsamples = 35\nvalue = [35, 0, 0]"] ;
189 -> 190 ;
191 [label="entropy = 0.57\nsamples = 557\nvalue = [482, 75, 0]"] ;
189 -> 191 ;
192 [label="redshift <= -0.442\nentropy = 0.113\nsamples = 19345\nvalue = [19052, 293, 0]"] ;
128 -> 192 ;
193 [label="redshift <= -0.559\nentropy = 0.342\nsamples = 752\nvalue = [704, 48, 0]"] ;
192 -> 193 ;
194 [label="alpha <= -1.801\nentropy = 0.485\nsamples = 276\nvalue = [247, 29, 0]"] ;
193 -> 194 ;
195 [label="entropy = 0.0\nsamples = 3\nvalue = [0, 3, 0]"] ;
194 -> 195 ;
196 [label="u <= 1.531\nentropy = 0.454\nsamples = 273\nvalue = [247, 26, 0]"] ;
194 -> 196 ;
197 [label="delta <= -0.968\nentropy = 0.402\nsamples = 263\nvalue = [242, 21, 0]"] ;
196 -> 197 ;
198 [label="entropy = 0.575\nsamples = 88\nvalue = [76, 12, 0]"] ;
197 -> 198 ;
199 [label="entropy = 0.292\nsamples = 175\nvalue = [166, 9, 0]"] ;
197 -> 199 ;
200 [label="redshift <= -0.592\nentropy = 1.0\nsamples = 10\nvalue = [5, 5, 0]"] ;
196 -> 200 ;
201 [label="entropy = 0.863\nsamples = 7\nvalue = [2, 5, 0]"] ;
200 -> 201 ;
202 [label="entropy = 0.0\nsamples = 3\nvalue = [3, 0, 0]"] ;
200 -> 202 ;
203 [label="alpha <= -1.426\nentropy = 0.242\nsamples = 476\nvalue = [457, 19, 0]"] ;
193 -> 203 ;
204 [label="field_ID <= 1.327\nentropy = 0.473\nsamples = 79\nvalue = [71, 8, 0]"] ;
203 -> 204 ;
205 [label="field_ID <= -0.528\nentropy = 0.286\nsamples = 60\nvalue = [57, 3, 0]"] ;
204 -> 205 ;
206 [label="entropy = 0.629\nsamples = 19\nvalue = [16, 3, 0]"] ;
205 -> 206 ;
207 [label="entropy = 0.0\nsamples = 41\nvalue = [41, 0, 0]"] ;
205 -> 207 ;
208 [label="alpha <= -1.475\nentropy = 0.831\nsamples = 19\nvalue = [14, 5, 0]"] ;
204 -> 208 ;
209 [label="entropy = 0.672\nsamples = 17\nvalue = [14, 3, 0]"] ;
208 -> 209 ;
210 [label="entropy = 0.0\nsamples = 2\nvalue = [0, 2, 0]"] ;
208 -> 210 ;
211 [label="alpha <= -0.453\nentropy = 0.183\nsamples = 397\nvalue = [386, 11, 0]"] ;
203 -> 211 ;
212 [label="entropy = 0.0\nsamples = 99\nvalue = [99, 0, 0]"] ;
211 -> 212 ;
213 [label="alpha <= -0.438\nentropy = 0.228\nsamples = 298\nvalue = [287, 11, 0]"] ;
211 -> 213 ;
214 [label="entropy = 0.971\nsamples = 5\nvalue = [2, 3, 0]"] ;
213 -> 214 ;
215 [label="entropy = 0.181\nsamples = 293\nvalue = [285, 8, 0]"] ;
213 -> 215 ;
216 [label="u <= 0.584\nentropy = 0.101\nsamples = 18593\nvalue = [18348, 245, 0]"] ;
192 -> 216 ;
217 [label="redshift <= -0.252\nentropy = 0.148\nsamples = 6122\nvalue = [5992, 130, 0]"] ;
216 -> 217 ;
218 [label="redshift <= -0.386\nentropy = 0.08\nsamples = 1518\nvalue = [1503, 15, 0]"] ;
217 -> 218 ;
219 [label="redshift <= -0.4\nentropy = 0.2\nsamples = 290\nvalue = [281, 9, 0]"] ;
218 -> 219 ;
220 [label="entropy = 0.044\nsamples = 205\nvalue = [204, 1, 0]"] ;
219 -> 220 ;
221 [label="entropy = 0.45\nsamples = 85\nvalue = [77, 8, 0]"] ;
219 -> 221 ;
222 [label="field_ID <= -0.72\nentropy = 0.045\nsamples = 1228\nvalue = [1222, 6, 0]"] ;
218 -> 222 ;
223 [label="entropy = 0.107\nsamples = 284\nvalue = [280, 4, 0]"] ;
222 -> 223 ;
224 [label="entropy = 0.022\nsamples = 944\nvalue = [942, 2, 0]"] ;
222 -> 224 ;
225 [label="alpha <= -0.541\nentropy = 0.169\nsamples = 4604\nvalue = [4489, 115, 0]"] ;
217 -> 225 ;
226 [label="delta <= -1.511\nentropy = 0.245\nsamples = 937\nvalue = [899, 38, 0]"] ;
225 -> 226 ;
227 [label="entropy = 0.0\nsamples = 81\nvalue = [81, 0, 0]"] ;
226 -> 227 ;
228 [label="entropy = 0.262\nsamples = 856\nvalue = [818, 38, 0]"] ;
226 -> 228 ;
229 [label="alpha <= 0.783\nentropy = 0.147\nsamples = 3667\nvalue = [3590, 77, 0]"] ;
225 -> 229 ;
230 [label="entropy = 0.125\nsamples = 2969\nvalue = [2918, 51, 0]"] ;
229 -> 230 ;
231 [label="entropy = 0.23\nsamples = 698\nvalue = [672, 26, 0]"] ;
229 -> 231 ;
232 [label="redshift <= 0.064\nentropy = 0.076\nsamples = 12471\nvalue = [12356, 115, 0]"] ;
216 -> 232 ;
233 [label="fiber_ID <= -1.605\nentropy = 0.066\nsamples = 10951\nvalue = [10865, 86, 0]"] ;
232 -> 233 ;
234 [label="alpha <= -0.366\nentropy = 0.28\nsamples = 103\nvalue = [98, 5, 0]"] ;
233 -> 234 ;
235 [label="entropy = 0.579\nsamples = 29\nvalue = [25, 4, 0]"] ;
234 -> 235 ;
236 [label="entropy = 0.103\nsamples = 74\nvalue = [73, 1, 0]"] ;
234 -> 236 ;
237 [label="delta <= -1.179\nentropy = 0.063\nsamples = 10848\nvalue = [10767, 81, 0]"] ;
233 -> 237 ;
238 [label="entropy = 0.111\nsamples = 1553\nvalue = [1530, 23, 0]"] ;
237 -> 238 ;
239 [label="entropy = 0.055\nsamples = 9295\nvalue = [9237, 58, 0]"] ;
237 -> 239 ;
240 [label="alpha <= 0.738\nentropy = 0.136\nsamples = 1520\nvalue = [1491, 29, 0]"] ;
232 -> 240 ;
241 [label="redshift <= 0.133\nentropy = 0.161\nsamples = 1227\nvalue = [1198, 29, 0]"] ;
240 -> 241 ;
242 [label="entropy = 0.183\nsamples = 1045\nvalue = [1016, 29, 0]"] ;
241 -> 242 ;
243 [label="entropy = 0.0\nsamples = 182\nvalue = [182, 0, 0]"] ;
241 -> 243 ;
244 [label="entropy = 0.0\nsamples = 293\nvalue = [293, 0, 0]"] ;
240 -> 244 ;
245 [label="u <= -0.068\nentropy = 0.717\nsamples = 6889\nvalue = [5528, 1361, 0]"] ;
127 -> 245 ;
246 [label="u <= -0.442\nentropy = 0.718\nsamples = 1223\nvalue = [242, 981, 0]"] ;
245 -> 246 ;
247 [label="delta <= -1.036\nentropy = 0.288\nsamples = 636\nvalue = [32, 604, 0]"] ;
246 -> 247 ;
248 [label="u <= -0.517\nentropy = 0.538\nsamples = 138\nvalue = [17, 121, 0]"] ;
247 -> 248 ;
249 [label="fiber_ID <= -1.258\nentropy = 0.43\nsamples = 125\nvalue = [11, 114, 0]"] ;
248 -> 249 ;
250 [label="delta <= -1.271\nentropy = 0.918\nsamples = 12\nvalue = [4, 8, 0]"] ;
249 -> 250 ;
251 [label="entropy = 1.0\nsamples = 8\nvalue = [4, 4, 0]"] ;
250 -> 251 ;
252 [label="entropy = 0.0\nsamples = 4\nvalue = [0, 4, 0]"] ;
250 -> 252 ;
253 [label="fiber_ID <= -0.277\nentropy = 0.335\nsamples = 113\nvalue = [7, 106, 0]"] ;
249 -> 253 ;
254 [label="entropy = 0.0\nsamples = 37\nvalue = [0, 37, 0]"] ;
253 -> 254 ;
255 [label="entropy = 0.443\nsamples = 76\nvalue = [7, 69, 0]"] ;
253 -> 255 ;
256 [label="fiber_ID <= -0.295\nentropy = 0.996\nsamples = 13\nvalue = [6, 7, 0]"] ;
248 -> 256 ;
257 [label="entropy = 0.0\nsamples = 6\nvalue = [6, 0, 0]"] ;
256 -> 257 ;
258 [label="entropy = 0.0\nsamples = 7\nvalue = [0, 7, 0]"] ;
256 -> 258 ;
259 [label="u <= -0.593\nentropy = 0.195\nsamples = 498\nvalue = [15, 483, 0]"] ;
247 -> 259 ;
260 [label="field_ID <= -0.761\nentropy = 0.121\nsamples = 364\nvalue = [6, 358, 0]"] ;
259 -> 260 ;
261 [label="alpha <= -0.924\nentropy = 0.281\nsamples = 82\nvalue = [4, 78, 0]"] ;
260 -> 261 ;
262 [label="entropy = 0.971\nsamples = 5\nvalue = [2, 3, 0]"] ;
261 -> 262 ;
263 [label="entropy = 0.174\nsamples = 77\nvalue = [2, 75, 0]"] ;
261 -> 263 ;
264 [label="fiber_ID <= 0.681\nentropy = 0.061\nsamples = 282\nvalue = [2, 280, 0]"] ;
260 -> 264 ;
265 [label="entropy = 0.0\nsamples = 220\nvalue = [0, 220, 0]"] ;
264 -> 265 ;
266 [label="entropy = 0.206\nsamples = 62\nvalue = [2, 60, 0]"] ;
264 -> 266 ;
267 [label="fiber_ID <= 1.022\nentropy = 0.355\nsamples = 134\nvalue = [9, 125, 0]"] ;
259 -> 267 ;
268 [label="delta <= 1.715\nentropy = 0.446\nsamples = 97\nvalue = [9, 88, 0]"] ;
267 -> 268 ;
269 [label="entropy = 0.382\nsamples = 94\nvalue = [7, 87, 0]"] ;
268 -> 269 ;
270 [label="entropy = 0.918\nsamples = 3\nvalue = [2, 1, 0]"] ;
268 -> 270 ;
271 [label="entropy = 0.0\nsamples = 37\nvalue = [0, 37, 0]"] ;
267 -> 271 ;
272 [label="u <= -0.236\nentropy = 0.941\nsamples = 587\nvalue = [210, 377, 0]"] ;
246 -> 272 ;
273 [label="delta <= -1.304\nentropy = 0.769\nsamples = 289\nvalue = [65, 224, 0]"] ;
272 -> 273 ;
274 [label="alpha <= -1.471\nentropy = 0.852\nsamples = 18\nvalue = [13, 5, 0]"] ;
273 -> 274 ;
275 [label="entropy = 0.0\nsamples = 10\nvalue = [10, 0, 0]"] ;
274 -> 275 ;
276 [label="delta <= -1.322\nentropy = 0.954\nsamples = 8\nvalue = [3, 5, 0]"] ;
274 -> 276 ;
277 [label="entropy = 0.0\nsamples = 4\nvalue = [0, 4, 0]"] ;
276 -> 277 ;
278 [label="entropy = 0.811\nsamples = 4\nvalue = [3, 1, 0]"] ;
276 -> 278 ;
279 [label="field_ID <= -0.707\nentropy = 0.705\nsamples = 271\nvalue = [52, 219, 0]"] ;
273 -> 279 ;
280 [label="redshift <= 0.315\nentropy = 0.375\nsamples = 69\nvalue = [5, 64, 0]"] ;
279 -> 280 ;
281 [label="entropy = 0.0\nsamples = 30\nvalue = [0, 30, 0]"] ;
280 -> 281 ;
282 [label="entropy = 0.552\nsamples = 39\nvalue = [5, 34, 0]"] ;
280 -> 282 ;
283 [label="redshift <= 0.152\nentropy = 0.783\nsamples = 202\nvalue = [47, 155, 0]"] ;
279 -> 283 ;
284 [label="entropy = 0.0\nsamples = 3\nvalue = [3, 0, 0]"] ;
283 -> 284 ;
285 [label="entropy = 0.762\nsamples = 199\nvalue = [44, 155, 0]"] ;
283 -> 285 ;
286 [label="delta <= 0.505\nentropy = 0.999\nsamples = 298\nvalue = [145, 153, 0]"] ;
272 -> 286 ;
287 [label="redshift <= 0.549\nentropy = 0.965\nsamples = 182\nvalue = [111, 71, 0]"] ;
286 -> 287 ;
288 [label="delta <= -1.147\nentropy = 0.946\nsamples = 173\nvalue = [110, 63, 0]"] ;
287 -> 288 ;
289 [label="entropy = 0.752\nsamples = 51\nvalue = [40, 11, 0]"] ;
288 -> 289 ;
290 [label="entropy = 0.984\nsamples = 122\nvalue = [70, 52, 0]"] ;
288 -> 290 ;
291 [label="redshift <= 0.565\nentropy = 0.503\nsamples = 9\nvalue = [1, 8, 0]"] ;
287 -> 291 ;
292 [label="entropy = 0.0\nsamples = 8\nvalue = [0, 8, 0]"] ;
291 -> 292 ;
293 [label="entropy = 0.0\nsamples = 1\nvalue = [1, 0, 0]"] ;
291 -> 293 ;
294 [label="field_ID <= -0.349\nentropy = 0.873\nsamples = 116\nvalue = [34, 82, 0]"] ;
286 -> 294 ;
295 [label="redshift <= 0.348\nentropy = 0.984\nsamples = 61\nvalue = [26, 35, 0]"] ;
294 -> 295 ;
296 [label="entropy = 0.98\nsamples = 36\nvalue = [21, 15, 0]"] ;
295 -> 296 ;
297 [label="entropy = 0.722\nsamples = 25\nvalue = [5, 20, 0]"] ;
295 -> 297 ;
298 [label="delta <= 1.04\nentropy = 0.598\nsamples = 55\nvalue = [8, 47, 0]"] ;
294 -> 298 ;
299 [label="entropy = 0.0\nsamples = 29\nvalue = [0, 29, 0]"] ;
298 -> 299 ;
300 [label="entropy = 0.89\nsamples = 26\nvalue = [8, 18, 0]"] ;
298 -> 300 ;
301 [label="u <= 0.205\nentropy = 0.355\nsamples = 5666\nvalue = [5286, 380, 0]"] ;
245 -> 301 ;
302 [label="alpha <= -0.143\nentropy = 0.727\nsamples = 933\nvalue = [744, 189, 0]"] ;
301 -> 302 ;
303 [label="redshift <= 0.421\nentropy = 0.565\nsamples = 565\nvalue = [490, 75, 0]"] ;
302 -> 303 ;
304 [label="field_ID <= -0.093\nentropy = 0.437\nsamples = 432\nvalue = [393, 39, 0]"] ;
303 -> 304 ;
305 [label="redshift <= 0.166\nentropy = 0.573\nsamples = 236\nvalue = [204, 32, 0]"] ;
304 -> 305 ;
306 [label="entropy = 0.0\nsamples = 23\nvalue = [23, 0, 0]"] ;
305 -> 306 ;
307 [label="entropy = 0.61\nsamples = 213\nvalue = [181, 32, 0]"] ;
305 -> 307 ;
308 [label="u <= 0.093\nentropy = 0.222\nsamples = 196\nvalue = [189, 7, 0]"] ;
304 -> 308 ;
309 [label="entropy = 0.402\nsamples = 75\nvalue = [69, 6, 0]"] ;
308 -> 309 ;
310 [label="entropy = 0.069\nsamples = 121\nvalue = [120, 1, 0]"] ;
308 -> 310 ;
311 [label="alpha <= -1.441\nentropy = 0.842\nsamples = 133\nvalue = [97, 36, 0]"] ;
303 -> 311 ;
312 [label="delta <= -1.271\nentropy = 0.992\nsamples = 47\nvalue = [26, 21, 0]"] ;
311 -> 312 ;
313 [label="entropy = 0.811\nsamples = 16\nvalue = [12, 4, 0]"] ;
312 -> 313 ;
314 [label="entropy = 0.993\nsamples = 31\nvalue = [14, 17, 0]"] ;
312 -> 314 ;
315 [label="u <= -0.036\nentropy = 0.668\nsamples = 86\nvalue = [71, 15, 0]"] ;
311 -> 315 ;
316 [label="entropy = 1.0\nsamples = 10\nvalue = [5, 5, 0]"] ;
315 -> 316 ;
317 [label="entropy = 0.562\nsamples = 76\nvalue = [66, 10, 0]"] ;
315 -> 317 ;
318 [label="redshift <= 0.297\nentropy = 0.893\nsamples = 368\nvalue = [254, 114, 0]"] ;
302 -> 318 ;
319 [label="delta <= 0.308\nentropy = 0.656\nsamples = 189\nvalue = [157, 32, 0]"] ;
318 -> 319 ;
320 [label="cam_col <= -1.264\nentropy = 0.445\nsamples = 108\nvalue = [98, 10, 0]"] ;
319 -> 320 ;
321 [label="entropy = 0.874\nsamples = 17\nvalue = [12, 5, 0]"] ;
320 -> 321 ;
322 [label="entropy = 0.307\nsamples = 91\nvalue = [86, 5, 0]"] ;
320 -> 322 ;
323 [label="delta <= 1.315\nentropy = 0.844\nsamples = 81\nvalue = [59, 22, 0]"] ;
319 -> 323 ;
324 [label="entropy = 0.94\nsamples = 56\nvalue = [36, 20, 0]"] ;
323 -> 324 ;
325 [label="entropy = 0.402\nsamples = 25\nvalue = [23, 2, 0]"] ;
323 -> 325 ;
326 [label="delta <= -1.115\nentropy = 0.995\nsamples = 179\nvalue = [97, 82, 0]"] ;
318 -> 326 ;
327 [label="alpha <= 1.695\nentropy = 0.636\nsamples = 56\nvalue = [47, 9, 0]"] ;
326 -> 327 ;
328 [label="entropy = 0.894\nsamples = 29\nvalue = [20, 9, 0]"] ;
327 -> 328 ;
329 [label="entropy = 0.0\nsamples = 27\nvalue = [27, 0, 0]"] ;
327 -> 329 ;
330 [label="u <= 0.175\nentropy = 0.975\nsamples = 123\nvalue = [50, 73, 0]"] ;
326 -> 330 ;
331 [label="entropy = 0.921\nsamples = 104\nvalue = [35, 69, 0]"] ;
330 -> 331 ;
332 [label="entropy = 0.742\nsamples = 19\nvalue = [15, 4, 0]"] ;
330 -> 332 ;
333 [label="u <= 0.589\nentropy = 0.244\nsamples = 4733\nvalue = [4542, 191, 0]"] ;
301 -> 333 ;
334 [label="redshift <= 0.365\nentropy = 0.353\nsamples = 1698\nvalue = [1585, 113, 0]"] ;
333 -> 334 ;
335 [label="redshift <= 0.162\nentropy = 0.282\nsamples = 1145\nvalue = [1089, 56, 0]"] ;
334 -> 335 ;
336 [label="entropy = 0.0\nsamples = 89\nvalue = [89, 0, 0]"] ;
335 -> 336 ;
337 [label="redshift <= 0.163\nentropy = 0.299\nsamples = 1056\nvalue = [1000, 56, 0]"] ;
335 -> 337 ;
338 [label="entropy = 1.0\nsamples = 4\nvalue = [2, 2, 0]"] ;
337 -> 338 ;
339 [label="entropy = 0.292\nsamples = 1052\nvalue = [998, 54, 0]"] ;
337 -> 339 ;
340 [label="delta <= 1.604\nentropy = 0.479\nsamples = 553\nvalue = [496, 57, 0]"] ;
334 -> 340 ;
341 [label="delta <= -1.671\nentropy = 0.446\nsamples = 538\nvalue = [488, 50, 0]"] ;
340 -> 341 ;
342 [label="entropy = 0.0\nsamples = 2\nvalue = [0, 2, 0]"] ;
341 -> 342 ;
343 [label="entropy = 0.435\nsamples = 536\nvalue = [488, 48, 0]"] ;
341 -> 343 ;
344 [label="redshift <= 0.398\nentropy = 0.997\nsamples = 15\nvalue = [8, 7, 0]"] ;
340 -> 344 ;
345 [label="entropy = 0.0\nsamples = 4\nvalue = [4, 0, 0]"] ;
344 -> 345 ;
346 [label="entropy = 0.946\nsamples = 11\nvalue = [4, 7, 0]"] ;
344 -> 346 ;
347 [label="redshift <= 0.271\nentropy = 0.172\nsamples = 3035\nvalue = [2957, 78, 0]"] ;
333 -> 347 ;
348 [label="field_ID <= -0.794\nentropy = 0.086\nsamples = 1478\nvalue = [1462, 16, 0]"] ;
347 -> 348 ;
349 [label="entropy = 0.0\nsamples = 274\nvalue = [274, 0, 0]"] ;
348 -> 349 ;
350 [label="field_ID <= -0.761\nentropy = 0.102\nsamples = 1204\nvalue = [1188, 16, 0]"] ;
348 -> 350 ;
351 [label="entropy = 0.414\nsamples = 36\nvalue = [33, 3, 0]"] ;
350 -> 351 ;
352 [label="entropy = 0.088\nsamples = 1168\nvalue = [1155, 13, 0]"] ;
350 -> 352 ;
353 [label="redshift <= 0.272\nentropy = 0.241\nsamples = 1557\nvalue = [1495, 62, 0]"] ;
347 -> 353 ;
354 [label="entropy = 0.0\nsamples = 2\nvalue = [0, 2, 0]"] ;
353 -> 354 ;
355 [label="alpha <= 1.867\nentropy = 0.236\nsamples = 1555\nvalue = [1495, 60, 0]"] ;
353 -> 355 ;
356 [label="entropy = 0.228\nsamples = 1545\nvalue = [1488, 57, 0]"] ;
355 -> 356 ;
357 [label="entropy = 0.881\nsamples = 10\nvalue = [7, 3, 0]"] ;
355 -> 357 ;
358 [label="redshift <= 0.871\nentropy = 0.325\nsamples = 11299\nvalue = [671, 10628, 0]"] ;
126 -> 358 ;
359 [label="u <= -0.016\nentropy = 0.836\nsamples = 1805\nvalue = [481, 1324, 0]"] ;
358 -> 359 ;
360 [label="u <= -0.238\nentropy = 0.211\nsamples = 1017\nvalue = [34, 983, 0]"] ;
359 -> 360 ;
361 [label="fiber_ID <= 1.231\nentropy = 0.065\nsamples = 782\nvalue = [6, 776, 0]"] ;
360 -> 361 ;
362 [label="alpha <= 1.788\nentropy = 0.017\nsamples = 639\nvalue = [1, 638, 0]"] ;
361 -> 362 ;
363 [label="entropy = 0.0\nsamples = 600\nvalue = [0, 600, 0]"] ;
362 -> 363 ;
364 [label="alpha <= 1.793\nentropy = 0.172\nsamples = 39\nvalue = [1, 38, 0]"] ;
362 -> 364 ;
365 [label="entropy = 0.0\nsamples = 1\nvalue = [1, 0, 0]"] ;
364 -> 365 ;
366 [label="entropy = 0.0\nsamples = 38\nvalue = [0, 38, 0]"] ;
364 -> 366 ;
367 [label="fiber_ID <= 1.308\nentropy = 0.219\nsamples = 143\nvalue = [5, 138, 0]"] ;
361 -> 367 ;
368 [label="cam_col <= -0.635\nentropy = 0.75\nsamples = 14\nvalue = [3, 11, 0]"] ;
367 -> 368 ;
369 [label="u <= -0.513\nentropy = 1.0\nsamples = 6\nvalue = [3, 3, 0]"] ;
368 -> 369 ;
370 [label="entropy = 0.811\nsamples = 4\nvalue = [1, 3, 0]"] ;
369 -> 370 ;
371 [label="entropy = 0.0\nsamples = 2\nvalue = [2, 0, 0]"] ;
369 -> 371 ;
372 [label="entropy = 0.0\nsamples = 8\nvalue = [0, 8, 0]"] ;
368 -> 372 ;
373 [label="alpha <= -0.312\nentropy = 0.115\nsamples = 129\nvalue = [2, 127, 0]"] ;
367 -> 373 ;
374 [label="alpha <= -0.324\nentropy = 0.323\nsamples = 34\nvalue = [2, 32, 0]"] ;
373 -> 374 ;
375 [label="entropy = 0.0\nsamples = 31\nvalue = [0, 31, 0]"] ;
374 -> 375 ;
376 [label="entropy = 0.918\nsamples = 3\nvalue = [2, 1, 0]"] ;
374 -> 376 ;
377 [label="entropy = 0.0\nsamples = 95\nvalue = [0, 95, 0]"] ;
373 -> 377 ;
378 [label="redshift <= 0.63\nentropy = 0.527\nsamples = 235\nvalue = [28, 207, 0]"] ;
360 -> 378 ;
379 [label="alpha <= -1.785\nentropy = 0.855\nsamples = 50\nvalue = [14, 36, 0]"] ;
378 -> 379 ;
380 [label="entropy = 0.0\nsamples = 2\nvalue = [2, 0, 0]"] ;
379 -> 380 ;
381 [label="field_ID <= -0.912\nentropy = 0.811\nsamples = 48\nvalue = [12, 36, 0]"] ;
379 -> 381 ;
382 [label="entropy = 0.0\nsamples = 6\nvalue = [0, 6, 0]"] ;
381 -> 382 ;
383 [label="field_ID <= 0.41\nentropy = 0.863\nsamples = 42\nvalue = [12, 30, 0]"] ;
381 -> 383 ;
384 [label="entropy = 0.918\nsamples = 36\nvalue = [12, 24, 0]"] ;
383 -> 384 ;
385 [label="entropy = 0.0\nsamples = 6\nvalue = [0, 6, 0]"] ;
383 -> 385 ;
386 [label="field_ID <= -0.734\nentropy = 0.387\nsamples = 185\nvalue = [14, 171, 0]"] ;
378 -> 386 ;
387 [label="entropy = 0.0\nsamples = 51\nvalue = [0, 51, 0]"] ;
386 -> 387 ;
388 [label="field_ID <= 0.619\nentropy = 0.483\nsamples = 134\nvalue = [14, 120, 0]"] ;
386 -> 388 ;
389 [label="alpha <= 1.534\nentropy = 0.567\nsamples = 105\nvalue = [14, 91, 0]"] ;
388 -> 389 ;
390 [label="entropy = 0.624\nsamples = 90\nvalue = [14, 76, 0]"] ;
389 -> 390 ;
391 [label="entropy = 0.0\nsamples = 15\nvalue = [0, 15, 0]"] ;
389 -> 391 ;
392 [label="entropy = 0.0\nsamples = 29\nvalue = [0, 29, 0]"] ;
388 -> 392 ;
393 [label="delta <= 0.427\nentropy = 0.987\nsamples = 788\nvalue = [447, 341, 0]"] ;
359 -> 393 ;
394 [label="alpha <= -0.136\nentropy = 0.934\nsamples = 606\nvalue = [394, 212, 0]"] ;
393 -> 394 ;
395 [label="alpha <= -0.541\nentropy = 0.858\nsamples = 426\nvalue = [306, 120, 0]"] ;
394 -> 395 ;
396 [label="delta <= -0.91\nentropy = 0.944\nsamples = 257\nvalue = [164, 93, 0]"] ;
395 -> 396 ;
397 [label="delta <= -1.485\nentropy = 0.87\nsamples = 203\nvalue = [144, 59, 0]"] ;
396 -> 397 ;
398 [label="entropy = 0.811\nsamples = 8\nvalue = [2, 6, 0]"] ;
397 -> 398 ;
399 [label="entropy = 0.844\nsamples = 195\nvalue = [142, 53, 0]"] ;
397 -> 399 ;
400 [label="u <= 1.674\nentropy = 0.951\nsamples = 54\nvalue = [20, 34, 0]"] ;
396 -> 400 ;
401 [label="entropy = 0.904\nsamples = 50\nvalue = [16, 34, 0]"] ;
400 -> 401 ;
402 [label="entropy = 0.0\nsamples = 4\nvalue = [4, 0, 0]"] ;
400 -> 402 ;
403 [label="delta <= -0.55\nentropy = 0.634\nsamples = 169\nvalue = [142, 27, 0]"] ;
395 -> 403 ;
404 [label="u <= 0.946\nentropy = 0.811\nsamples = 8\nvalue = [2, 6, 0]"] ;
403 -> 404 ;
405 [label="entropy = 0.0\nsamples = 6\nvalue = [0, 6, 0]"] ;
404 -> 405 ;
406 [label="entropy = 0.0\nsamples = 2\nvalue = [2, 0, 0]"] ;
404 -> 406 ;
407 [label="redshift <= 0.752\nentropy = 0.559\nsamples = 161\nvalue = [140, 21, 0]"] ;
403 -> 407 ;
408 [label="entropy = 0.4\nsamples = 126\nvalue = [116, 10, 0]"] ;
407 -> 408 ;
409 [label="entropy = 0.898\nsamples = 35\nvalue = [24, 11, 0]"] ;
407 -> 409 ;
410 [label="alpha <= 1.458\nentropy = 1.0\nsamples = 180\nvalue = [88, 92, 0]"] ;
394 -> 410 ;
411 [label="delta <= 0.221\nentropy = 0.461\nsamples = 41\nvalue = [4, 37, 0]"] ;
410 -> 411 ;
412 [label="entropy = 0.0\nsamples = 29\nvalue = [0, 29, 0]"] ;
411 -> 412 ;
413 [label="fiber_ID <= 0.993\nentropy = 0.918\nsamples = 12\nvalue = [4, 8, 0]"] ;
411 -> 413 ;
414 [label="entropy = 0.722\nsamples = 10\nvalue = [2, 8, 0]"] ;
413 -> 414 ;
415 [label="entropy = 0.0\nsamples = 2\nvalue = [2, 0, 0]"] ;
413 -> 415 ;
416 [label="u <= 0.255\nentropy = 0.968\nsamples = 139\nvalue = [84, 55, 0]"] ;
410 -> 416 ;
417 [label="cam_col <= -1.264\nentropy = 0.926\nsamples = 41\nvalue = [14, 27, 0]"] ;
416 -> 417 ;
418 [label="entropy = 0.0\nsamples = 7\nvalue = [0, 7, 0]"] ;
417 -> 418 ;
419 [label="entropy = 0.977\nsamples = 34\nvalue = [14, 20, 0]"] ;
417 -> 419 ;
420 [label="fiber_ID <= -1.48\nentropy = 0.863\nsamples = 98\nvalue = [70, 28, 0]"] ;
416 -> 420 ;
421 [label="entropy = 0.0\nsamples = 4\nvalue = [0, 4, 0]"] ;
420 -> 421 ;
422 [label="entropy = 0.82\nsamples = 94\nvalue = [70, 24, 0]"] ;
420 -> 422 ;
423 [label="alpha <= 0.24\nentropy = 0.87\nsamples = 182\nvalue = [53, 129, 0]"] ;
393 -> 423 ;
424 [label="alpha <= 0.186\nentropy = 0.965\nsamples = 105\nvalue = [41, 64, 0]"] ;
423 -> 424 ;
425 [label="redshift <= 0.588\nentropy = 0.948\nsamples = 101\nvalue = [37, 64, 0]"] ;
424 -> 425 ;
426 [label="entropy = 0.0\nsamples = 6\nvalue = [0, 6, 0]"] ;
425 -> 426 ;
427 [label="redshift <= 0.616\nentropy = 0.964\nsamples = 95\nvalue = [37, 58, 0]"] ;
425 -> 427 ;
428 [label="entropy = 0.592\nsamples = 14\nvalue = [12, 2, 0]"] ;
427 -> 428 ;
429 [label="entropy = 0.892\nsamples = 81\nvalue = [25, 56, 0]"] ;
427 -> 429 ;
430 [label="entropy = 0.0\nsamples = 4\nvalue = [4, 0, 0]"] ;
424 -> 430 ;
431 [label="delta <= 1.479\nentropy = 0.624\nsamples = 77\nvalue = [12, 65, 0]"] ;
423 -> 431 ;
432 [label="delta <= 0.984\nentropy = 0.488\nsamples = 66\nvalue = [7, 59, 0]"] ;
431 -> 432 ;
433 [label="redshift <= 0.631\nentropy = 0.711\nsamples = 36\nvalue = [7, 29, 0]"] ;
432 -> 433 ;
434 [label="entropy = 1.0\nsamples = 10\nvalue = [5, 5, 0]"] ;
433 -> 434 ;
435 [label="entropy = 0.391\nsamples = 26\nvalue = [2, 24, 0]"] ;
433 -> 435 ;
436 [label="entropy = 0.0\nsamples = 30\nvalue = [0, 30, 0]"] ;
432 -> 436 ;
437 [label="u <= 0.812\nentropy = 0.994\nsamples = 11\nvalue = [5, 6, 0]"] ;
431 -> 437 ;
438 [label="redshift <= 0.842\nentropy = 0.592\nsamples = 7\nvalue = [1, 6, 0]"] ;
437 -> 438 ;
439 [label="entropy = 0.0\nsamples = 6\nvalue = [0, 6, 0]"] ;
438 -> 439 ;
440 [label="entropy = 0.0\nsamples = 1\nvalue = [1, 0, 0]"] ;
438 -> 440 ;
441 [label="entropy = 0.0\nsamples = 4\nvalue = [4, 0, 0]"] ;
437 -> 441 ;
442 [label="redshift <= 1.7\nentropy = 0.142\nsamples = 9494\nvalue = [190, 9304, 0]"] ;
358 -> 442 ;
443 [label="u <= -0.076\nentropy = 0.263\nsamples = 4079\nvalue = [182, 3897, 0]"] ;
442 -> 443 ;
444 [label="u <= -0.35\nentropy = 0.066\nsamples = 2816\nvalue = [22, 2794, 0]"] ;
443 -> 444 ;
445 [label="redshift <= 0.94\nentropy = 0.026\nsamples = 1918\nvalue = [5, 1913, 0]"] ;
444 -> 445 ;
446 [label="redshift <= 0.94\nentropy = 0.121\nsamples = 182\nvalue = [3, 179, 0]"] ;
445 -> 446 ;
447 [label="u <= -0.988\nentropy = 0.088\nsamples = 181\nvalue = [2, 179, 0]"] ;
446 -> 447 ;
448 [label="entropy = 0.254\nsamples = 47\nvalue = [2, 45, 0]"] ;
447 -> 448 ;
449 [label="entropy = 0.0\nsamples = 134\nvalue = [0, 134, 0]"] ;
447 -> 449 ;
450 [label="entropy = 0.0\nsamples = 1\nvalue = [1, 0, 0]"] ;
446 -> 450 ;
451 [label="alpha <= -1.648\nentropy = 0.013\nsamples = 1736\nvalue = [2, 1734, 0]"] ;
445 -> 451 ;
452 [label="alpha <= -1.648\nentropy = 0.096\nsamples = 162\nvalue = [2, 160, 0]"] ;
451 -> 452 ;
453 [label="entropy = 0.054\nsamples = 161\nvalue = [1, 160, 0]"] ;
452 -> 453 ;
454 [label="entropy = 0.0\nsamples = 1\nvalue = [1, 0, 0]"] ;
452 -> 454 ;
455 [label="entropy = 0.0\nsamples = 1574\nvalue = [0, 1574, 0]"] ;
451 -> 455 ;
456 [label="redshift <= 0.992\nentropy = 0.135\nsamples = 898\nvalue = [17, 881, 0]"] ;
444 -> 456 ;
457 [label="alpha <= 0.027\nentropy = 0.339\nsamples = 143\nvalue = [9, 134, 0]"] ;
456 -> 457 ;
458 [label="entropy = 0.0\nsamples = 67\nvalue = [0, 67, 0]"] ;
457 -> 458 ;
459 [label="field_ID <= -0.622\nentropy = 0.525\nsamples = 76\nvalue = [9, 67, 0]"] ;
457 -> 459 ;
460 [label="entropy = 0.0\nsamples = 24\nvalue = [0, 24, 0]"] ;
459 -> 460 ;
461 [label="entropy = 0.665\nsamples = 52\nvalue = [9, 43, 0]"] ;
459 -> 461 ;
462 [label="u <= -0.35\nentropy = 0.085\nsamples = 755\nvalue = [8, 747, 0]"] ;
456 -> 462 ;
463 [label="entropy = 0.0\nsamples = 1\nvalue = [1, 0, 0]"] ;
462 -> 463 ;
464 [label="delta <= 1.302\nentropy = 0.076\nsamples = 754\nvalue = [7, 747, 0]"] ;
462 -> 464 ;
465 [label="entropy = 0.044\nsamples = 627\nvalue = [3, 624, 0]"] ;
464 -> 465 ;
466 [label="entropy = 0.202\nsamples = 127\nvalue = [4, 123, 0]"] ;
464 -> 466 ;
467 [label="u <= 0.187\nentropy = 0.548\nsamples = 1263\nvalue = [160, 1103, 0]"] ;
443 -> 467 ;
468 [label="redshift <= 1.571\nentropy = 0.334\nsamples = 680\nvalue = [42, 638, 0]"] ;
467 -> 468 ;
469 [label="delta <= -1.224\nentropy = 0.372\nsamples = 586\nvalue = [42, 544, 0]"] ;
468 -> 469 ;
470 [label="field_ID <= 0.035\nentropy = 0.65\nsamples = 54\nvalue = [9, 45, 0]"] ;
469 -> 470 ;
471 [label="entropy = 0.0\nsamples = 24\nvalue = [0, 24, 0]"] ;
470 -> 471 ;
472 [label="entropy = 0.881\nsamples = 30\nvalue = [9, 21, 0]"] ;
470 -> 472 ;
473 [label="field_ID <= -0.956\nentropy = 0.335\nsamples = 532\nvalue = [33, 499, 0]"] ;
469 -> 473 ;
474 [label="entropy = 0.602\nsamples = 68\nvalue = [10, 58, 0]"] ;
473 -> 474 ;
475 [label="entropy = 0.285\nsamples = 464\nvalue = [23, 441, 0]"] ;
473 -> 475 ;
476 [label="entropy = 0.0\nsamples = 94\nvalue = [0, 94, 0]"] ;
468 -> 476 ;
477 [label="redshift <= 1.096\nentropy = 0.727\nsamples = 583\nvalue = [118, 465, 0]"] ;
467 -> 477 ;
478 [label="redshift <= 1.026\nentropy = 0.91\nsamples = 197\nvalue = [64, 133, 0]"] ;
477 -> 478 ;
479 [label="delta <= -1.337\nentropy = 0.839\nsamples = 149\nvalue = [40, 109, 0]"] ;
478 -> 479 ;
480 [label="entropy = 0.985\nsamples = 14\nvalue = [8, 6, 0]"] ;
479 -> 480 ;
481 [label="entropy = 0.79\nsamples = 135\nvalue = [32, 103, 0]"] ;
479 -> 481 ;
482 [label="redshift <= 1.045\nentropy = 1.0\nsamples = 48\nvalue = [24, 24, 0]"] ;
478 -> 482 ;
483 [label="entropy = 0.469\nsamples = 10\nvalue = [9, 1, 0]"] ;
482 -> 483 ;
484 [label="entropy = 0.968\nsamples = 38\nvalue = [15, 23, 0]"] ;
482 -> 484 ;
485 [label="alpha <= -0.216\nentropy = 0.584\nsamples = 386\nvalue = [54, 332, 0]"] ;
477 -> 485 ;
486 [label="field_ID <= 1.634\nentropy = 0.702\nsamples = 189\nvalue = [36, 153, 0]"] ;
485 -> 486 ;
487 [label="entropy = 0.75\nsamples = 168\nvalue = [36, 132, 0]"] ;
486 -> 487 ;
488 [label="entropy = 0.0\nsamples = 21\nvalue = [0, 21, 0]"] ;
486 -> 488 ;
489 [label="delta <= -1.176\nentropy = 0.441\nsamples = 197\nvalue = [18, 179, 0]"] ;
485 -> 489 ;
490 [label="entropy = 0.722\nsamples = 40\nvalue = [8, 32, 0]"] ;
489 -> 490 ;
491 [label="entropy = 0.342\nsamples = 157\nvalue = [10, 147, 0]"] ;
489 -> 491 ;
492 [label="redshift <= 1.939\nentropy = 0.016\nsamples = 5415\nvalue = [8, 5407, 0]"] ;
442 -> 492 ;
493 [label="u <= 1.079\nentropy = 0.07\nsamples = 959\nvalue = [8, 951, 0]"] ;
492 -> 493 ;
494 [label="redshift <= 1.939\nentropy = 0.039\nsamples = 946\nvalue = [4, 942, 0]"] ;
493 -> 494 ;
495 [label="u <= -1.519\nentropy = 0.031\nsamples = 945\nvalue = [3, 942, 0]"] ;
494 -> 495 ;
496 [label="delta <= -1.286\nentropy = 0.31\nsamples = 18\nvalue = [1, 17, 0]"] ;
495 -> 496 ;
497 [label="entropy = 0.0\nsamples = 1\nvalue = [1, 0, 0]"] ;
496 -> 497 ;
498 [label="entropy = 0.0\nsamples = 17\nvalue = [0, 17, 0]"] ;
496 -> 498 ;
499 [label="u <= -0.106\nentropy = 0.022\nsamples = 927\nvalue = [2, 925, 0]"] ;
495 -> 499 ;
500 [label="entropy = 0.0\nsamples = 681\nvalue = [0, 681, 0]"] ;
499 -> 500 ;
501 [label="entropy = 0.068\nsamples = 246\nvalue = [2, 244, 0]"] ;
499 -> 501 ;
502 [label="entropy = 0.0\nsamples = 1\nvalue = [1, 0, 0]"] ;
494 -> 502 ;
503 [label="field_ID <= -0.056\nentropy = 0.89\nsamples = 13\nvalue = [4, 9, 0]"] ;
493 -> 503 ;
504 [label="u <= 1.164\nentropy = 0.985\nsamples = 7\nvalue = [4, 3, 0]"] ;
503 -> 504 ;
505 [label="u <= 1.104\nentropy = 0.811\nsamples = 4\nvalue = [1, 3, 0]"] ;
504 -> 505 ;
506 [label="entropy = 0.0\nsamples = 1\nvalue = [1, 0, 0]"] ;
505 -> 506 ;
507 [label="entropy = 0.0\nsamples = 3\nvalue = [0, 3, 0]"] ;
505 -> 507 ;
508 [label="entropy = 0.0\nsamples = 3\nvalue = [3, 0, 0]"] ;
504 -> 508 ;
509 [label="entropy = 0.0\nsamples = 6\nvalue = [0, 6, 0]"] ;
503 -> 509 ;
510 [label="entropy = 0.0\nsamples = 4456\nvalue = [0, 4456, 0]"] ;
492 -> 510 ;
}