digraph Tree {
node [shape=box, fontname="helvetica"] ;
edge [fontname="helvetica"] ;
0 [label="redshift <= 0.004\nentropy = 1.379\nsamples = 70000\nvalue = [41600, 13261, 15139]"] ;
1 [label="redshift <= -0.0\nentropy = 0.161\nsamples = 15501\nvalue = [360, 2, 15139]"] ;
0 -> 1 [labeldistance=2.5, labelangle=45, headlabel="True"] ;
2 [label="redshift <= -0.004\nentropy = 0.034\nsamples = 9589\nvalue = [34, 0, 9555]"] ;
1 -> 2 ;
3 [label="entropy = 0.0\nsamples = 6\nvalue = [6, 0, 0]"] ;
2 -> 3 ;
4 [label="z <= 21.509\nentropy = 0.029\nsamples = 9583\nvalue = [28, 0, 9555]"] ;
2 -> 4 ;
5 [label="i <= 17.776\nentropy = 0.021\nsamples = 9284\nvalue = [19, 0, 9265]"] ;
4 -> 5 ;
6 [label="entropy = 0.0\nsamples = 3440\nvalue = [0, 0, 3440]"] ;
5 -> 6 ;
7 [label="run_ID <= 3402.5\nentropy = 0.032\nsamples = 5844\nvalue = [19, 0, 5825]"] ;
5 -> 7 ;
8 [label="entropy = 0.0\nsamples = 1698\nvalue = [0, 0, 1698]"] ;
7 -> 8 ;
9 [label="obj_ID <= 1.2376602472842527e+18\nentropy = 0.042\nsamples = 4146\nvalue = [19, 0, 4127]"] ;
7 -> 9 ;
10 [label="r <= 20.53\nentropy = 0.345\nsamples = 62\nvalue = [4, 0, 58]"] ;
9 -> 10 ;
11 [label="entropy = 0.0\nsamples = 58\nvalue = [0, 0, 58]"] ;
10 -> 11 ;
12 [label="entropy = 0.0\nsamples = 4\nvalue = [4, 0, 0]"] ;
10 -> 12 ;
13 [label="i <= 17.777\nentropy = 0.035\nsamples = 4084\nvalue = [15, 0, 4069]"] ;
9 -> 13 ;
14 [label="entropy = 0.0\nsamples = 1\nvalue = [1, 0, 0]"] ;
13 -> 14 ;
15 [label="g <= 26.884\nentropy = 0.033\nsamples = 4083\nvalue = [14, 0, 4069]"] ;
13 -> 15 ;
16 [label="redshift <= -0.0\nentropy = 0.031\nsamples = 4080\nvalue = [13, 0, 4067]"] ;
15 -> 16 ;
17 [label="entropy = 0.0\nsamples = 1328\nvalue = [0, 0, 1328]"] ;
16 -> 17 ;
18 [label="redshift <= -0.0\nentropy = 0.043\nsamples = 2752\nvalue = [13, 0, 2739]"] ;
16 -> 18 ;
19 [label="entropy = 0.0\nsamples = 1\nvalue = [1, 0, 0]"] ;
18 -> 19 ;
20 [label="run_ID <= 3926.5\nentropy = 0.04\nsamples = 2751\nvalue = [12, 0, 2739]"] ;
18 -> 20 ;
21 [label="entropy = 0.0\nsamples = 644\nvalue = [0, 0, 644]"] ;
20 -> 21 ;
22 [label="field_ID <= 230.5\nentropy = 0.051\nsamples = 2107\nvalue = [12, 0, 2095]"] ;
20 -> 22 ;
23 [label="delta <= 11.454\nentropy = 0.062\nsamples = 1666\nvalue = [12, 0, 1654]"] ;
22 -> 23 ;
24 [label="delta <= 11.388\nentropy = 0.114\nsamples = 460\nvalue = [7, 0, 453]"] ;
23 -> 24 ;
25 [label="g <= 21.3\nentropy = 0.101\nsamples = 459\nvalue = [6, 0, 453]"] ;
24 -> 25 ;
26 [label="g <= 21.228\nentropy = 0.141\nsamples = 300\nvalue = [6, 0, 294]"] ;
25 -> 26 ;
27 [label="u <= 25.024\nentropy = 0.104\nsamples = 293\nvalue = [4, 0, 289]"] ;
26 -> 27 ;
28 [label="field_ID <= 229.5\nentropy = 0.083\nsamples = 292\nvalue = [3, 0, 289]"] ;
27 -> 28 ;
29 [label="MJD <= 58427.0\nentropy = 0.06\nsamples = 289\nvalue = [2, 0, 287]"] ;
28 -> 29 ;
30 [label="field_ID <= 44.5\nentropy = 0.034\nsamples = 283\nvalue = [1, 0, 282]"] ;
29 -> 30 ;
31 [label="field_ID <= 43.0\nentropy = 0.127\nsamples = 57\nvalue = [1, 0, 56]"] ;
30 -> 31 ;
32 [label="entropy = 0.0\nsamples = 54\nvalue = [0, 0, 54]"] ;
31 -> 32 ;
33 [label="r <= 19.216\nentropy = 0.918\nsamples = 3\nvalue = [1, 0, 2]"] ;
31 -> 33 ;
34 [label="entropy = 0.0\nsamples = 1\nvalue = [1, 0, 0]"] ;
33 -> 34 ;
35 [label="entropy = 0.0\nsamples = 2\nvalue = [0, 0, 2]"] ;
33 -> 35 ;
36 [label="entropy = 0.0\nsamples = 226\nvalue = [0, 0, 226]"] ;
30 -> 36 ;
37 [label="alpha <= 1.024\nentropy = 0.65\nsamples = 6\nvalue = [1, 0, 5]"] ;
29 -> 37 ;
38 [label="entropy = 0.0\nsamples = 1\nvalue = [1, 0, 0]"] ;
37 -> 38 ;
39 [label="entropy = 0.0\nsamples = 5\nvalue = [0, 0, 5]"] ;
37 -> 39 ;
40 [label="r <= 18.112\nentropy = 0.918\nsamples = 3\nvalue = [1, 0, 2]"] ;
28 -> 40 ;
41 [label="entropy = 0.0\nsamples = 1\nvalue = [1, 0, 0]"] ;
40 -> 41 ;
42 [label="entropy = 0.0\nsamples = 2\nvalue = [0, 0, 2]"] ;
40 -> 42 ;
43 [label="entropy = 0.0\nsamples = 1\nvalue = [1, 0, 0]"] ;
27 -> 43 ;
44 [label="field_ID <= 95.0\nentropy = 0.863\nsamples = 7\nvalue = [2, 0, 5]"] ;
26 -> 44 ;
45 [label="entropy = 0.0\nsamples = 4\nvalue = [0, 0, 4]"] ;
44 -> 45 ;
46 [label="r <= 19.974\nentropy = 0.918\nsamples = 3\nvalue = [2, 0, 1]"] ;
44 -> 46 ;
47 [label="entropy = 0.0\nsamples = 1\nvalue = [0, 0, 1]"] ;
46 -> 47 ;
48 [label="entropy = 0.0\nsamples = 2\nvalue = [2, 0, 0]"] ;
46 -> 48 ;
49 [label="entropy = 0.0\nsamples = 159\nvalue = [0, 0, 159]"] ;
25 -> 49 ;
50 [label="entropy = 0.0\nsamples = 1\nvalue = [1, 0, 0]"] ;
24 -> 50 ;
51 [label="u <= 21.814\nentropy = 0.039\nsamples = 1206\nvalue = [5, 0, 1201]"] ;
23 -> 51 ;
52 [label="entropy = 0.0\nsamples = 513\nvalue = [0, 0, 513]"] ;
51 -> 52 ;
53 [label="u <= 21.816\nentropy = 0.062\nsamples = 693\nvalue = [5, 0, 688]"] ;
51 -> 53 ;
54 [label="entropy = 0.0\nsamples = 1\nvalue = [1, 0, 0]"] ;
53 -> 54 ;
55 [label="MJD <= 56102.5\nentropy = 0.051\nsamples = 692\nvalue = [4, 0, 688]"] ;
53 -> 55 ;
56 [label="u <= 23.488\nentropy = 0.095\nsamples = 326\nvalue = [4, 0, 322]"] ;
55 -> 56 ;
57 [label="entropy = 0.0\nsamples = 177\nvalue = [0, 0, 177]"] ;
56 -> 57 ;
58 [label="u <= 23.96\nentropy = 0.178\nsamples = 149\nvalue = [4, 0, 145]"] ;
56 -> 58 ;
59 [label="z <= 19.129\nentropy = 0.533\nsamples = 33\nvalue = [4, 0, 29]"] ;
58 -> 59 ;
60 [label="entropy = 0.0\nsamples = 15\nvalue = [0, 0, 15]"] ;
59 -> 60 ;
61 [label="delta <= 22.773\nentropy = 0.764\nsamples = 18\nvalue = [4, 0, 14]"] ;
59 -> 61 ;
62 [label="entropy = 0.0\nsamples = 8\nvalue = [0, 0, 8]"] ;
61 -> 62 ;
63 [label="run_ID <= 6257.5\nentropy = 0.971\nsamples = 10\nvalue = [4, 0, 6]"] ;
61 -> 63 ;
64 [label="obj_ID <= 1.237663820697043e+18\nentropy = 0.811\nsamples = 8\nvalue = [2, 0, 6]"] ;
63 -> 64 ;
65 [label="alpha <= 235.935\nentropy = 1.0\nsamples = 4\nvalue = [2, 0, 2]"] ;
64 -> 65 ;
66 [label="entropy = 0.0\nsamples = 2\nvalue = [2, 0, 0]"] ;
65 -> 66 ;
67 [label="entropy = 0.0\nsamples = 2\nvalue = [0, 0, 2]"] ;
65 -> 67 ;
68 [label="entropy = 0.0\nsamples = 4\nvalue = [0, 0, 4]"] ;
64 -> 68 ;
69 [label="entropy = 0.0\nsamples = 2\nvalue = [2, 0, 0]"] ;
63 -> 69 ;
70 [label="entropy = 0.0\nsamples = 116\nvalue = [0, 0, 116]"] ;
58 -> 70 ;
71 [label="entropy = 0.0\nsamples = 366\nvalue = [0, 0, 366]"] ;
55 -> 71 ;
72 [label="entropy = 0.0\nsamples = 441\nvalue = [0, 0, 441]"] ;
22 -> 72 ;
73 [label="spec_obj_ID <= 1.017388609517178e+19\nentropy = 0.918\nsamples = 3\nvalue = [1, 0, 2]"] ;
15 -> 73 ;
74 [label="entropy = 0.0\nsamples = 2\nvalue = [0, 0, 2]"] ;
73 -> 74 ;
75 [label="entropy = 0.0\nsamples = 1\nvalue = [1, 0, 0]"] ;
73 -> 75 ;
76 [label="redshift <= -0.002\nentropy = 0.195\nsamples = 299\nvalue = [9, 0, 290]"] ;
4 -> 76 ;
77 [label="alpha <= 219.022\nentropy = 0.954\nsamples = 8\nvalue = [3, 0, 5]"] ;
76 -> 77 ;
78 [label="g <= 22.733\nentropy = 1.0\nsamples = 6\nvalue = [3, 0, 3]"] ;
77 -> 78 ;
79 [label="entropy = 0.0\nsamples = 2\nvalue = [2, 0, 0]"] ;
78 -> 79 ;
80 [label="plate <= 5711.0\nentropy = 0.811\nsamples = 4\nvalue = [1, 0, 3]"] ;
78 -> 80 ;
81 [label="entropy = 0.0\nsamples = 1\nvalue = [1, 0, 0]"] ;
80 -> 81 ;
82 [label="entropy = 0.0\nsamples = 3\nvalue = [0, 0, 3]"] ;
80 -> 82 ;
83 [label="entropy = 0.0\nsamples = 2\nvalue = [0, 0, 2]"] ;
77 -> 83 ;
84 [label="z <= 21.51\nentropy = 0.145\nsamples = 291\nvalue = [6, 0, 285]"] ;
76 -> 84 ;
85 [label="entropy = 0.0\nsamples = 1\nvalue = [1, 0, 0]"] ;
84 -> 85 ;
86 [label="redshift <= -0.0\nentropy = 0.126\nsamples = 290\nvalue = [5, 0, 285]"] ;
84 -> 86 ;
87 [label="redshift <= -0.0\nentropy = 0.237\nsamples = 129\nvalue = [5, 0, 124]"] ;
86 -> 87 ;
88 [label="z <= 21.801\nentropy = 0.201\nsamples = 128\nvalue = [4, 0, 124]"] ;
87 -> 88 ;
89 [label="i <= 21.972\nentropy = 0.371\nsamples = 56\nvalue = [4, 0, 52]"] ;
88 -> 89 ;
90 [label="z <= 21.791\nentropy = 0.139\nsamples = 51\nvalue = [1, 0, 50]"] ;
89 -> 90 ;
91 [label="entropy = 0.0\nsamples = 50\nvalue = [0, 0, 50]"] ;
90 -> 91 ;
92 [label="entropy = 0.0\nsamples = 1\nvalue = [1, 0, 0]"] ;
90 -> 92 ;
93 [label="r <= 22.233\nentropy = 0.971\nsamples = 5\nvalue = [3, 0, 2]"] ;
89 -> 93 ;
94 [label="entropy = 0.0\nsamples = 3\nvalue = [3, 0, 0]"] ;
93 -> 94 ;
95 [label="entropy = 0.0\nsamples = 2\nvalue = [0, 0, 2]"] ;
93 -> 95 ;
96 [label="entropy = 0.0\nsamples = 72\nvalue = [0, 0, 72]"] ;
88 -> 96 ;
97 [label="entropy = 0.0\nsamples = 1\nvalue = [1, 0, 0]"] ;
87 -> 97 ;
98 [label="entropy = 0.0\nsamples = 161\nvalue = [0, 0, 161]"] ;
86 -> 98 ;
99 [label="redshift <= 0.0\nentropy = 0.312\nsamples = 5912\nvalue = [326, 2, 5584]"] ;
1 -> 99 ;
100 [label="plate <= 3967.0\nentropy = 0.36\nsamples = 307\nvalue = [286, 0, 21]"] ;
99 -> 100 ;
101 [label="delta <= 22.893\nentropy = 0.662\nsamples = 99\nvalue = [82, 0, 17]"] ;
100 -> 101 ;
102 [label="fiber_ID <= 303.5\nentropy = 0.867\nsamples = 52\nvalue = [37, 0, 15]"] ;
101 -> 102 ;
103 [label="redshift <= 0.0\nentropy = 0.663\nsamples = 29\nvalue = [24, 0, 5]"] ;
102 -> 103 ;
104 [label="r <= 19.698\nentropy = 0.242\nsamples = 25\nvalue = [24, 0, 1]"] ;
103 -> 104 ;
105 [label="entropy = 0.0\nsamples = 23\nvalue = [23, 0, 0]"] ;
104 -> 105 ;
106 [label="fiber_ID <= 248.0\nentropy = 1.0\nsamples = 2\nvalue = [1, 0, 1]"] ;
104 -> 106 ;
107 [label="entropy = 0.0\nsamples = 1\nvalue = [1, 0, 0]"] ;
106 -> 107 ;
108 [label="entropy = 0.0\nsamples = 1\nvalue = [0, 0, 1]"] ;
106 -> 108 ;
109 [label="entropy = 0.0\nsamples = 4\nvalue = [0, 0, 4]"] ;
103 -> 109 ;
110 [label="field_ID <= 233.0\nentropy = 0.988\nsamples = 23\nvalue = [13, 0, 10]"] ;
102 -> 110 ;
111 [label="g <= 18.465\nentropy = 0.89\nsamples = 13\nvalue = [4, 0, 9]"] ;
110 -> 111 ;
112 [label="redshift <= 0.0\nentropy = 0.985\nsamples = 7\nvalue = [4, 0, 3]"] ;
111 -> 112 ;
113 [label="entropy = 0.0\nsamples = 4\nvalue = [4, 0, 0]"] ;
112 -> 113 ;
114 [label="entropy = 0.0\nsamples = 3\nvalue = [0, 0, 3]"] ;
112 -> 114 ;
115 [label="entropy = 0.0\nsamples = 6\nvalue = [0, 0, 6]"] ;
111 -> 115 ;
116 [label="i <= 16.298\nentropy = 0.469\nsamples = 10\nvalue = [9, 0, 1]"] ;
110 -> 116 ;
117 [label="alpha <= 133.066\nentropy = 1.0\nsamples = 2\nvalue = [1, 0, 1]"] ;
116 -> 117 ;
118 [label="entropy = 0.0\nsamples = 1\nvalue = [1, 0, 0]"] ;
117 -> 118 ;
119 [label="entropy = 0.0\nsamples = 1\nvalue = [0, 0, 1]"] ;
117 -> 119 ;
120 [label="entropy = 0.0\nsamples = 8\nvalue = [8, 0, 0]"] ;
116 -> 120 ;
121 [label="redshift <= 0.0\nentropy = 0.254\nsamples = 47\nvalue = [45, 0, 2]"] ;
101 -> 121 ;
122 [label="entropy = 0.0\nsamples = 45\nvalue = [45, 0, 0]"] ;
121 -> 122 ;
123 [label="entropy = 0.0\nsamples = 2\nvalue = [0, 0, 2]"] ;
121 -> 123 ;
124 [label="redshift <= 0.0\nentropy = 0.137\nsamples = 208\nvalue = [204, 0, 4]"] ;
100 -> 124 ;
125 [label="field_ID <= 478.0\nentropy = 0.044\nsamples = 205\nvalue = [204, 0, 1]"] ;
124 -> 125 ;
126 [label="entropy = 0.0\nsamples = 190\nvalue = [190, 0, 0]"] ;
125 -> 126 ;
127 [label="z <= 19.508\nentropy = 0.353\nsamples = 15\nvalue = [14, 0, 1]"] ;
125 -> 127 ;
128 [label="entropy = 0.0\nsamples = 1\nvalue = [0, 0, 1]"] ;
127 -> 128 ;
129 [label="entropy = 0.0\nsamples = 14\nvalue = [14, 0, 0]"] ;
127 -> 129 ;
130 [label="entropy = 0.0\nsamples = 3\nvalue = [0, 0, 3]"] ;
124 -> 130 ;
131 [label="redshift <= 0.001\nentropy = 0.066\nsamples = 5605\nvalue = [40, 2, 5563]"] ;
99 -> 131 ;
132 [label="z <= 20.327\nentropy = 0.029\nsamples = 5351\nvalue = [14, 1, 5336]"] ;
131 -> 132 ;
133 [label="field_ID <= 131.5\nentropy = 0.019\nsamples = 4602\nvalue = [7, 1, 4594]"] ;
132 -> 133 ;
134 [label="run_ID <= 3926.5\nentropy = 0.031\nsamples = 2184\nvalue = [7, 0, 2177]"] ;
133 -> 134 ;
135 [label="alpha <= 87.528\nentropy = 0.054\nsamples = 1149\nvalue = [7, 0, 1142]"] ;
134 -> 135 ;
136 [label="alpha <= 64.46\nentropy = 0.15\nsamples = 186\nvalue = [4, 0, 182]"] ;
135 -> 136 ;
137 [label="entropy = 0.0\nsamples = 136\nvalue = [0, 0, 136]"] ;
136 -> 137 ;
138 [label="spec_obj_ID <= 1.4086086730385981e+18\nentropy = 0.402\nsamples = 50\nvalue = [4, 0, 46]"] ;
136 -> 138 ;
139 [label="spec_obj_ID <= 1.402996628251476e+18\nentropy = 0.787\nsamples = 17\nvalue = [4, 0, 13]"] ;
138 -> 139 ;
140 [label="entropy = 0.0\nsamples = 9\nvalue = [0, 0, 9]"] ;
139 -> 140 ;
141 [label="r <= 17.115\nentropy = 1.0\nsamples = 8\nvalue = [4, 0, 4]"] ;
139 -> 141 ;
142 [label="entropy = 0.0\nsamples = 3\nvalue = [3, 0, 0]"] ;
141 -> 142 ;
143 [label="delta <= -0.35\nentropy = 0.722\nsamples = 5\nvalue = [1, 0, 4]"] ;
141 -> 143 ;
144 [label="entropy = 0.0\nsamples = 1\nvalue = [1, 0, 0]"] ;
143 -> 144 ;
145 [label="entropy = 0.0\nsamples = 4\nvalue = [0, 0, 4]"] ;
143 -> 145 ;
146 [label="entropy = 0.0\nsamples = 33\nvalue = [0, 0, 33]"] ;
138 -> 146 ;
147 [label="g <= 25.003\nentropy = 0.03\nsamples = 963\nvalue = [3, 0, 960]"] ;
135 -> 147 ;
148 [label="field_ID <= 130.5\nentropy = 0.022\nsamples = 957\nvalue = [2, 0, 955]"] ;
147 -> 148 ;
149 [label="delta <= -1.148\nentropy = 0.012\nsamples = 950\nvalue = [1, 0, 949]"] ;
148 -> 149 ;
150 [label="delta <= -1.183\nentropy = 0.1\nsamples = 77\nvalue = [1, 0, 76]"] ;
149 -> 150 ;
151 [label="entropy = 0.0\nsamples = 76\nvalue = [0, 0, 76]"] ;
150 -> 151 ;
152 [label="entropy = 0.0\nsamples = 1\nvalue = [1, 0, 0]"] ;
150 -> 152 ;
153 [label="entropy = 0.0\nsamples = 873\nvalue = [0, 0, 873]"] ;
149 -> 153 ;
154 [label="g <= 17.672\nentropy = 0.592\nsamples = 7\nvalue = [1, 0, 6]"] ;
148 -> 154 ;
155 [label="entropy = 0.0\nsamples = 1\nvalue = [1, 0, 0]"] ;
154 -> 155 ;
156 [label="entropy = 0.0\nsamples = 6\nvalue = [0, 0, 6]"] ;
154 -> 156 ;
157 [label="field_ID <= 38.0\nentropy = 0.65\nsamples = 6\nvalue = [1, 0, 5]"] ;
147 -> 157 ;
158 [label="entropy = 0.0\nsamples = 1\nvalue = [1, 0, 0]"] ;
157 -> 158 ;
159 [label="entropy = 0.0\nsamples = 5\nvalue = [0, 0, 5]"] ;
157 -> 159 ;
160 [label="entropy = 0.0\nsamples = 1035\nvalue = [0, 0, 1035]"] ;
134 -> 160 ;
161 [label="delta <= 55.997\nentropy = 0.005\nsamples = 2418\nvalue = [0, 1, 2417]"] ;
133 -> 161 ;
162 [label="entropy = 0.0\nsamples = 2343\nvalue = [0, 0, 2343]"] ;
161 -> 162 ;
163 [label="delta <= 56.288\nentropy = 0.102\nsamples = 75\nvalue = [0, 1, 74]"] ;
161 -> 163 ;
164 [label="entropy = 0.0\nsamples = 1\nvalue = [0, 1, 0]"] ;
163 -> 164 ;
165 [label="entropy = 0.0\nsamples = 74\nvalue = [0, 0, 74]"] ;
163 -> 165 ;
166 [label="g <= 22.296\nentropy = 0.076\nsamples = 749\nvalue = [7, 0, 742]"] ;
132 -> 166 ;
167 [label="alpha <= 131.237\nentropy = 0.051\nsamples = 699\nvalue = [4, 0, 695]"] ;
166 -> 167 ;
168 [label="alpha <= 130.164\nentropy = 0.165\nsamples = 165\nvalue = [4, 0, 161]"] ;
167 -> 168 ;
169 [label="MJD <= 58516.5\nentropy = 0.096\nsamples = 162\nvalue = [2, 0, 160]"] ;
168 -> 169 ;
170 [label="redshift <= 0.001\nentropy = 0.054\nsamples = 161\nvalue = [1, 0, 160]"] ;
169 -> 170 ;
171 [label="entropy = 0.0\nsamples = 150\nvalue = [0, 0, 150]"] ;
170 -> 171 ;
172 [label="redshift <= 0.001\nentropy = 0.439\nsamples = 11\nvalue = [1, 0, 10]"] ;
170 -> 172 ;
173 [label="entropy = 0.0\nsamples = 1\nvalue = [1, 0, 0]"] ;
172 -> 173 ;
174 [label="entropy = 0.0\nsamples = 10\nvalue = [0, 0, 10]"] ;
172 -> 174 ;
175 [label="entropy = 0.0\nsamples = 1\nvalue = [1, 0, 0]"] ;
169 -> 175 ;
176 [label="MJD <= 55949.0\nentropy = 0.918\nsamples = 3\nvalue = [2, 0, 1]"] ;
168 -> 176 ;
177 [label="entropy = 0.0\nsamples = 2\nvalue = [2, 0, 0]"] ;
176 -> 177 ;
178 [label="entropy = 0.0\nsamples = 1\nvalue = [0, 0, 1]"] ;
176 -> 178 ;
179 [label="entropy = 0.0\nsamples = 534\nvalue = [0, 0, 534]"] ;
167 -> 179 ;
180 [label="g <= 22.305\nentropy = 0.327\nsamples = 50\nvalue = [3, 0, 47]"] ;
166 -> 180 ;
181 [label="entropy = 0.0\nsamples = 2\nvalue = [2, 0, 0]"] ;
180 -> 181 ;
182 [label="run_ID <= 8015.5\nentropy = 0.146\nsamples = 48\nvalue = [1, 0, 47]"] ;
180 -> 182 ;
183 [label="entropy = 0.0\nsamples = 47\nvalue = [0, 0, 47]"] ;
182 -> 183 ;
184 [label="entropy = 0.0\nsamples = 1\nvalue = [1, 0, 0]"] ;
182 -> 184 ;
185 [label="g <= 16.874\nentropy = 0.513\nsamples = 254\nvalue = [26, 1, 227]"] ;
131 -> 185 ;
186 [label="redshift <= 0.002\nentropy = 0.998\nsamples = 17\nvalue = [9, 0, 8]"] ;
185 -> 186 ;
187 [label="alpha <= 206.595\nentropy = 0.544\nsamples = 8\nvalue = [1, 0, 7]"] ;
186 -> 187 ;
188 [label="entropy = 0.0\nsamples = 7\nvalue = [0, 0, 7]"] ;
187 -> 188 ;
189 [label="entropy = 0.0\nsamples = 1\nvalue = [1, 0, 0]"] ;
187 -> 189 ;
190 [label="redshift <= 0.004\nentropy = 0.503\nsamples = 9\nvalue = [8, 0, 1]"] ;
186 -> 190 ;
191 [label="entropy = 0.0\nsamples = 8\nvalue = [8, 0, 0]"] ;
190 -> 191 ;
192 [label="entropy = 0.0\nsamples = 1\nvalue = [0, 0, 1]"] ;
190 -> 192 ;
193 [label="delta <= 40.395\nentropy = 0.411\nsamples = 237\nvalue = [17, 1, 219]"] ;
185 -> 193 ;
194 [label="redshift <= 0.002\nentropy = 0.308\nsamples = 202\nvalue = [9, 1, 192]"] ;
193 -> 194 ;
195 [label="redshift <= 0.001\nentropy = 0.147\nsamples = 143\nvalue = [3, 0, 140]"] ;
194 -> 195 ;
196 [label="entropy = 0.0\nsamples = 1\nvalue = [1, 0, 0]"] ;
195 -> 196 ;
197 [label="plate <= 9452.5\nentropy = 0.107\nsamples = 142\nvalue = [2, 0, 140]"] ;
195 -> 197 ;
198 [label="entropy = 0.0\nsamples = 130\nvalue = [0, 0, 130]"] ;
197 -> 198 ;
199 [label="u <= 22.858\nentropy = 0.65\nsamples = 12\nvalue = [2, 0, 10]"] ;
197 -> 199 ;
200 [label="entropy = 0.0\nsamples = 10\nvalue = [0, 0, 10]"] ;
199 -> 200 ;
201 [label="entropy = 0.0\nsamples = 2\nvalue = [2, 0, 0]"] ;
199 -> 201 ;
202 [label="r <= 21.179\nentropy = 0.596\nsamples = 59\nvalue = [6, 1, 52]"] ;
194 -> 202 ;
203 [label="i <= 20.761\nentropy = 0.75\nsamples = 28\nvalue = [6, 0, 22]"] ;
202 -> 203 ;
204 [label="u <= 18.634\nentropy = 0.414\nsamples = 24\nvalue = [2, 0, 22]"] ;
203 -> 204 ;
205 [label="entropy = 0.0\nsamples = 1\nvalue = [1, 0, 0]"] ;
204 -> 205 ;
206 [label="run_ID <= 7338.5\nentropy = 0.258\nsamples = 23\nvalue = [1, 0, 22]"] ;
204 -> 206 ;
207 [label="entropy = 0.0\nsamples = 21\nvalue = [0, 0, 21]"] ;
206 -> 207 ;
208 [label="z <= 19.792\nentropy = 1.0\nsamples = 2\nvalue = [1, 0, 1]"] ;
206 -> 208 ;
209 [label="entropy = 0.0\nsamples = 1\nvalue = [0, 0, 1]"] ;
208 -> 209 ;
210 [label="entropy = 0.0\nsamples = 1\nvalue = [1, 0, 0]"] ;
208 -> 210 ;
211 [label="entropy = 0.0\nsamples = 4\nvalue = [4, 0, 0]"] ;
203 -> 211 ;
212 [label="redshift <= 0.002\nentropy = 0.206\nsamples = 31\nvalue = [0, 1, 30]"] ;
202 -> 212 ;
213 [label="entropy = 0.0\nsamples = 1\nvalue = [0, 1, 0]"] ;
212 -> 213 ;
214 [label="entropy = 0.0\nsamples = 30\nvalue = [0, 0, 30]"] ;
212 -> 214 ;
215 [label="u <= 23.894\nentropy = 0.776\nsamples = 35\nvalue = [8, 0, 27]"] ;
193 -> 215 ;
216 [label="redshift <= 0.002\nentropy = 0.625\nsamples = 32\nvalue = [5, 0, 27]"] ;
215 -> 216 ;
217 [label="spec_obj_ID <= 1.6815945953491026e+18\nentropy = 0.267\nsamples = 22\nvalue = [1, 0, 21]"] ;
216 -> 217 ;
218 [label="entropy = 0.0\nsamples = 1\nvalue = [1, 0, 0]"] ;
217 -> 218 ;
219 [label="entropy = 0.0\nsamples = 21\nvalue = [0, 0, 21]"] ;
217 -> 219 ;
220 [label="redshift <= 0.003\nentropy = 0.971\nsamples = 10\nvalue = [4, 0, 6]"] ;
216 -> 220 ;
221 [label="entropy = 0.0\nsamples = 3\nvalue = [3, 0, 0]"] ;
220 -> 221 ;
222 [label="MJD <= 52409.0\nentropy = 0.592\nsamples = 7\nvalue = [1, 0, 6]"] ;
220 -> 222 ;
223 [label="entropy = 0.0\nsamples = 1\nvalue = [1, 0, 0]"] ;
222 -> 223 ;
224 [label="entropy = 0.0\nsamples = 6\nvalue = [0, 0, 6]"] ;
222 -> 224 ;
225 [label="entropy = 0.0\nsamples = 3\nvalue = [3, 0, 0]"] ;
215 -> 225 ;
226 [label="redshift <= 0.993\nentropy = 0.8\nsamples = 54499\nvalue = [41240, 13259, 0]"] ;
0 -> 226 [labeldistance=2.5, labelangle=-45, headlabel="False"] ;
227 [label="redshift <= 0.685\nentropy = 0.331\nsamples = 43200\nvalue = [40569, 2631, 0]"] ;
226 -> 227 ;
228 [label="plate <= 7209.5\nentropy = 0.219\nsamples = 36311\nvalue = [35041, 1270, 0]"] ;
227 -> 228 ;
229 [label="z <= 19.654\nentropy = 0.161\nsamples = 32810\nvalue = [32034, 776, 0]"] ;
228 -> 229 ;
230 [label="u <= 22.218\nentropy = 0.135\nsamples = 31207\nvalue = [30618, 589, 0]"] ;
229 -> 230 ;
231 [label="z <= 17.446\nentropy = 0.211\nsamples = 14644\nvalue = [14155, 489, 0]"] ;
230 -> 231 ;
232 [label="u <= 18.924\nentropy = 0.081\nsamples = 11648\nvalue = [11532, 116, 0]"] ;
231 -> 232 ;
233 [label="redshift <= 0.164\nentropy = 0.176\nsamples = 2471\nvalue = [2406, 65, 0]"] ;
232 -> 233 ;
234 [label="redshift <= 0.083\nentropy = 0.114\nsamples = 2431\nvalue = [2394, 37, 0]"] ;
233 -> 234 ;
235 [label="redshift <= 0.051\nentropy = 0.054\nsamples = 1958\nvalue = [1946, 12, 0]"] ;
234 -> 235 ;
236 [label="u <= 17.109\nentropy = 0.011\nsamples = 1061\nvalue = [1060, 1, 0]"] ;
235 -> 236 ;
237 [label="u <= 17.099\nentropy = 0.044\nsamples = 207\nvalue = [206, 1, 0]"] ;
236 -> 237 ;
238 [label="entropy = 0.0\nsamples = 206\nvalue = [206, 0, 0]"] ;
237 -> 238 ;
239 [label="entropy = 0.0\nsamples = 1\nvalue = [0, 1, 0]"] ;
237 -> 239 ;
240 [label="entropy = 0.0\nsamples = 854\nvalue = [854, 0, 0]"] ;
236 -> 240 ;
241 [label="u <= 17.064\nentropy = 0.095\nsamples = 897\nvalue = [886, 11, 0]"] ;
235 -> 241 ;
242 [label="u <= 16.634\nentropy = 0.896\nsamples = 16\nvalue = [11, 5, 0]"] ;
241 -> 242 ;
243 [label="entropy = 0.0\nsamples = 2\nvalue = [0, 2, 0]"] ;
242 -> 243 ;
244 [label="g <= 15.913\nentropy = 0.75\nsamples = 14\nvalue = [11, 3, 0]"] ;
242 -> 244 ;
245 [label="redshift <= 0.052\nentropy = 0.439\nsamples = 11\nvalue = [10, 1, 0]"] ;
244 -> 245 ;
246 [label="entropy = 0.0\nsamples = 1\nvalue = [0, 1, 0]"] ;
245 -> 246 ;
247 [label="entropy = 0.0\nsamples = 10\nvalue = [10, 0, 0]"] ;
245 -> 247 ;
248 [label="MJD <= 53013.0\nentropy = 0.918\nsamples = 3\nvalue = [1, 2, 0]"] ;
244 -> 248 ;
249 [label="entropy = 0.0\nsamples = 1\nvalue = [1, 0, 0]"] ;
248 -> 249 ;
250 [label="entropy = 0.0\nsamples = 2\nvalue = [0, 2, 0]"] ;
248 -> 250 ;
251 [label="alpha <= 214.462\nentropy = 0.059\nsamples = 881\nvalue = [875, 6, 0]"] ;
241 -> 251 ;
252 [label="entropy = 0.0\nsamples = 627\nvalue = [627, 0, 0]"] ;
251 -> 252 ;
253 [label="alpha <= 214.515\nentropy = 0.161\nsamples = 254\nvalue = [248, 6, 0]"] ;
251 -> 253 ;
254 [label="entropy = 0.0\nsamples = 1\nvalue = [0, 1, 0]"] ;
253 -> 254 ;
255 [label="i <= 15.866\nentropy = 0.14\nsamples = 253\nvalue = [248, 5, 0]"] ;
253 -> 255 ;
256 [label="i <= 15.858\nentropy = 0.238\nsamples = 128\nvalue = [123, 5, 0]"] ;
255 -> 256 ;
257 [label="cam_col <= 2.5\nentropy = 0.202\nsamples = 127\nvalue = [123, 4, 0]"] ;
256 -> 257 ;
258 [label="spec_obj_ID <= 1.5813890913232486e+18\nentropy = 0.386\nsamples = 53\nvalue = [49, 4, 0]"] ;
257 -> 258 ;
259 [label="entropy = 0.0\nsamples = 29\nvalue = [29, 0, 0]"] ;
258 -> 259 ;
260 [label="delta <= 29.611\nentropy = 0.65\nsamples = 24\nvalue = [20, 4, 0]"] ;
258 -> 260 ;
261 [label="z <= 15.323\nentropy = 0.286\nsamples = 20\nvalue = [19, 1, 0]"] ;
260 -> 261 ;
262 [label="entropy = 0.0\nsamples = 18\nvalue = [18, 0, 0]"] ;
261 -> 262 ;
263 [label="delta <= 23.912\nentropy = 1.0\nsamples = 2\nvalue = [1, 1, 0]"] ;
261 -> 263 ;
264 [label="entropy = 0.0\nsamples = 1\nvalue = [0, 1, 0]"] ;
263 -> 264 ;
265 [label="entropy = 0.0\nsamples = 1\nvalue = [1, 0, 0]"] ;
263 -> 265 ;
266 [label="alpha <= 225.752\nentropy = 0.811\nsamples = 4\nvalue = [1, 3, 0]"] ;
260 -> 266 ;
267 [label="entropy = 0.0\nsamples = 1\nvalue = [1, 0, 0]"] ;
266 -> 267 ;
268 [label="entropy = 0.0\nsamples = 3\nvalue = [0, 3, 0]"] ;
266 -> 268 ;
269 [label="entropy = 0.0\nsamples = 74\nvalue = [74, 0, 0]"] ;
257 -> 269 ;
270 [label="entropy = 0.0\nsamples = 1\nvalue = [0, 1, 0]"] ;
256 -> 270 ;
271 [label="entropy = 0.0\nsamples = 125\nvalue = [125, 0, 0]"] ;
255 -> 271 ;
272 [label="u <= 18.033\nentropy = 0.298\nsamples = 473\nvalue = [448, 25, 0]"] ;
234 -> 272 ;
273 [label="redshift <= 0.099\nentropy = 0.918\nsamples = 30\nvalue = [20, 10, 0]"] ;
272 -> 273 ;
274 [label="u <= 18.001\nentropy = 0.353\nsamples = 15\nvalue = [14, 1, 0]"] ;
273 -> 274 ;
275 [label="entropy = 0.0\nsamples = 14\nvalue = [14, 0, 0]"] ;
274 -> 275 ;
276 [label="entropy = 0.0\nsamples = 1\nvalue = [0, 1, 0]"] ;
274 -> 276 ;
277 [label="delta <= 35.578\nentropy = 0.971\nsamples = 15\nvalue = [6, 9, 0]"] ;
273 -> 277 ;
278 [label="entropy = 0.0\nsamples = 7\nvalue = [0, 7, 0]"] ;
277 -> 278 ;
279 [label="z <= 15.177\nentropy = 0.811\nsamples = 8\nvalue = [6, 2, 0]"] ;
277 -> 279 ;
280 [label="entropy = 0.0\nsamples = 2\nvalue = [0, 2, 0]"] ;
279 -> 280 ;
281 [label="entropy = 0.0\nsamples = 6\nvalue = [6, 0, 0]"] ;
279 -> 281 ;
282 [label="g <= 18.041\nentropy = 0.213\nsamples = 443\nvalue = [428, 15, 0]"] ;
272 -> 282 ;
283 [label="alpha <= 134.794\nentropy = 0.181\nsamples = 440\nvalue = [428, 12, 0]"] ;
282 -> 283 ;
284 [label="u <= 18.413\nentropy = 0.491\nsamples = 56\nvalue = [50, 6, 0]"] ;
283 -> 284 ;
285 [label="g <= 17.018\nentropy = 1.0\nsamples = 6\nvalue = [3, 3, 0]"] ;
284 -> 285 ;
286 [label="entropy = 0.0\nsamples = 3\nvalue = [3, 0, 0]"] ;
285 -> 286 ;
287 [label="entropy = 0.0\nsamples = 3\nvalue = [0, 3, 0]"] ;
285 -> 287 ;
288 [label="MJD <= 53712.5\nentropy = 0.327\nsamples = 50\nvalue = [47, 3, 0]"] ;
284 -> 288 ;
289 [label="entropy = 0.0\nsamples = 38\nvalue = [38, 0, 0]"] ;
288 -> 289 ;
290 [label="redshift <= 0.097\nentropy = 0.811\nsamples = 12\nvalue = [9, 3, 0]"] ;
288 -> 290 ;
291 [label="cam_col <= 2.5\nentropy = 1.0\nsamples = 6\nvalue = [3, 3, 0]"] ;
290 -> 291 ;
292 [label="entropy = 0.0\nsamples = 3\nvalue = [0, 3, 0]"] ;
291 -> 292 ;
293 [label="entropy = 0.0\nsamples = 3\nvalue = [3, 0, 0]"] ;
291 -> 293 ;
294 [label="entropy = 0.0\nsamples = 6\nvalue = [6, 0, 0]"] ;
290 -> 294 ;
295 [label="run_ID <= 4098.5\nentropy = 0.116\nsamples = 384\nvalue = [378, 6, 0]"] ;
283 -> 295 ;
296 [label="entropy = 0.0\nsamples = 226\nvalue = [226, 0, 0]"] ;
295 -> 296 ;
297 [label="MJD <= 53485.5\nentropy = 0.233\nsamples = 158\nvalue = [152, 6, 0]"] ;
295 -> 297 ;
298 [label="g <= 17.488\nentropy = 0.562\nsamples = 38\nvalue = [33, 5, 0]"] ;
297 -> 298 ;
299 [label="field_ID <= 511.5\nentropy = 0.353\nsamples = 30\nvalue = [28, 2, 0]"] ;
298 -> 299 ;
300 [label="u <= 18.272\nentropy = 0.216\nsamples = 29\nvalue = [28, 1, 0]"] ;
299 -> 300 ;
301 [label="field_ID <= 86.0\nentropy = 0.918\nsamples = 3\nvalue = [2, 1, 0]"] ;
300 -> 301 ;
302 [label="entropy = 0.0\nsamples = 1\nvalue = [0, 1, 0]"] ;
301 -> 302 ;
303 [label="entropy = 0.0\nsamples = 2\nvalue = [2, 0, 0]"] ;
301 -> 303 ;
304 [label="entropy = 0.0\nsamples = 26\nvalue = [26, 0, 0]"] ;
300 -> 304 ;
305 [label="entropy = 0.0\nsamples = 1\nvalue = [0, 1, 0]"] ;
299 -> 305 ;
306 [label="cam_col <= 2.0\nentropy = 0.954\nsamples = 8\nvalue = [5, 3, 0]"] ;
298 -> 306 ;
307 [label="entropy = 0.0\nsamples = 5\nvalue = [5, 0, 0]"] ;
306 -> 307 ;
308 [label="entropy = 0.0\nsamples = 3\nvalue = [0, 3, 0]"] ;
306 -> 308 ;
309 [label="fiber_ID <= 43.5\nentropy = 0.07\nsamples = 120\nvalue = [119, 1, 0]"] ;
297 -> 309 ;
310 [label="run_ID <= 5222.5\nentropy = 0.811\nsamples = 4\nvalue = [3, 1, 0]"] ;
309 -> 310 ;
311 [label="entropy = 0.0\nsamples = 1\nvalue = [0, 1, 0]"] ;
310 -> 311 ;
312 [label="entropy = 0.0\nsamples = 3\nvalue = [3, 0, 0]"] ;
310 -> 312 ;
313 [label="entropy = 0.0\nsamples = 116\nvalue = [116, 0, 0]"] ;
309 -> 313 ;
314 [label="entropy = 0.0\nsamples = 3\nvalue = [0, 3, 0]"] ;
282 -> 314 ;
315 [label="u <= 18.396\nentropy = 0.881\nsamples = 40\nvalue = [12, 28, 0]"] ;
233 -> 315 ;
316 [label="entropy = 0.0\nsamples = 19\nvalue = [0, 19, 0]"] ;
315 -> 316 ;
317 [label="r <= 17.539\nentropy = 0.985\nsamples = 21\nvalue = [12, 9, 0]"] ;
315 -> 317 ;
318 [label="obj_ID <= 1.2376596975284388e+18\nentropy = 0.414\nsamples = 12\nvalue = [11, 1, 0]"] ;
317 -> 318 ;
319 [label="entropy = 0.0\nsamples = 1\nvalue = [0, 1, 0]"] ;
318 -> 319 ;
320 [label="entropy = 0.0\nsamples = 11\nvalue = [11, 0, 0]"] ;
318 -> 320 ;
321 [label="fiber_ID <= 568.5\nentropy = 0.503\nsamples = 9\nvalue = [1, 8, 0]"] ;
317 -> 321 ;
322 [label="entropy = 0.0\nsamples = 8\nvalue = [0, 8, 0]"] ;
321 -> 322 ;
323 [label="entropy = 0.0\nsamples = 1\nvalue = [1, 0, 0]"] ;
321 -> 323 ;
324 [label="redshift <= 0.135\nentropy = 0.05\nsamples = 9177\nvalue = [9126, 51, 0]"] ;
232 -> 324 ;
325 [label="redshift <= 0.104\nentropy = 0.019\nsamples = 5116\nvalue = [5107, 9, 0]"] ;
324 -> 325 ;
326 [label="g <= 18.416\nentropy = 0.008\nsamples = 3108\nvalue = [3106, 2, 0]"] ;
325 -> 326 ;
327 [label="entropy = 0.0\nsamples = 2646\nvalue = [2646, 0, 0]"] ;
326 -> 327 ;
328 [label="g <= 18.423\nentropy = 0.04\nsamples = 462\nvalue = [460, 2, 0]"] ;
326 -> 328 ;
329 [label="u <= 19.853\nentropy = 0.722\nsamples = 10\nvalue = [8, 2, 0]"] ;
328 -> 329 ;
330 [label="entropy = 0.0\nsamples = 2\nvalue = [0, 2, 0]"] ;
329 -> 330 ;
331 [label="entropy = 0.0\nsamples = 8\nvalue = [8, 0, 0]"] ;
329 -> 331 ;
332 [label="entropy = 0.0\nsamples = 452\nvalue = [452, 0, 0]"] ;
328 -> 332 ;
333 [label="redshift <= 0.104\nentropy = 0.033\nsamples = 2008\nvalue = [2001, 7, 0]"] ;
325 -> 333 ;
334 [label="entropy = 0.0\nsamples = 1\nvalue = [0, 1, 0]"] ;
333 -> 334 ;
335 [label="u <= 19.534\nentropy = 0.029\nsamples = 2007\nvalue = [2001, 6, 0]"] ;
333 -> 335 ;
336 [label="u <= 19.534\nentropy = 0.074\nsamples = 553\nvalue = [548, 5, 0]"] ;
335 -> 336 ;
337 [label="field_ID <= 788.0\nentropy = 0.062\nsamples = 552\nvalue = [548, 4, 0]"] ;
336 -> 337 ;
338 [label="spec_obj_ID <= 1.6360713779853394e+18\nentropy = 0.049\nsamples = 551\nvalue = [548, 3, 0]"] ;
337 -> 338 ;
339 [label="entropy = 0.0\nsamples = 286\nvalue = [286, 0, 0]"] ;
338 -> 339 ;
340 [label="plate <= 1455.5\nentropy = 0.089\nsamples = 265\nvalue = [262, 3, 0]"] ;
338 -> 340 ;
341 [label="entropy = 0.0\nsamples = 1\nvalue = [0, 1, 0]"] ;
340 -> 341 ;
342 [label="alpha <= 151.912\nentropy = 0.064\nsamples = 264\nvalue = [262, 2, 0]"] ;
340 -> 342 ;
343 [label="alpha <= 151.789\nentropy = 0.187\nsamples = 70\nvalue = [68, 2, 0]"] ;
342 -> 343 ;
344 [label="field_ID <= 47.5\nentropy = 0.109\nsamples = 69\nvalue = [68, 1, 0]"] ;
343 -> 344 ;
345 [label="field_ID <= 45.5\nentropy = 0.722\nsamples = 5\nvalue = [4, 1, 0]"] ;
344 -> 345 ;
346 [label="entropy = 0.0\nsamples = 4\nvalue = [4, 0, 0]"] ;
345 -> 346 ;
347 [label="entropy = 0.0\nsamples = 1\nvalue = [0, 1, 0]"] ;
345 -> 347 ;
348 [label="entropy = 0.0\nsamples = 64\nvalue = [64, 0, 0]"] ;
344 -> 348 ;
349 [label="entropy = 0.0\nsamples = 1\nvalue = [0, 1, 0]"] ;
343 -> 349 ;
350 [label="entropy = 0.0\nsamples = 194\nvalue = [194, 0, 0]"] ;
342 -> 350 ;
351 [label="entropy = 0.0\nsamples = 1\nvalue = [0, 1, 0]"] ;
337 -> 351 ;
352 [label="entropy = 0.0\nsamples = 1\nvalue = [0, 1, 0]"] ;
336 -> 352 ;
353 [label="g <= 18.913\nentropy = 0.008\nsamples = 1454\nvalue = [1453, 1, 0]"] ;
335 -> 353 ;
354 [label="entropy = 0.0\nsamples = 1411\nvalue = [1411, 0, 0]"] ;
353 -> 354 ;
355 [label="g <= 18.917\nentropy = 0.159\nsamples = 43\nvalue = [42, 1, 0]"] ;
353 -> 355 ;
356 [label="entropy = 0.0\nsamples = 1\nvalue = [0, 1, 0]"] ;
355 -> 356 ;
357 [label="entropy = 0.0\nsamples = 42\nvalue = [42, 0, 0]"] ;
355 -> 357 ;
358 [label="u <= 19.793\nentropy = 0.083\nsamples = 4061\nvalue = [4019, 42, 0]"] ;
324 -> 358 ;
359 [label="redshift <= 0.237\nentropy = 0.251\nsamples = 573\nvalue = [549, 24, 0]"] ;
358 -> 359 ;
360 [label="g <= 18.582\nentropy = 0.18\nsamples = 553\nvalue = [538, 15, 0]"] ;
359 -> 360 ;
361 [label="run_ID <= 7772.5\nentropy = 0.145\nsamples = 532\nvalue = [521, 11, 0]"] ;
360 -> 361 ;
362 [label="u <= 19.217\nentropy = 0.114\nsamples = 521\nvalue = [513, 8, 0]"] ;
361 -> 362 ;
363 [label="g <= 18.183\nentropy = 0.335\nsamples = 97\nvalue = [91, 6, 0]"] ;
362 -> 363 ;
364 [label="u <= 19.216\nentropy = 0.209\nsamples = 91\nvalue = [88, 3, 0]"] ;
363 -> 364 ;
365 [label="g <= 17.686\nentropy = 0.154\nsamples = 90\nvalue = [88, 2, 0]"] ;
364 -> 365 ;
366 [label="r <= 16.954\nentropy = 0.353\nsamples = 30\nvalue = [28, 2, 0]"] ;
365 -> 366 ;
367 [label="field_ID <= 42.5\nentropy = 0.216\nsamples = 29\nvalue = [28, 1, 0]"] ;
366 -> 367 ;
368 [label="spec_obj_ID <= 1.4570137447385006e+18\nentropy = 1.0\nsamples = 2\nvalue = [1, 1, 0]"] ;
367 -> 368 ;
369 [label="entropy = 0.0\nsamples = 1\nvalue = [1, 0, 0]"] ;
368 -> 369 ;
370 [label="entropy = 0.0\nsamples = 1\nvalue = [0, 1, 0]"] ;
368 -> 370 ;
371 [label="entropy = 0.0\nsamples = 27\nvalue = [27, 0, 0]"] ;
367 -> 371 ;
372 [label="entropy = 0.0\nsamples = 1\nvalue = [0, 1, 0]"] ;
366 -> 372 ;
373 [label="entropy = 0.0\nsamples = 60\nvalue = [60, 0, 0]"] ;
365 -> 373 ;
374 [label="entropy = 0.0\nsamples = 1\nvalue = [0, 1, 0]"] ;
364 -> 374 ;
375 [label="z <= 16.994\nentropy = 1.0\nsamples = 6\nvalue = [3, 3, 0]"] ;
363 -> 375 ;
376 [label="entropy = 0.0\nsamples = 3\nvalue = [0, 3, 0]"] ;
375 -> 376 ;
377 [label="entropy = 0.0\nsamples = 3\nvalue = [3, 0, 0]"] ;
375 -> 377 ;
378 [label="redshift <= 0.135\nentropy = 0.043\nsamples = 424\nvalue = [422, 2, 0]"] ;
362 -> 378 ;
379 [label="entropy = 0.0\nsamples = 1\nvalue = [0, 1, 0]"] ;
378 -> 379 ;
380 [label="g <= 18.445\nentropy = 0.024\nsamples = 423\nvalue = [422, 1, 0]"] ;
378 -> 380 ;
381 [label="entropy = 0.0\nsamples = 374\nvalue = [374, 0, 0]"] ;
380 -> 381 ;
382 [label="g <= 18.445\nentropy = 0.144\nsamples = 49\nvalue = [48, 1, 0]"] ;
380 -> 382 ;
383 [label="entropy = 0.0\nsamples = 1\nvalue = [0, 1, 0]"] ;
382 -> 383 ;
384 [label="entropy = 0.0\nsamples = 48\nvalue = [48, 0, 0]"] ;
382 -> 384 ;
385 [label="spec_obj_ID <= 5.684816788840251e+18\nentropy = 0.845\nsamples = 11\nvalue = [8, 3, 0]"] ;
361 -> 385 ;
386 [label="spec_obj_ID <= 5.088606333800808e+18\nentropy = 0.811\nsamples = 4\nvalue = [1, 3, 0]"] ;
385 -> 386 ;
387 [label="entropy = 0.0\nsamples = 1\nvalue = [1, 0, 0]"] ;
386 -> 387 ;
388 [label="entropy = 0.0\nsamples = 3\nvalue = [0, 3, 0]"] ;
386 -> 388 ;
389 [label="entropy = 0.0\nsamples = 7\nvalue = [7, 0, 0]"] ;
385 -> 389 ;
390 [label="MJD <= 53026.5\nentropy = 0.702\nsamples = 21\nvalue = [17, 4, 0]"] ;
360 -> 390 ;
391 [label="entropy = 0.0\nsamples = 9\nvalue = [9, 0, 0]"] ;
390 -> 391 ;
392 [label="redshift <= 0.171\nentropy = 0.918\nsamples = 12\nvalue = [8, 4, 0]"] ;
390 -> 392 ;
393 [label="spec_obj_ID <= 2.6532734278670746e+18\nentropy = 0.811\nsamples = 4\nvalue = [1, 3, 0]"] ;
392 -> 393 ;
394 [label="entropy = 0.0\nsamples = 3\nvalue = [0, 3, 0]"] ;
393 -> 394 ;
395 [label="entropy = 0.0\nsamples = 1\nvalue = [1, 0, 0]"] ;
393 -> 395 ;
396 [label="field_ID <= 130.0\nentropy = 0.544\nsamples = 8\nvalue = [7, 1, 0]"] ;
392 -> 396 ;
397 [label="run_ID <= 4261.0\nentropy = 1.0\nsamples = 2\nvalue = [1, 1, 0]"] ;
396 -> 397 ;
398 [label="entropy = 0.0\nsamples = 1\nvalue = [1, 0, 0]"] ;
397 -> 398 ;
399 [label="entropy = 0.0\nsamples = 1\nvalue = [0, 1, 0]"] ;
397 -> 399 ;
400 [label="entropy = 0.0\nsamples = 6\nvalue = [6, 0, 0]"] ;
396 -> 400 ;
401 [label="redshift <= 0.304\nentropy = 0.993\nsamples = 20\nvalue = [11, 9, 0]"] ;
359 -> 401 ;
402 [label="r <= 18.122\nentropy = 0.937\nsamples = 17\nvalue = [11, 6, 0]"] ;
401 -> 402 ;
403 [label="run_ID <= 3840.5\nentropy = 0.837\nsamples = 15\nvalue = [11, 4, 0]"] ;
402 -> 403 ;
404 [label="redshift <= 0.27\nentropy = 0.991\nsamples = 9\nvalue = [5, 4, 0]"] ;
403 -> 404 ;
405 [label="u <= 19.456\nentropy = 0.918\nsamples = 6\nvalue = [2, 4, 0]"] ;
404 -> 405 ;
406 [label="entropy = 0.0\nsamples = 3\nvalue = [0, 3, 0]"] ;
405 -> 406 ;
407 [label="run_ID <= 3652.0\nentropy = 0.918\nsamples = 3\nvalue = [2, 1, 0]"] ;
405 -> 407 ;
408 [label="entropy = 0.0\nsamples = 2\nvalue = [2, 0, 0]"] ;
407 -> 408 ;
409 [label="entropy = 0.0\nsamples = 1\nvalue = [0, 1, 0]"] ;
407 -> 409 ;
410 [label="entropy = 0.0\nsamples = 3\nvalue = [3, 0, 0]"] ;
404 -> 410 ;
411 [label="entropy = 0.0\nsamples = 6\nvalue = [6, 0, 0]"] ;
403 -> 411 ;
412 [label="entropy = 0.0\nsamples = 2\nvalue = [0, 2, 0]"] ;
402 -> 412 ;
413 [label="entropy = 0.0\nsamples = 3\nvalue = [0, 3, 0]"] ;
401 -> 413 ;
414 [label="i <= 16.869\nentropy = 0.047\nsamples = 3488\nvalue = [3470, 18, 0]"] ;
358 -> 414 ;
415 [label="entropy = 0.0\nsamples = 886\nvalue = [886, 0, 0]"] ;
414 -> 415 ;
416 [label="u <= 20.328\nentropy = 0.06\nsamples = 2602\nvalue = [2584, 18, 0]"] ;
414 -> 416 ;
417 [label="redshift <= 0.181\nentropy = 0.16\nsamples = 385\nvalue = [376, 9, 0]"] ;
416 -> 417 ;
418 [label="delta <= -7.451\nentropy = 0.035\nsamples = 274\nvalue = [273, 1, 0]"] ;
417 -> 418 ;
419 [label="delta <= -7.496\nentropy = 0.503\nsamples = 9\nvalue = [8, 1, 0]"] ;
418 -> 419 ;
420 [label="entropy = 0.0\nsamples = 8\nvalue = [8, 0, 0]"] ;
419 -> 420 ;
421 [label="entropy = 0.0\nsamples = 1\nvalue = [0, 1, 0]"] ;
419 -> 421 ;
422 [label="entropy = 0.0\nsamples = 265\nvalue = [265, 0, 0]"] ;
418 -> 422 ;
423 [label="i <= 17.776\nentropy = 0.374\nsamples = 111\nvalue = [103, 8, 0]"] ;
417 -> 423 ;
424 [label="fiber_ID <= 296.5\nentropy = 0.307\nsamples = 109\nvalue = [103, 6, 0]"] ;
423 -> 424 ;
425 [label="entropy = 0.0\nsamples = 46\nvalue = [46, 0, 0]"] ;
424 -> 425 ;
426 [label="field_ID <= 125.5\nentropy = 0.454\nsamples = 63\nvalue = [57, 6, 0]"] ;
424 -> 426 ;
427 [label="entropy = 0.0\nsamples = 24\nvalue = [24, 0, 0]"] ;
426 -> 427 ;
428 [label="fiber_ID <= 591.0\nentropy = 0.619\nsamples = 39\nvalue = [33, 6, 0]"] ;
426 -> 428 ;
429 [label="redshift <= 0.2\nentropy = 0.736\nsamples = 29\nvalue = [23, 6, 0]"] ;
428 -> 429 ;
430 [label="MJD <= 52952.0\nentropy = 1.0\nsamples = 8\nvalue = [4, 4, 0]"] ;
429 -> 430 ;
431 [label="r <= 17.503\nentropy = 0.722\nsamples = 5\nvalue = [1, 4, 0]"] ;
430 -> 431 ;
432 [label="entropy = 0.0\nsamples = 1\nvalue = [1, 0, 0]"] ;
431 -> 432 ;
433 [label="entropy = 0.0\nsamples = 4\nvalue = [0, 4, 0]"] ;
431 -> 433 ;
434 [label="entropy = 0.0\nsamples = 3\nvalue = [3, 0, 0]"] ;
430 -> 434 ;
435 [label="cam_col <= 2.5\nentropy = 0.454\nsamples = 21\nvalue = [19, 2, 0]"] ;
429 -> 435 ;
436 [label="plate <= 1259.5\nentropy = 0.918\nsamples = 6\nvalue = [4, 2, 0]"] ;
435 -> 436 ;
437 [label="entropy = 0.0\nsamples = 3\nvalue = [3, 0, 0]"] ;
436 -> 437 ;
438 [label="obj_ID <= 1.2376572236272763e+18\nentropy = 0.918\nsamples = 3\nvalue = [1, 2, 0]"] ;
436 -> 438 ;
439 [label="entropy = 0.0\nsamples = 1\nvalue = [1, 0, 0]"] ;
438 -> 439 ;
440 [label="entropy = 0.0\nsamples = 2\nvalue = [0, 2, 0]"] ;
438 -> 440 ;
441 [label="entropy = 0.0\nsamples = 15\nvalue = [15, 0, 0]"] ;
435 -> 441 ;
442 [label="entropy = 0.0\nsamples = 10\nvalue = [10, 0, 0]"] ;
428 -> 442 ;
443 [label="entropy = 0.0\nsamples = 2\nvalue = [0, 2, 0]"] ;
423 -> 443 ;
444 [label="run_ID <= 8102.5\nentropy = 0.038\nsamples = 2217\nvalue = [2208, 9, 0]"] ;
416 -> 444 ;
445 [label="z <= 16.874\nentropy = 0.027\nsamples = 2178\nvalue = [2172, 6, 0]"] ;
444 -> 445 ;
446 [label="entropy = 0.0\nsamples = 975\nvalue = [975, 0, 0]"] ;
445 -> 446 ;
447 [label="i <= 17.183\nentropy = 0.045\nsamples = 1203\nvalue = [1197, 6, 0]"] ;
445 -> 447 ;
448 [label="spec_obj_ID <= 1.874704571314471e+18\nentropy = 0.811\nsamples = 8\nvalue = [6, 2, 0]"] ;
447 -> 448 ;
449 [label="entropy = 0.0\nsamples = 6\nvalue = [6, 0, 0]"] ;
448 -> 449 ;
450 [label="entropy = 0.0\nsamples = 2\nvalue = [0, 2, 0]"] ;
448 -> 450 ;
451 [label="u <= 21.388\nentropy = 0.032\nsamples = 1195\nvalue = [1191, 4, 0]"] ;
447 -> 451 ;
452 [label="u <= 21.388\nentropy = 0.065\nsamples = 522\nvalue = [518, 4, 0]"] ;
451 -> 452 ;
453 [label="alpha <= 353.499\nentropy = 0.051\nsamples = 521\nvalue = [518, 3, 0]"] ;
452 -> 453 ;
454 [label="delta <= 35.31\nentropy = 0.037\nsamples = 516\nvalue = [514, 2, 0]"] ;
453 -> 454 ;
455 [label="entropy = 0.0\nsamples = 363\nvalue = [363, 0, 0]"] ;
454 -> 455 ;
456 [label="delta <= 35.335\nentropy = 0.101\nsamples = 153\nvalue = [151, 2, 0]"] ;
454 -> 456 ;
457 [label="entropy = 0.0\nsamples = 1\nvalue = [0, 1, 0]"] ;
456 -> 457 ;
458 [label="field_ID <= 447.5\nentropy = 0.057\nsamples = 152\nvalue = [151, 1, 0]"] ;
456 -> 458 ;
459 [label="entropy = 0.0\nsamples = 146\nvalue = [146, 0, 0]"] ;
458 -> 459 ;
460 [label="field_ID <= 460.5\nentropy = 0.65\nsamples = 6\nvalue = [5, 1, 0]"] ;
458 -> 460 ;
461 [label="entropy = 0.0\nsamples = 1\nvalue = [0, 1, 0]"] ;
460 -> 461 ;
462 [label="entropy = 0.0\nsamples = 5\nvalue = [5, 0, 0]"] ;
460 -> 462 ;
463 [label="redshift <= 0.204\nentropy = 0.722\nsamples = 5\nvalue = [4, 1, 0]"] ;
453 -> 463 ;
464 [label="entropy = 0.0\nsamples = 1\nvalue = [0, 1, 0]"] ;
463 -> 464 ;
465 [label="entropy = 0.0\nsamples = 4\nvalue = [4, 0, 0]"] ;
463 -> 465 ;
466 [label="entropy = 0.0\nsamples = 1\nvalue = [0, 1, 0]"] ;
452 -> 466 ;
467 [label="entropy = 0.0\nsamples = 673\nvalue = [673, 0, 0]"] ;
451 -> 467 ;
468 [label="plate <= 6278.5\nentropy = 0.391\nsamples = 39\nvalue = [36, 3, 0]"] ;
444 -> 468 ;
469 [label="MJD <= 56271.0\nentropy = 0.845\nsamples = 11\nvalue = [8, 3, 0]"] ;
468 -> 469 ;
470 [label="cam_col <= 4.5\nentropy = 0.503\nsamples = 9\nvalue = [8, 1, 0]"] ;
469 -> 470 ;
471 [label="entropy = 0.0\nsamples = 8\nvalue = [8, 0, 0]"] ;
470 -> 471 ;
472 [label="entropy = 0.0\nsamples = 1\nvalue = [0, 1, 0]"] ;
470 -> 472 ;
473 [label="entropy = 0.0\nsamples = 2\nvalue = [0, 2, 0]"] ;
469 -> 473 ;
474 [label="entropy = 0.0\nsamples = 28\nvalue = [28, 0, 0]"] ;
468 -> 474 ;
475 [label="u <= 20.583\nentropy = 0.542\nsamples = 2996\nvalue = [2623, 373, 0]"] ;
231 -> 475 ;
476 [label="redshift <= 0.226\nentropy = 0.926\nsamples = 763\nvalue = [503, 260, 0]"] ;
475 -> 476 ;
477 [label="redshift <= 0.162\nentropy = 0.333\nsamples = 472\nvalue = [443, 29, 0]"] ;
476 -> 477 ;
478 [label="redshift <= 0.128\nentropy = 0.088\nsamples = 359\nvalue = [355, 4, 0]"] ;
477 -> 478 ;
479 [label="entropy = 0.0\nsamples = 273\nvalue = [273, 0, 0]"] ;
478 -> 479 ;
480 [label="i <= 17.751\nentropy = 0.271\nsamples = 86\nvalue = [82, 4, 0]"] ;
478 -> 480 ;
481 [label="z <= 17.558\nentropy = 0.787\nsamples = 17\nvalue = [13, 4, 0]"] ;
480 -> 481 ;
482 [label="plate <= 2618.5\nentropy = 0.391\nsamples = 13\nvalue = [12, 1, 0]"] ;
481 -> 482 ;
483 [label="entropy = 0.0\nsamples = 12\nvalue = [12, 0, 0]"] ;
482 -> 483 ;
484 [label="entropy = 0.0\nsamples = 1\nvalue = [0, 1, 0]"] ;
482 -> 484 ;
485 [label="g <= 18.477\nentropy = 0.811\nsamples = 4\nvalue = [1, 3, 0]"] ;
481 -> 485 ;
486 [label="entropy = 0.0\nsamples = 1\nvalue = [1, 0, 0]"] ;
485 -> 486 ;
487 [label="entropy = 0.0\nsamples = 3\nvalue = [0, 3, 0]"] ;
485 -> 487 ;
488 [label="entropy = 0.0\nsamples = 69\nvalue = [69, 0, 0]"] ;
480 -> 488 ;
489 [label="u <= 19.575\nentropy = 0.762\nsamples = 113\nvalue = [88, 25, 0]"] ;
477 -> 489 ;
490 [label="MJD <= 52848.5\nentropy = 0.999\nsamples = 25\nvalue = [12, 13, 0]"] ;
489 -> 490 ;
491 [label="MJD <= 52707.5\nentropy = 0.896\nsamples = 16\nvalue = [11, 5, 0]"] ;
490 -> 491 ;
492 [label="g <= 19.015\nentropy = 0.98\nsamples = 12\nvalue = [7, 5, 0]"] ;
491 -> 492 ;
493 [label="z <= 17.793\nentropy = 0.881\nsamples = 10\nvalue = [7, 3, 0]"] ;
492 -> 493 ;
494 [label="g <= 18.595\nentropy = 1.0\nsamples = 6\nvalue = [3, 3, 0]"] ;
493 -> 494 ;
495 [label="u <= 18.655\nentropy = 0.811\nsamples = 4\nvalue = [3, 1, 0]"] ;
494 -> 495 ;
496 [label="entropy = 0.0\nsamples = 1\nvalue = [0, 1, 0]"] ;
495 -> 496 ;
497 [label="entropy = 0.0\nsamples = 3\nvalue = [3, 0, 0]"] ;
495 -> 497 ;
498 [label="entropy = 0.0\nsamples = 2\nvalue = [0, 2, 0]"] ;
494 -> 498 ;
499 [label="entropy = 0.0\nsamples = 4\nvalue = [4, 0, 0]"] ;
493 -> 499 ;
500 [label="entropy = 0.0\nsamples = 2\nvalue = [0, 2, 0]"] ;
492 -> 500 ;
501 [label="entropy = 0.0\nsamples = 4\nvalue = [4, 0, 0]"] ;
491 -> 501 ;
502 [label="field_ID <= 251.5\nentropy = 0.503\nsamples = 9\nvalue = [1, 8, 0]"] ;
490 -> 502 ;
503 [label="entropy = 0.0\nsamples = 7\nvalue = [0, 7, 0]"] ;
502 -> 503 ;
504 [label="plate <= 2241.0\nentropy = 1.0\nsamples = 2\nvalue = [1, 1, 0]"] ;
502 -> 504 ;
505 [label="entropy = 0.0\nsamples = 1\nvalue = [1, 0, 0]"] ;
504 -> 505 ;
506 [label="entropy = 0.0\nsamples = 1\nvalue = [0, 1, 0]"] ;
504 -> 506 ;
507 [label="g <= 19.378\nentropy = 0.575\nsamples = 88\nvalue = [76, 12, 0]"] ;
489 -> 507 ;
508 [label="z <= 17.501\nentropy = 0.222\nsamples = 56\nvalue = [54, 2, 0]"] ;
507 -> 508 ;
509 [label="entropy = 0.0\nsamples = 2\nvalue = [0, 2, 0]"] ;
508 -> 509 ;
510 [label="entropy = 0.0\nsamples = 54\nvalue = [54, 0, 0]"] ;
508 -> 510 ;
511 [label="u <= 20.261\nentropy = 0.896\nsamples = 32\nvalue = [22, 10, 0]"] ;
507 -> 511 ;
512 [label="g <= 19.481\nentropy = 0.94\nsamples = 14\nvalue = [5, 9, 0]"] ;
511 -> 512 ;
513 [label="alpha <= 173.16\nentropy = 0.863\nsamples = 7\nvalue = [5, 2, 0]"] ;
512 -> 513 ;
514 [label="entropy = 0.0\nsamples = 5\nvalue = [5, 0, 0]"] ;
513 -> 514 ;
515 [label="entropy = 0.0\nsamples = 2\nvalue = [0, 2, 0]"] ;
513 -> 515 ;
516 [label="entropy = 0.0\nsamples = 7\nvalue = [0, 7, 0]"] ;
512 -> 516 ;
517 [label="delta <= -1.542\nentropy = 0.31\nsamples = 18\nvalue = [17, 1, 0]"] ;
511 -> 517 ;
518 [label="entropy = 0.0\nsamples = 1\nvalue = [0, 1, 0]"] ;
517 -> 518 ;
519 [label="entropy = 0.0\nsamples = 17\nvalue = [17, 0, 0]"] ;
517 -> 519 ;
520 [label="redshift <= 0.351\nentropy = 0.734\nsamples = 291\nvalue = [60, 231, 0]"] ;
476 -> 520 ;
521 [label="u <= 19.614\nentropy = 0.991\nsamples = 106\nvalue = [47, 59, 0]"] ;
520 -> 521 ;
522 [label="plate <= 2015.0\nentropy = 0.642\nsamples = 49\nvalue = [8, 41, 0]"] ;
521 -> 522 ;
523 [label="u <= 19.405\nentropy = 0.414\nsamples = 36\nvalue = [3, 33, 0]"] ;
522 -> 523 ;
524 [label="entropy = 0.0\nsamples = 25\nvalue = [0, 25, 0]"] ;
523 -> 524 ;
525 [label="g <= 19.014\nentropy = 0.845\nsamples = 11\nvalue = [3, 8, 0]"] ;
523 -> 525 ;
526 [label="delta <= 18.532\nentropy = 0.811\nsamples = 4\nvalue = [3, 1, 0]"] ;
525 -> 526 ;
527 [label="entropy = 0.0\nsamples = 1\nvalue = [0, 1, 0]"] ;
526 -> 527 ;
528 [label="entropy = 0.0\nsamples = 3\nvalue = [3, 0, 0]"] ;
526 -> 528 ;
529 [label="entropy = 0.0\nsamples = 7\nvalue = [0, 7, 0]"] ;
525 -> 529 ;
530 [label="i <= 18.107\nentropy = 0.961\nsamples = 13\nvalue = [5, 8, 0]"] ;
522 -> 530 ;
531 [label="entropy = 0.0\nsamples = 3\nvalue = [3, 0, 0]"] ;
530 -> 531 ;
532 [label="cam_col <= 1.5\nentropy = 0.722\nsamples = 10\nvalue = [2, 8, 0]"] ;
530 -> 532 ;
533 [label="run_ID <= 4573.0\nentropy = 1.0\nsamples = 4\nvalue = [2, 2, 0]"] ;
532 -> 533 ;
534 [label="entropy = 0.0\nsamples = 2\nvalue = [0, 2, 0]"] ;
533 -> 534 ;
535 [label="entropy = 0.0\nsamples = 2\nvalue = [2, 0, 0]"] ;
533 -> 535 ;
536 [label="entropy = 0.0\nsamples = 6\nvalue = [0, 6, 0]"] ;
532 -> 536 ;
537 [label="g <= 19.347\nentropy = 0.9\nsamples = 57\nvalue = [39, 18, 0]"] ;
521 -> 537 ;
538 [label="entropy = 0.0\nsamples = 19\nvalue = [19, 0, 0]"] ;
537 -> 538 ;
539 [label="u <= 20.055\nentropy = 0.998\nsamples = 38\nvalue = [20, 18, 0]"] ;
537 -> 539 ;
540 [label="entropy = 0.0\nsamples = 12\nvalue = [0, 12, 0]"] ;
539 -> 540 ;
541 [label="delta <= 11.185\nentropy = 0.779\nsamples = 26\nvalue = [20, 6, 0]"] ;
539 -> 541 ;
542 [label="entropy = 0.0\nsamples = 12\nvalue = [12, 0, 0]"] ;
541 -> 542 ;
543 [label="g <= 19.538\nentropy = 0.985\nsamples = 14\nvalue = [8, 6, 0]"] ;
541 -> 543 ;
544 [label="entropy = 0.0\nsamples = 6\nvalue = [6, 0, 0]"] ;
543 -> 544 ;
545 [label="plate <= 6161.0\nentropy = 0.811\nsamples = 8\nvalue = [2, 6, 0]"] ;
543 -> 545 ;
546 [label="entropy = 0.0\nsamples = 6\nvalue = [0, 6, 0]"] ;
545 -> 546 ;
547 [label="entropy = 0.0\nsamples = 2\nvalue = [2, 0, 0]"] ;
545 -> 547 ;
548 [label="g <= 20.18\nentropy = 0.367\nsamples = 185\nvalue = [13, 172, 0]"] ;
520 -> 548 ;
549 [label="run_ID <= 5953.5\nentropy = 0.263\nsamples = 179\nvalue = [8, 171, 0]"] ;
548 -> 549 ;
550 [label="i <= 17.264\nentropy = 0.132\nsamples = 164\nvalue = [3, 161, 0]"] ;
549 -> 550 ;
551 [label="entropy = 0.0\nsamples = 1\nvalue = [1, 0, 0]"] ;
550 -> 551 ;
552 [label="g <= 19.529\nentropy = 0.095\nsamples = 163\nvalue = [2, 161, 0]"] ;
550 -> 552 ;
553 [label="entropy = 0.0\nsamples = 120\nvalue = [0, 120, 0]"] ;
552 -> 553 ;
554 [label="r <= 18.813\nentropy = 0.271\nsamples = 43\nvalue = [2, 41, 0]"] ;
552 -> 554 ;
555 [label="entropy = 0.0\nsamples = 2\nvalue = [2, 0, 0]"] ;
554 -> 555 ;
556 [label="entropy = 0.0\nsamples = 41\nvalue = [0, 41, 0]"] ;
554 -> 556 ;
557 [label="redshift <= 0.565\nentropy = 0.918\nsamples = 15\nvalue = [5, 10, 0]"] ;
549 -> 557 ;
558 [label="MJD <= 54145.5\nentropy = 0.991\nsamples = 9\nvalue = [5, 4, 0]"] ;
557 -> 558 ;
559 [label="entropy = 0.0\nsamples = 3\nvalue = [0, 3, 0]"] ;
558 -> 559 ;
560 [label="fiber_ID <= 663.0\nentropy = 0.65\nsamples = 6\nvalue = [5, 1, 0]"] ;
558 -> 560 ;
561 [label="entropy = 0.0\nsamples = 5\nvalue = [5, 0, 0]"] ;
560 -> 561 ;
562 [label="entropy = 0.0\nsamples = 1\nvalue = [0, 1, 0]"] ;
560 -> 562 ;
563 [label="entropy = 0.0\nsamples = 6\nvalue = [0, 6, 0]"] ;
557 -> 563 ;
564 [label="MJD <= 56281.0\nentropy = 0.65\nsamples = 6\nvalue = [5, 1, 0]"] ;
548 -> 564 ;
565 [label="entropy = 0.0\nsamples = 5\nvalue = [5, 0, 0]"] ;
564 -> 565 ;
566 [label="entropy = 0.0\nsamples = 1\nvalue = [0, 1, 0]"] ;
564 -> 566 ;
567 [label="z <= 18.977\nentropy = 0.289\nsamples = 2233\nvalue = [2120, 113, 0]"] ;
475 -> 567 ;
568 [label="u <= 21.359\nentropy = 0.178\nsamples = 1642\nvalue = [1598, 44, 0]"] ;
567 -> 568 ;
569 [label="delta <= 32.75\nentropy = 0.4\nsamples = 302\nvalue = [278, 24, 0]"] ;
568 -> 569 ;
570 [label="redshift <= 0.291\nentropy = 0.251\nsamples = 262\nvalue = [251, 11, 0]"] ;
569 -> 570 ;
571 [label="field_ID <= 77.5\nentropy = 0.088\nsamples = 181\nvalue = [179, 2, 0]"] ;
570 -> 571 ;
572 [label="u <= 20.79\nentropy = 0.722\nsamples = 10\nvalue = [8, 2, 0]"] ;
571 -> 572 ;
573 [label="entropy = 0.0\nsamples = 2\nvalue = [0, 2, 0]"] ;
572 -> 573 ;
574 [label="entropy = 0.0\nsamples = 8\nvalue = [8, 0, 0]"] ;
572 -> 574 ;
575 [label="entropy = 0.0\nsamples = 171\nvalue = [171, 0, 0]"] ;
571 -> 575 ;
576 [label="g <= 20.167\nentropy = 0.503\nsamples = 81\nvalue = [72, 9, 0]"] ;
570 -> 576 ;
577 [label="redshift <= 0.38\nentropy = 0.997\nsamples = 15\nvalue = [8, 7, 0]"] ;
576 -> 577 ;
578 [label="g <= 20.119\nentropy = 0.845\nsamples = 11\nvalue = [8, 3, 0]"] ;
577 -> 578 ;
579 [label="MJD <= 52024.0\nentropy = 0.503\nsamples = 9\nvalue = [8, 1, 0]"] ;
578 -> 579 ;
580 [label="entropy = 0.0\nsamples = 1\nvalue = [0, 1, 0]"] ;
579 -> 580 ;
581 [label="entropy = 0.0\nsamples = 8\nvalue = [8, 0, 0]"] ;
579 -> 581 ;
582 [label="entropy = 0.0\nsamples = 2\nvalue = [0, 2, 0]"] ;
578 -> 582 ;
583 [label="entropy = 0.0\nsamples = 4\nvalue = [0, 4, 0]"] ;
577 -> 583 ;
584 [label="u <= 21.296\nentropy = 0.196\nsamples = 66\nvalue = [64, 2, 0]"] ;
576 -> 584 ;
585 [label="entropy = 0.0\nsamples = 57\nvalue = [57, 0, 0]"] ;
584 -> 585 ;
586 [label="field_ID <= 485.5\nentropy = 0.764\nsamples = 9\nvalue = [7, 2, 0]"] ;
584 -> 586 ;
587 [label="entropy = 0.0\nsamples = 7\nvalue = [7, 0, 0]"] ;
586 -> 587 ;
588 [label="entropy = 0.0\nsamples = 2\nvalue = [0, 2, 0]"] ;
586 -> 588 ;
589 [label="g <= 20.327\nentropy = 0.91\nsamples = 40\nvalue = [27, 13, 0]"] ;
569 -> 589 ;
590 [label="z <= 17.575\nentropy = 0.999\nsamples = 23\nvalue = [11, 12, 0]"] ;
589 -> 590 ;
591 [label="entropy = 0.0\nsamples = 6\nvalue = [6, 0, 0]"] ;
590 -> 591 ;
592 [label="u <= 21.048\nentropy = 0.874\nsamples = 17\nvalue = [5, 12, 0]"] ;
590 -> 592 ;
593 [label="r <= 18.803\nentropy = 1.0\nsamples = 10\nvalue = [5, 5, 0]"] ;
592 -> 593 ;
594 [label="entropy = 0.0\nsamples = 3\nvalue = [0, 3, 0]"] ;
593 -> 594 ;
595 [label="plate <= 6207.5\nentropy = 0.863\nsamples = 7\nvalue = [5, 2, 0]"] ;
593 -> 595 ;
596 [label="entropy = 0.0\nsamples = 4\nvalue = [4, 0, 0]"] ;
595 -> 596 ;
597 [label="z <= 18.865\nentropy = 0.918\nsamples = 3\nvalue = [1, 2, 0]"] ;
595 -> 597 ;
598 [label="entropy = 0.0\nsamples = 2\nvalue = [0, 2, 0]"] ;
597 -> 598 ;
599 [label="entropy = 0.0\nsamples = 1\nvalue = [1, 0, 0]"] ;
597 -> 599 ;
600 [label="entropy = 0.0\nsamples = 7\nvalue = [0, 7, 0]"] ;
592 -> 600 ;
601 [label="fiber_ID <= 898.0\nentropy = 0.323\nsamples = 17\nvalue = [16, 1, 0]"] ;
589 -> 601 ;
602 [label="entropy = 0.0\nsamples = 16\nvalue = [16, 0, 0]"] ;
601 -> 602 ;
603 [label="entropy = 0.0\nsamples = 1\nvalue = [0, 1, 0]"] ;
601 -> 603 ;
604 [label="z <= 18.538\nentropy = 0.112\nsamples = 1340\nvalue = [1320, 20, 0]"] ;
568 -> 604 ;
605 [label="u <= 21.82\nentropy = 0.047\nsamples = 961\nvalue = [956, 5, 0]"] ;
604 -> 605 ;
606 [label="u <= 21.82\nentropy = 0.114\nsamples = 326\nvalue = [321, 5, 0]"] ;
605 -> 606 ;
607 [label="fiber_ID <= 478.0\nentropy = 0.096\nsamples = 325\nvalue = [321, 4, 0]"] ;
606 -> 607 ;
608 [label="fiber_ID <= 474.5\nentropy = 0.161\nsamples = 170\nvalue = [166, 4, 0]"] ;
607 -> 608 ;
609 [label="g <= 20.281\nentropy = 0.129\nsamples = 168\nvalue = [165, 3, 0]"] ;
608 -> 609 ;
610 [label="redshift <= 0.391\nentropy = 0.242\nsamples = 75\nvalue = [72, 3, 0]"] ;
609 -> 610 ;
611 [label="alpha <= 337.457\nentropy = 0.106\nsamples = 72\nvalue = [71, 1, 0]"] ;
610 -> 611 ;
612 [label="entropy = 0.0\nsamples = 66\nvalue = [66, 0, 0]"] ;
611 -> 612 ;
613 [label="r <= 18.52\nentropy = 0.65\nsamples = 6\nvalue = [5, 1, 0]"] ;
611 -> 613 ;
614 [label="entropy = 0.0\nsamples = 1\nvalue = [0, 1, 0]"] ;
613 -> 614 ;
615 [label="entropy = 0.0\nsamples = 5\nvalue = [5, 0, 0]"] ;
613 -> 615 ;
616 [label="run_ID <= 4010.5\nentropy = 0.918\nsamples = 3\nvalue = [1, 2, 0]"] ;
610 -> 616 ;
617 [label="entropy = 0.0\nsamples = 1\nvalue = [1, 0, 0]"] ;
616 -> 617 ;
618 [label="entropy = 0.0\nsamples = 2\nvalue = [0, 2, 0]"] ;
616 -> 618 ;
619 [label="entropy = 0.0\nsamples = 93\nvalue = [93, 0, 0]"] ;
609 -> 619 ;
620 [label="plate <= 2813.5\nentropy = 1.0\nsamples = 2\nvalue = [1, 1, 0]"] ;
608 -> 620 ;
621 [label="entropy = 0.0\nsamples = 1\nvalue = [0, 1, 0]"] ;
620 -> 621 ;
622 [label="entropy = 0.0\nsamples = 1\nvalue = [1, 0, 0]"] ;
620 -> 622 ;
623 [label="entropy = 0.0\nsamples = 155\nvalue = [155, 0, 0]"] ;
607 -> 623 ;
624 [label="entropy = 0.0\nsamples = 1\nvalue = [0, 1, 0]"] ;
606 -> 624 ;
625 [label="entropy = 0.0\nsamples = 635\nvalue = [635, 0, 0]"] ;
605 -> 625 ;
626 [label="g <= 21.713\nentropy = 0.24\nsamples = 379\nvalue = [364, 15, 0]"] ;
604 -> 626 ;
627 [label="delta <= 35.995\nentropy = 0.308\nsamples = 272\nvalue = [257, 15, 0]"] ;
626 -> 627 ;
628 [label="u <= 21.782\nentropy = 0.194\nsamples = 201\nvalue = [195, 6, 0]"] ;
627 -> 628 ;
629 [label="entropy = 0.0\nsamples = 77\nvalue = [77, 0, 0]"] ;
628 -> 629 ;
630 [label="u <= 21.783\nentropy = 0.28\nsamples = 124\nvalue = [118, 6, 0]"] ;
628 -> 630 ;
631 [label="entropy = 0.0\nsamples = 1\nvalue = [0, 1, 0]"] ;
630 -> 631 ;
632 [label="MJD <= 56089.5\nentropy = 0.245\nsamples = 123\nvalue = [118, 5, 0]"] ;
630 -> 632 ;
633 [label="MJD <= 52467.0\nentropy = 0.088\nsamples = 90\nvalue = [89, 1, 0]"] ;
632 -> 633 ;
634 [label="r <= 19.827\nentropy = 0.722\nsamples = 5\nvalue = [4, 1, 0]"] ;
633 -> 634 ;
635 [label="entropy = 0.0\nsamples = 4\nvalue = [4, 0, 0]"] ;
634 -> 635 ;
636 [label="entropy = 0.0\nsamples = 1\nvalue = [0, 1, 0]"] ;
634 -> 636 ;
637 [label="entropy = 0.0\nsamples = 85\nvalue = [85, 0, 0]"] ;
633 -> 637 ;
638 [label="MJD <= 56321.5\nentropy = 0.533\nsamples = 33\nvalue = [29, 4, 0]"] ;
632 -> 638 ;
639 [label="i <= 19.216\nentropy = 0.837\nsamples = 15\nvalue = [11, 4, 0]"] ;
638 -> 639 ;
640 [label="i <= 19.06\nentropy = 0.918\nsamples = 6\nvalue = [2, 4, 0]"] ;
639 -> 640 ;
641 [label="entropy = 0.0\nsamples = 2\nvalue = [2, 0, 0]"] ;
640 -> 641 ;
642 [label="entropy = 0.0\nsamples = 4\nvalue = [0, 4, 0]"] ;
640 -> 642 ;
643 [label="entropy = 0.0\nsamples = 9\nvalue = [9, 0, 0]"] ;
639 -> 643 ;
644 [label="entropy = 0.0\nsamples = 18\nvalue = [18, 0, 0]"] ;
638 -> 644 ;
645 [label="r <= 19.797\nentropy = 0.548\nsamples = 71\nvalue = [62, 9, 0]"] ;
627 -> 645 ;
646 [label="alpha <= 126.416\nentropy = 0.996\nsamples = 13\nvalue = [6, 7, 0]"] ;
645 -> 646 ;
647 [label="entropy = 0.0\nsamples = 3\nvalue = [3, 0, 0]"] ;
646 -> 647 ;
648 [label="delta <= 53.053\nentropy = 0.881\nsamples = 10\nvalue = [3, 7, 0]"] ;
646 -> 648 ;
649 [label="field_ID <= 225.0\nentropy = 0.544\nsamples = 8\nvalue = [1, 7, 0]"] ;
648 -> 649 ;
650 [label="entropy = 0.0\nsamples = 6\nvalue = [0, 6, 0]"] ;
649 -> 650 ;
651 [label="z <= 18.562\nentropy = 1.0\nsamples = 2\nvalue = [1, 1, 0]"] ;
649 -> 651 ;
652 [label="entropy = 0.0\nsamples = 1\nvalue = [0, 1, 0]"] ;
651 -> 652 ;
653 [label="entropy = 0.0\nsamples = 1\nvalue = [1, 0, 0]"] ;
651 -> 653 ;
654 [label="entropy = 0.0\nsamples = 2\nvalue = [2, 0, 0]"] ;
648 -> 654 ;
655 [label="r <= 20.256\nentropy = 0.216\nsamples = 58\nvalue = [56, 2, 0]"] ;
645 -> 655 ;
656 [label="entropy = 0.0\nsamples = 50\nvalue = [50, 0, 0]"] ;
655 -> 656 ;
657 [label="spec_obj_ID <= 7.539277839258878e+18\nentropy = 0.811\nsamples = 8\nvalue = [6, 2, 0]"] ;
655 -> 657 ;
658 [label="entropy = 0.0\nsamples = 5\nvalue = [5, 0, 0]"] ;
657 -> 658 ;
659 [label="r <= 20.347\nentropy = 0.918\nsamples = 3\nvalue = [1, 2, 0]"] ;
657 -> 659 ;
660 [label="entropy = 0.0\nsamples = 2\nvalue = [0, 2, 0]"] ;
659 -> 660 ;
661 [label="entropy = 0.0\nsamples = 1\nvalue = [1, 0, 0]"] ;
659 -> 661 ;
662 [label="entropy = 0.0\nsamples = 107\nvalue = [107, 0, 0]"] ;
626 -> 662 ;
663 [label="g <= 21.18\nentropy = 0.52\nsamples = 591\nvalue = [522, 69, 0]"] ;
567 -> 663 ;
664 [label="redshift <= 0.313\nentropy = 0.806\nsamples = 227\nvalue = [171, 56, 0]"] ;
663 -> 664 ;
665 [label="i <= 19.923\nentropy = 0.134\nsamples = 107\nvalue = [105, 2, 0]"] ;
664 -> 665 ;
666 [label="u <= 20.741\nentropy = 0.077\nsamples = 106\nvalue = [105, 1, 0]"] ;
665 -> 666 ;
667 [label="plate <= 2939.0\nentropy = 0.544\nsamples = 8\nvalue = [7, 1, 0]"] ;
666 -> 667 ;
668 [label="entropy = 0.0\nsamples = 7\nvalue = [7, 0, 0]"] ;
667 -> 668 ;
669 [label="entropy = 0.0\nsamples = 1\nvalue = [0, 1, 0]"] ;
667 -> 669 ;
670 [label="entropy = 0.0\nsamples = 98\nvalue = [98, 0, 0]"] ;
666 -> 670 ;
671 [label="entropy = 0.0\nsamples = 1\nvalue = [0, 1, 0]"] ;
665 -> 671 ;
672 [label="g <= 20.792\nentropy = 0.993\nsamples = 120\nvalue = [66, 54, 0]"] ;
664 -> 672 ;
673 [label="r <= 19.957\nentropy = 0.855\nsamples = 50\nvalue = [14, 36, 0]"] ;
672 -> 673 ;
674 [label="g <= 20.509\nentropy = 0.959\nsamples = 21\nvalue = [13, 8, 0]"] ;
673 -> 674 ;
675 [label="r <= 19.806\nentropy = 0.985\nsamples = 14\nvalue = [6, 8, 0]"] ;
674 -> 675 ;
676 [label="plate <= 3411.5\nentropy = 0.811\nsamples = 8\nvalue = [6, 2, 0]"] ;
675 -> 676 ;
677 [label="entropy = 0.0\nsamples = 6\nvalue = [6, 0, 0]"] ;
676 -> 677 ;
678 [label="entropy = 0.0\nsamples = 2\nvalue = [0, 2, 0]"] ;
676 -> 678 ;
679 [label="entropy = 0.0\nsamples = 6\nvalue = [0, 6, 0]"] ;
675 -> 679 ;
680 [label="entropy = 0.0\nsamples = 7\nvalue = [7, 0, 0]"] ;
674 -> 680 ;
681 [label="alpha <= 330.701\nentropy = 0.216\nsamples = 29\nvalue = [1, 28, 0]"] ;
673 -> 681 ;
682 [label="entropy = 0.0\nsamples = 28\nvalue = [0, 28, 0]"] ;
681 -> 682 ;
683 [label="entropy = 0.0\nsamples = 1\nvalue = [1, 0, 0]"] ;
681 -> 683 ;
684 [label="i <= 19.652\nentropy = 0.822\nsamples = 70\nvalue = [52, 18, 0]"] ;
672 -> 684 ;
685 [label="alpha <= 222.925\nentropy = 0.51\nsamples = 53\nvalue = [47, 6, 0]"] ;
684 -> 685 ;
686 [label="fiber_ID <= 29.0\nentropy = 0.179\nsamples = 37\nvalue = [36, 1, 0]"] ;
685 -> 686 ;
687 [label="entropy = 0.0\nsamples = 1\nvalue = [0, 1, 0]"] ;
686 -> 687 ;
688 [label="entropy = 0.0\nsamples = 36\nvalue = [36, 0, 0]"] ;
686 -> 688 ;
689 [label="redshift <= 0.541\nentropy = 0.896\nsamples = 16\nvalue = [11, 5, 0]"] ;
685 -> 689 ;
690 [label="z <= 19.264\nentropy = 0.991\nsamples = 9\nvalue = [4, 5, 0]"] ;
689 -> 690 ;
691 [label="spec_obj_ID <= 7.333127930265993e+18\nentropy = 0.722\nsamples = 5\nvalue = [4, 1, 0]"] ;
690 -> 691 ;
692 [label="entropy = 0.0\nsamples = 4\nvalue = [4, 0, 0]"] ;
691 -> 692 ;
693 [label="entropy = 0.0\nsamples = 1\nvalue = [0, 1, 0]"] ;
691 -> 693 ;
694 [label="entropy = 0.0\nsamples = 4\nvalue = [0, 4, 0]"] ;
690 -> 694 ;
695 [label="entropy = 0.0\nsamples = 7\nvalue = [7, 0, 0]"] ;
689 -> 695 ;
696 [label="plate <= 4072.0\nentropy = 0.874\nsamples = 17\nvalue = [5, 12, 0]"] ;
684 -> 696 ;
697 [label="redshift <= 0.352\nentropy = 0.918\nsamples = 6\nvalue = [4, 2, 0]"] ;
696 -> 697 ;
698 [label="entropy = 0.0\nsamples = 2\nvalue = [0, 2, 0]"] ;
697 -> 698 ;
699 [label="entropy = 0.0\nsamples = 4\nvalue = [4, 0, 0]"] ;
697 -> 699 ;
700 [label="delta <= 43.725\nentropy = 0.439\nsamples = 11\nvalue = [1, 10, 0]"] ;
696 -> 700 ;
701 [label="entropy = 0.0\nsamples = 10\nvalue = [0, 10, 0]"] ;
700 -> 701 ;
702 [label="entropy = 0.0\nsamples = 1\nvalue = [1, 0, 0]"] ;
700 -> 702 ;
703 [label="redshift <= 0.55\nentropy = 0.222\nsamples = 364\nvalue = [351, 13, 0]"] ;
663 -> 703 ;
704 [label="field_ID <= 64.5\nentropy = 0.403\nsamples = 137\nvalue = [126, 11, 0]"] ;
703 -> 704 ;
705 [label="g <= 21.551\nentropy = 0.85\nsamples = 29\nvalue = [21, 8, 0]"] ;
704 -> 705 ;
706 [label="r <= 20.269\nentropy = 0.98\nsamples = 12\nvalue = [5, 7, 0]"] ;
705 -> 706 ;
707 [label="field_ID <= 30.5\nentropy = 0.65\nsamples = 6\nvalue = [5, 1, 0]"] ;
706 -> 707 ;
708 [label="entropy = 0.0\nsamples = 1\nvalue = [0, 1, 0]"] ;
707 -> 708 ;
709 [label="entropy = 0.0\nsamples = 5\nvalue = [5, 0, 0]"] ;
707 -> 709 ;
710 [label="entropy = 0.0\nsamples = 6\nvalue = [0, 6, 0]"] ;
706 -> 710 ;
711 [label="i <= 19.932\nentropy = 0.323\nsamples = 17\nvalue = [16, 1, 0]"] ;
705 -> 711 ;
712 [label="entropy = 0.0\nsamples = 16\nvalue = [16, 0, 0]"] ;
711 -> 712 ;
713 [label="entropy = 0.0\nsamples = 1\nvalue = [0, 1, 0]"] ;
711 -> 713 ;
714 [label="alpha <= 358.763\nentropy = 0.183\nsamples = 108\nvalue = [105, 3, 0]"] ;
704 -> 714 ;
715 [label="alpha <= 10.426\nentropy = 0.134\nsamples = 107\nvalue = [105, 2, 0]"] ;
714 -> 715 ;
716 [label="delta <= 27.737\nentropy = 0.722\nsamples = 10\nvalue = [8, 2, 0]"] ;
715 -> 716 ;
717 [label="entropy = 0.0\nsamples = 8\nvalue = [8, 0, 0]"] ;
716 -> 717 ;
718 [label="entropy = 0.0\nsamples = 2\nvalue = [0, 2, 0]"] ;
716 -> 718 ;
719 [label="entropy = 0.0\nsamples = 97\nvalue = [97, 0, 0]"] ;
715 -> 719 ;
720 [label="entropy = 0.0\nsamples = 1\nvalue = [0, 1, 0]"] ;
714 -> 720 ;
721 [label="u <= 22.208\nentropy = 0.073\nsamples = 227\nvalue = [225, 2, 0]"] ;
703 -> 721 ;
722 [label="r <= 20.199\nentropy = 0.042\nsamples = 219\nvalue = [218, 1, 0]"] ;
721 -> 722 ;
723 [label="r <= 20.194\nentropy = 0.439\nsamples = 11\nvalue = [10, 1, 0]"] ;
722 -> 723 ;
724 [label="entropy = 0.0\nsamples = 10\nvalue = [10, 0, 0]"] ;
723 -> 724 ;
725 [label="entropy = 0.0\nsamples = 1\nvalue = [0, 1, 0]"] ;
723 -> 725 ;
726 [label="entropy = 0.0\nsamples = 208\nvalue = [208, 0, 0]"] ;
722 -> 726 ;
727 [label="spec_obj_ID <= 4.341604456081654e+18\nentropy = 0.544\nsamples = 8\nvalue = [7, 1, 0]"] ;
721 -> 727 ;
728 [label="entropy = 0.0\nsamples = 1\nvalue = [0, 1, 0]"] ;
727 -> 728 ;
729 [label="entropy = 0.0\nsamples = 7\nvalue = [7, 0, 0]"] ;
727 -> 729 ;
730 [label="g <= 22.017\nentropy = 0.053\nsamples = 16563\nvalue = [16463, 100, 0]"] ;
230 -> 730 ;
731 [label="i <= 19.174\nentropy = 0.071\nsamples = 9303\nvalue = [9224, 79, 0]"] ;
730 -> 731 ;
732 [label="g <= 21.205\nentropy = 0.03\nsamples = 6121\nvalue = [6102, 19, 0]"] ;
731 -> 732 ;
733 [label="i <= 18.763\nentropy = 0.048\nsamples = 3525\nvalue = [3506, 19, 0]"] ;
732 -> 733 ;
734 [label="fiber_ID <= 409.5\nentropy = 0.027\nsamples = 3325\nvalue = [3316, 9, 0]"] ;
733 -> 734 ;
735 [label="field_ID <= 844.5\nentropy = 0.051\nsamples = 1557\nvalue = [1548, 9, 0]"] ;
734 -> 735 ;
736 [label="alpha <= 354.088\nentropy = 0.046\nsamples = 1556\nvalue = [1548, 8, 0]"] ;
735 -> 736 ;
737 [label="delta <= 53.067\nentropy = 0.037\nsamples = 1515\nvalue = [1509, 6, 0]"] ;
736 -> 737 ;
738 [label="alpha <= 135.349\nentropy = 0.022\nsamples = 1387\nvalue = [1384, 3, 0]"] ;
737 -> 738 ;
739 [label="alpha <= 135.253\nentropy = 0.069\nsamples = 364\nvalue = [361, 3, 0]"] ;
738 -> 739 ;
740 [label="delta <= 18.868\nentropy = 0.049\nsamples = 363\nvalue = [361, 2, 0]"] ;
739 -> 740 ;
741 [label="entropy = 0.0\nsamples = 238\nvalue = [238, 0, 0]"] ;
740 -> 741 ;
742 [label="delta <= 19.056\nentropy = 0.118\nsamples = 125\nvalue = [123, 2, 0]"] ;
740 -> 742 ;
743 [label="entropy = 0.0\nsamples = 1\nvalue = [0, 1, 0]"] ;
742 -> 743 ;
744 [label="r <= 19.28\nentropy = 0.068\nsamples = 124\nvalue = [123, 1, 0]"] ;
742 -> 744 ;
745 [label="entropy = 0.0\nsamples = 107\nvalue = [107, 0, 0]"] ;
744 -> 745 ;
746 [label="cam_col <= 0.5\nentropy = 0.323\nsamples = 17\nvalue = [16, 1, 0]"] ;
744 -> 746 ;
747 [label="entropy = 0.0\nsamples = 1\nvalue = [0, 1, 0]"] ;
746 -> 747 ;
748 [label="entropy = 0.0\nsamples = 16\nvalue = [16, 0, 0]"] ;
746 -> 748 ;
749 [label="entropy = 0.0\nsamples = 1\nvalue = [0, 1, 0]"] ;
739 -> 749 ;
750 [label="entropy = 0.0\nsamples = 1023\nvalue = [1023, 0, 0]"] ;
738 -> 750 ;
751 [label="delta <= 53.104\nentropy = 0.16\nsamples = 128\nvalue = [125, 3, 0]"] ;
737 -> 751 ;
752 [label="entropy = 0.0\nsamples = 1\nvalue = [0, 1, 0]"] ;
751 -> 752 ;
753 [label="u <= 22.373\nentropy = 0.117\nsamples = 127\nvalue = [125, 2, 0]"] ;
751 -> 753 ;
754 [label="fiber_ID <= 306.5\nentropy = 0.619\nsamples = 13\nvalue = [11, 2, 0]"] ;
753 -> 754 ;
755 [label="entropy = 0.0\nsamples = 9\nvalue = [9, 0, 0]"] ;
754 -> 755 ;
756 [label="fiber_ID <= 371.5\nentropy = 1.0\nsamples = 4\nvalue = [2, 2, 0]"] ;
754 -> 756 ;
757 [label="entropy = 0.0\nsamples = 2\nvalue = [0, 2, 0]"] ;
756 -> 757 ;
758 [label="entropy = 0.0\nsamples = 2\nvalue = [2, 0, 0]"] ;
756 -> 758 ;
759 [label="entropy = 0.0\nsamples = 114\nvalue = [114, 0, 0]"] ;
753 -> 759 ;
760 [label="spec_obj_ID <= 4.82002093190257e+18\nentropy = 0.281\nsamples = 41\nvalue = [39, 2, 0]"] ;
736 -> 760 ;
761 [label="alpha <= 357.102\nentropy = 0.971\nsamples = 5\nvalue = [3, 2, 0]"] ;
760 -> 761 ;
762 [label="entropy = 0.0\nsamples = 2\nvalue = [0, 2, 0]"] ;
761 -> 762 ;
763 [label="entropy = 0.0\nsamples = 3\nvalue = [3, 0, 0]"] ;
761 -> 763 ;
764 [label="entropy = 0.0\nsamples = 36\nvalue = [36, 0, 0]"] ;
760 -> 764 ;
765 [label="entropy = 0.0\nsamples = 1\nvalue = [0, 1, 0]"] ;
735 -> 765 ;
766 [label="entropy = 0.0\nsamples = 1768\nvalue = [1768, 0, 0]"] ;
734 -> 766 ;
767 [label="delta <= 36.296\nentropy = 0.286\nsamples = 200\nvalue = [190, 10, 0]"] ;
733 -> 767 ;
768 [label="MJD <= 55598.5\nentropy = 0.364\nsamples = 144\nvalue = [134, 10, 0]"] ;
767 -> 768 ;
769 [label="delta <= 35.307\nentropy = 0.091\nsamples = 87\nvalue = [86, 1, 0]"] ;
768 -> 769 ;
770 [label="entropy = 0.0\nsamples = 86\nvalue = [86, 0, 0]"] ;
769 -> 770 ;
771 [label="entropy = 0.0\nsamples = 1\nvalue = [0, 1, 0]"] ;
769 -> 771 ;
772 [label="MJD <= 55620.5\nentropy = 0.629\nsamples = 57\nvalue = [48, 9, 0]"] ;
768 -> 772 ;
773 [label="redshift <= 0.497\nentropy = 0.918\nsamples = 6\nvalue = [2, 4, 0]"] ;
772 -> 773 ;
774 [label="entropy = 0.0\nsamples = 4\nvalue = [0, 4, 0]"] ;
773 -> 774 ;
775 [label="entropy = 0.0\nsamples = 2\nvalue = [2, 0, 0]"] ;
773 -> 775 ;
776 [label="delta <= 19.994\nentropy = 0.463\nsamples = 51\nvalue = [46, 5, 0]"] ;
772 -> 776 ;
777 [label="fiber_ID <= 641.0\nentropy = 0.706\nsamples = 26\nvalue = [21, 5, 0]"] ;
776 -> 777 ;
778 [label="r <= 19.699\nentropy = 0.94\nsamples = 14\nvalue = [9, 5, 0]"] ;
777 -> 778 ;
779 [label="plate <= 6180.5\nentropy = 0.722\nsamples = 5\nvalue = [1, 4, 0]"] ;
778 -> 779 ;
780 [label="entropy = 0.0\nsamples = 4\nvalue = [0, 4, 0]"] ;
779 -> 780 ;
781 [label="entropy = 0.0\nsamples = 1\nvalue = [1, 0, 0]"] ;
779 -> 781 ;
782 [label="obj_ID <= 1.2376790764208783e+18\nentropy = 0.503\nsamples = 9\nvalue = [8, 1, 0]"] ;
778 -> 782 ;
783 [label="entropy = 0.0\nsamples = 8\nvalue = [8, 0, 0]"] ;
782 -> 783 ;
784 [label="entropy = 0.0\nsamples = 1\nvalue = [0, 1, 0]"] ;
782 -> 784 ;
785 [label="entropy = 0.0\nsamples = 12\nvalue = [12, 0, 0]"] ;
777 -> 785 ;
786 [label="entropy = 0.0\nsamples = 25\nvalue = [25, 0, 0]"] ;
776 -> 786 ;
787 [label="entropy = 0.0\nsamples = 56\nvalue = [56, 0, 0]"] ;
767 -> 787 ;
788 [label="entropy = 0.0\nsamples = 2596\nvalue = [2596, 0, 0]"] ;
732 -> 788 ;
789 [label="g <= 21.628\nentropy = 0.135\nsamples = 3182\nvalue = [3122, 60, 0]"] ;
731 -> 789 ;
790 [label="run_ID <= 5638.5\nentropy = 0.274\nsamples = 720\nvalue = [686, 34, 0]"] ;
789 -> 790 ;
791 [label="alpha <= 10.7\nentropy = 0.32\nsamples = 568\nvalue = [535, 33, 0]"] ;
790 -> 791 ;
792 [label="run_ID <= 1822.0\nentropy = 0.811\nsamples = 4\nvalue = [1, 3, 0]"] ;
791 -> 792 ;
793 [label="entropy = 0.0\nsamples = 1\nvalue = [1, 0, 0]"] ;
792 -> 793 ;
794 [label="entropy = 0.0\nsamples = 3\nvalue = [0, 3, 0]"] ;
792 -> 794 ;
795 [label="g <= 21.628\nentropy = 0.3\nsamples = 564\nvalue = [534, 30, 0]"] ;
791 -> 795 ;
796 [label="i <= 19.174\nentropy = 0.293\nsamples = 563\nvalue = [534, 29, 0]"] ;
795 -> 796 ;
797 [label="entropy = 0.0\nsamples = 1\nvalue = [0, 1, 0]"] ;
796 -> 797 ;
798 [label="field_ID <= 530.5\nentropy = 0.286\nsamples = 562\nvalue = [534, 28, 0]"] ;
796 -> 798 ;
799 [label="field_ID <= 512.0\nentropy = 0.306\nsamples = 511\nvalue = [483, 28, 0]"] ;
798 -> 799 ;
800 [label="u <= 24.547\nentropy = 0.291\nsamples = 509\nvalue = [483, 26, 0]"] ;
799 -> 800 ;
801 [label="u <= 24.164\nentropy = 0.325\nsamples = 437\nvalue = [411, 26, 0]"] ;
800 -> 801 ;
802 [label="obj_ID <= 1.2376695931330888e+18\nentropy = 0.282\nsamples = 408\nvalue = [388, 20, 0]"] ;
801 -> 802 ;
803 [label="alpha <= 232.893\nentropy = 0.272\nsamples = 407\nvalue = [388, 19, 0]"] ;
802 -> 803 ;
804 [label="g <= 20.935\nentropy = 0.316\nsamples = 332\nvalue = [313, 19, 0]"] ;
803 -> 804 ;
805 [label="field_ID <= 57.5\nentropy = 0.881\nsamples = 10\nvalue = [7, 3, 0]"] ;
804 -> 805 ;
806 [label="entropy = 0.0\nsamples = 2\nvalue = [0, 2, 0]"] ;
805 -> 806 ;
807 [label="run_ID <= 4991.0\nentropy = 0.544\nsamples = 8\nvalue = [7, 1, 0]"] ;
805 -> 807 ;
808 [label="entropy = 0.0\nsamples = 7\nvalue = [7, 0, 0]"] ;
807 -> 808 ;
809 [label="entropy = 0.0\nsamples = 1\nvalue = [0, 1, 0]"] ;
807 -> 809 ;
810 [label="r <= 20.209\nentropy = 0.285\nsamples = 322\nvalue = [306, 16, 0]"] ;
804 -> 810 ;
811 [label="alpha <= 222.794\nentropy = 0.138\nsamples = 155\nvalue = [152, 3, 0]"] ;
810 -> 811 ;
812 [label="MJD <= 53724.5\nentropy = 0.06\nsamples = 142\nvalue = [141, 1, 0]"] ;
811 -> 812 ;
813 [label="run_ID <= 4959.5\nentropy = 0.469\nsamples = 10\nvalue = [9, 1, 0]"] ;
812 -> 813 ;
814 [label="entropy = 0.0\nsamples = 9\nvalue = [9, 0, 0]"] ;
813 -> 814 ;
815 [label="entropy = 0.0\nsamples = 1\nvalue = [0, 1, 0]"] ;
813 -> 815 ;
816 [label="entropy = 0.0\nsamples = 132\nvalue = [132, 0, 0]"] ;
812 -> 816 ;
817 [label="alpha <= 224.718\nentropy = 0.619\nsamples = 13\nvalue = [11, 2, 0]"] ;
811 -> 817 ;
818 [label="i <= 19.368\nentropy = 0.918\nsamples = 3\nvalue = [1, 2, 0]"] ;
817 -> 818 ;
819 [label="entropy = 0.0\nsamples = 2\nvalue = [0, 2, 0]"] ;
818 -> 819 ;
820 [label="entropy = 0.0\nsamples = 1\nvalue = [1, 0, 0]"] ;
818 -> 820 ;
821 [label="entropy = 0.0\nsamples = 10\nvalue = [10, 0, 0]"] ;
817 -> 821 ;
822 [label="delta <= 57.536\nentropy = 0.395\nsamples = 167\nvalue = [154, 13, 0]"] ;
810 -> 822 ;
823 [label="z <= 19.252\nentropy = 0.32\nsamples = 155\nvalue = [146, 9, 0]"] ;
822 -> 823 ;
824 [label="z <= 19.24\nentropy = 0.455\nsamples = 94\nvalue = [85, 9, 0]"] ;
823 -> 824 ;
825 [label="g <= 21.477\nentropy = 0.356\nsamples = 89\nvalue = [83, 6, 0]"] ;
824 -> 825 ;
826 [label="z <= 19.101\nentropy = 0.614\nsamples = 33\nvalue = [28, 5, 0]"] ;
825 -> 826 ;
827 [label="g <= 21.468\nentropy = 0.792\nsamples = 21\nvalue = [16, 5, 0]"] ;
826 -> 827 ;
828 [label="alpha <= 174.023\nentropy = 0.629\nsamples = 19\nvalue = [16, 3, 0]"] ;
827 -> 828 ;
829 [label="alpha <= 159.794\nentropy = 1.0\nsamples = 6\nvalue = [3, 3, 0]"] ;
828 -> 829 ;
830 [label="fiber_ID <= 444.0\nentropy = 0.811\nsamples = 4\nvalue = [3, 1, 0]"] ;
829 -> 830 ;
831 [label="entropy = 0.0\nsamples = 1\nvalue = [0, 1, 0]"] ;
830 -> 831 ;
832 [label="entropy = 0.0\nsamples = 3\nvalue = [3, 0, 0]"] ;
830 -> 832 ;
833 [label="entropy = 0.0\nsamples = 2\nvalue = [0, 2, 0]"] ;
829 -> 833 ;
834 [label="entropy = 0.0\nsamples = 13\nvalue = [13, 0, 0]"] ;
828 -> 834 ;
835 [label="entropy = 0.0\nsamples = 2\nvalue = [0, 2, 0]"] ;
827 -> 835 ;
836 [label="entropy = 0.0\nsamples = 12\nvalue = [12, 0, 0]"] ;
826 -> 836 ;
837 [label="fiber_ID <= 28.0\nentropy = 0.129\nsamples = 56\nvalue = [55, 1, 0]"] ;
825 -> 837 ;
838 [label="entropy = 0.0\nsamples = 1\nvalue = [0, 1, 0]"] ;
837 -> 838 ;
839 [label="entropy = 0.0\nsamples = 55\nvalue = [55, 0, 0]"] ;
837 -> 839 ;
840 [label="u <= 22.7\nentropy = 0.971\nsamples = 5\nvalue = [2, 3, 0]"] ;
824 -> 840 ;
841 [label="entropy = 0.0\nsamples = 3\nvalue = [0, 3, 0]"] ;
840 -> 841 ;
842 [label="entropy = 0.0\nsamples = 2\nvalue = [2, 0, 0]"] ;
840 -> 842 ;
843 [label="entropy = 0.0\nsamples = 61\nvalue = [61, 0, 0]"] ;
823 -> 843 ;
844 [label="redshift <= 0.504\nentropy = 0.918\nsamples = 12\nvalue = [8, 4, 0]"] ;
822 -> 844 ;
845 [label="entropy = 0.0\nsamples = 4\nvalue = [0, 4, 0]"] ;
844 -> 845 ;
846 [label="entropy = 0.0\nsamples = 8\nvalue = [8, 0, 0]"] ;
844 -> 846 ;
847 [label="entropy = 0.0\nsamples = 75\nvalue = [75, 0, 0]"] ;
803 -> 847 ;
848 [label="entropy = 0.0\nsamples = 1\nvalue = [0, 1, 0]"] ;
802 -> 848 ;
849 [label="spec_obj_ID <= 5.826749171457065e+18\nentropy = 0.736\nsamples = 29\nvalue = [23, 6, 0]"] ;
801 -> 849 ;
850 [label="alpha <= 185.348\nentropy = 0.954\nsamples = 16\nvalue = [10, 6, 0]"] ;
849 -> 850 ;
851 [label="run_ID <= 4844.5\nentropy = 0.439\nsamples = 11\nvalue = [10, 1, 0]"] ;
850 -> 851 ;
852 [label="entropy = 0.0\nsamples = 10\nvalue = [10, 0, 0]"] ;
851 -> 852 ;
853 [label="entropy = 0.0\nsamples = 1\nvalue = [0, 1, 0]"] ;
851 -> 853 ;
854 [label="entropy = 0.0\nsamples = 5\nvalue = [0, 5, 0]"] ;
850 -> 854 ;
855 [label="entropy = 0.0\nsamples = 13\nvalue = [13, 0, 0]"] ;
849 -> 855 ;
856 [label="entropy = 0.0\nsamples = 72\nvalue = [72, 0, 0]"] ;
800 -> 856 ;
857 [label="entropy = 0.0\nsamples = 2\nvalue = [0, 2, 0]"] ;
799 -> 857 ;
858 [label="entropy = 0.0\nsamples = 51\nvalue = [51, 0, 0]"] ;
798 -> 858 ;
859 [label="entropy = 0.0\nsamples = 1\nvalue = [0, 1, 0]"] ;
795 -> 859 ;
860 [label="u <= 22.259\nentropy = 0.057\nsamples = 152\nvalue = [151, 1, 0]"] ;
790 -> 860 ;
861 [label="MJD <= 56084.0\nentropy = 0.918\nsamples = 3\nvalue = [2, 1, 0]"] ;
860 -> 861 ;
862 [label="entropy = 0.0\nsamples = 2\nvalue = [2, 0, 0]"] ;
861 -> 862 ;
863 [label="entropy = 0.0\nsamples = 1\nvalue = [0, 1, 0]"] ;
861 -> 863 ;
864 [label="entropy = 0.0\nsamples = 149\nvalue = [149, 0, 0]"] ;
860 -> 864 ;
865 [label="z <= 19.285\nentropy = 0.084\nsamples = 2462\nvalue = [2436, 26, 0]"] ;
789 -> 865 ;
866 [label="redshift <= 0.279\nentropy = 0.047\nsamples = 2112\nvalue = [2101, 11, 0]"] ;
865 -> 866 ;
867 [label="z <= 18.953\nentropy = 0.722\nsamples = 10\nvalue = [8, 2, 0]"] ;
866 -> 867 ;
868 [label="delta <= 20.269\nentropy = 0.918\nsamples = 3\nvalue = [1, 2, 0]"] ;
867 -> 868 ;
869 [label="entropy = 0.0\nsamples = 2\nvalue = [0, 2, 0]"] ;
868 -> 869 ;
870 [label="entropy = 0.0\nsamples = 1\nvalue = [1, 0, 0]"] ;
868 -> 870 ;
871 [label="entropy = 0.0\nsamples = 7\nvalue = [7, 0, 0]"] ;
867 -> 871 ;
872 [label="g <= 22.017\nentropy = 0.04\nsamples = 2102\nvalue = [2093, 9, 0]"] ;
866 -> 872 ;
873 [label="u <= 23.463\nentropy = 0.036\nsamples = 2101\nvalue = [2093, 8, 0]"] ;
872 -> 873 ;
874 [label="u <= 23.462\nentropy = 0.071\nsamples = 813\nvalue = [806, 7, 0]"] ;
873 -> 874 ;
875 [label="r <= 20.682\nentropy = 0.063\nsamples = 812\nvalue = [806, 6, 0]"] ;
874 -> 875 ;
876 [label="alpha <= 244.674\nentropy = 0.046\nsamples = 787\nvalue = [783, 4, 0]"] ;
875 -> 876 ;
877 [label="fiber_ID <= 16.0\nentropy = 0.016\nsamples = 674\nvalue = [673, 1, 0]"] ;
876 -> 877 ;
878 [label="cam_col <= 0.5\nentropy = 0.31\nsamples = 18\nvalue = [17, 1, 0]"] ;
877 -> 878 ;
879 [label="spec_obj_ID <= 5.933496769668186e+18\nentropy = 1.0\nsamples = 2\nvalue = [1, 1, 0]"] ;
878 -> 879 ;
880 [label="entropy = 0.0\nsamples = 1\nvalue = [1, 0, 0]"] ;
879 -> 880 ;
881 [label="entropy = 0.0\nsamples = 1\nvalue = [0, 1, 0]"] ;
879 -> 881 ;
882 [label="entropy = 0.0\nsamples = 16\nvalue = [16, 0, 0]"] ;
878 -> 882 ;
883 [label="entropy = 0.0\nsamples = 656\nvalue = [656, 0, 0]"] ;
877 -> 883 ;
884 [label="field_ID <= 671.5\nentropy = 0.177\nsamples = 113\nvalue = [110, 3, 0]"] ;
876 -> 884 ;
885 [label="z <= 19.108\nentropy = 0.129\nsamples = 112\nvalue = [110, 2, 0]"] ;
884 -> 885 ;
886 [label="entropy = 0.0\nsamples = 87\nvalue = [87, 0, 0]"] ;
885 -> 886 ;
887 [label="MJD <= 56215.0\nentropy = 0.402\nsamples = 25\nvalue = [23, 2, 0]"] ;
885 -> 887 ;
888 [label="entropy = 0.0\nsamples = 19\nvalue = [19, 0, 0]"] ;
887 -> 888 ;
889 [label="delta <= 27.663\nentropy = 0.918\nsamples = 6\nvalue = [4, 2, 0]"] ;
887 -> 889 ;
890 [label="u <= 22.643\nentropy = 0.918\nsamples = 3\nvalue = [1, 2, 0]"] ;
889 -> 890 ;
891 [label="entropy = 0.0\nsamples = 1\nvalue = [1, 0, 0]"] ;
890 -> 891 ;
892 [label="entropy = 0.0\nsamples = 2\nvalue = [0, 2, 0]"] ;
890 -> 892 ;
893 [label="entropy = 0.0\nsamples = 3\nvalue = [3, 0, 0]"] ;
889 -> 893 ;
894 [label="entropy = 0.0\nsamples = 1\nvalue = [0, 1, 0]"] ;
884 -> 894 ;
895 [label="plate <= 4287.5\nentropy = 0.402\nsamples = 25\nvalue = [23, 2, 0]"] ;
875 -> 895 ;
896 [label="field_ID <= 124.5\nentropy = 0.918\nsamples = 6\nvalue = [4, 2, 0]"] ;
895 -> 896 ;
897 [label="g <= 21.988\nentropy = 0.918\nsamples = 3\nvalue = [1, 2, 0]"] ;
896 -> 897 ;
898 [label="entropy = 0.0\nsamples = 2\nvalue = [0, 2, 0]"] ;
897 -> 898 ;
899 [label="entropy = 0.0\nsamples = 1\nvalue = [1, 0, 0]"] ;
897 -> 899 ;
900 [label="entropy = 0.0\nsamples = 3\nvalue = [3, 0, 0]"] ;
896 -> 900 ;
901 [label="entropy = 0.0\nsamples = 19\nvalue = [19, 0, 0]"] ;
895 -> 901 ;
902 [label="entropy = 0.0\nsamples = 1\nvalue = [0, 1, 0]"] ;
874 -> 902 ;
903 [label="alpha <= 3.053\nentropy = 0.009\nsamples = 1288\nvalue = [1287, 1, 0]"] ;
873 -> 903 ;
904 [label="i <= 19.583\nentropy = 0.286\nsamples = 20\nvalue = [19, 1, 0]"] ;
903 -> 904 ;
905 [label="entropy = 0.0\nsamples = 19\nvalue = [19, 0, 0]"] ;
904 -> 905 ;
906 [label="entropy = 0.0\nsamples = 1\nvalue = [0, 1, 0]"] ;
904 -> 906 ;
907 [label="entropy = 0.0\nsamples = 1268\nvalue = [1268, 0, 0]"] ;
903 -> 907 ;
908 [label="entropy = 0.0\nsamples = 1\nvalue = [0, 1, 0]"] ;
872 -> 908 ;
909 [label="MJD <= 55210.0\nentropy = 0.255\nsamples = 350\nvalue = [335, 15, 0]"] ;
865 -> 909 ;
910 [label="z <= 19.459\nentropy = 0.881\nsamples = 10\nvalue = [7, 3, 0]"] ;
909 -> 910 ;
911 [label="entropy = 0.0\nsamples = 6\nvalue = [6, 0, 0]"] ;
910 -> 911 ;
912 [label="alpha <= 102.532\nentropy = 0.811\nsamples = 4\nvalue = [1, 3, 0]"] ;
910 -> 912 ;
913 [label="entropy = 0.0\nsamples = 1\nvalue = [1, 0, 0]"] ;
912 -> 913 ;
914 [label="entropy = 0.0\nsamples = 3\nvalue = [0, 3, 0]"] ;
912 -> 914 ;
915 [label="z <= 19.285\nentropy = 0.22\nsamples = 340\nvalue = [328, 12, 0]"] ;
909 -> 915 ;
916 [label="entropy = 0.0\nsamples = 1\nvalue = [0, 1, 0]"] ;
915 -> 916 ;
917 [label="u <= 24.044\nentropy = 0.207\nsamples = 339\nvalue = [328, 11, 0]"] ;
915 -> 917 ;
918 [label="delta <= 64.756\nentropy = 0.266\nsamples = 243\nvalue = [232, 11, 0]"] ;
917 -> 918 ;
919 [label="alpha <= 13.293\nentropy = 0.231\nsamples = 239\nvalue = [230, 9, 0]"] ;
918 -> 919 ;
920 [label="alpha <= 10.682\nentropy = 0.779\nsamples = 13\nvalue = [10, 3, 0]"] ;
919 -> 920 ;
921 [label="run_ID <= 3359.0\nentropy = 0.439\nsamples = 11\nvalue = [10, 1, 0]"] ;
920 -> 921 ;
922 [label="entropy = 0.0\nsamples = 1\nvalue = [0, 1, 0]"] ;
921 -> 922 ;
923 [label="entropy = 0.0\nsamples = 10\nvalue = [10, 0, 0]"] ;
921 -> 923 ;
924 [label="entropy = 0.0\nsamples = 2\nvalue = [0, 2, 0]"] ;
920 -> 924 ;
925 [label="u <= 24.031\nentropy = 0.177\nsamples = 226\nvalue = [220, 6, 0]"] ;
919 -> 925 ;
926 [label="delta <= 19.859\nentropy = 0.154\nsamples = 225\nvalue = [220, 5, 0]"] ;
925 -> 926 ;
927 [label="entropy = 0.0\nsamples = 105\nvalue = [105, 0, 0]"] ;
926 -> 927 ;
928 [label="delta <= 20.042\nentropy = 0.25\nsamples = 120\nvalue = [115, 5, 0]"] ;
926 -> 928 ;
929 [label="entropy = 0.0\nsamples = 1\nvalue = [0, 1, 0]"] ;
928 -> 929 ;
930 [label="i <= 19.476\nentropy = 0.212\nsamples = 119\nvalue = [115, 4, 0]"] ;
928 -> 930 ;
931 [label="entropy = 0.0\nsamples = 1\nvalue = [0, 1, 0]"] ;
930 -> 931 ;
932 [label="MJD <= 55732.5\nentropy = 0.171\nsamples = 118\nvalue = [115, 3, 0]"] ;
930 -> 932 ;
933 [label="u <= 22.908\nentropy = 0.398\nsamples = 38\nvalue = [35, 3, 0]"] ;
932 -> 933 ;
934 [label="entropy = 0.0\nsamples = 22\nvalue = [22, 0, 0]"] ;
933 -> 934 ;
935 [label="cam_col <= 3.5\nentropy = 0.696\nsamples = 16\nvalue = [13, 3, 0]"] ;
933 -> 935 ;
936 [label="field_ID <= 186.0\nentropy = 0.954\nsamples = 8\nvalue = [5, 3, 0]"] ;
935 -> 936 ;
937 [label="field_ID <= 83.0\nentropy = 0.65\nsamples = 6\nvalue = [5, 1, 0]"] ;
936 -> 937 ;
938 [label="entropy = 0.0\nsamples = 1\nvalue = [0, 1, 0]"] ;
937 -> 938 ;
939 [label="entropy = 0.0\nsamples = 5\nvalue = [5, 0, 0]"] ;
937 -> 939 ;
940 [label="entropy = 0.0\nsamples = 2\nvalue = [0, 2, 0]"] ;
936 -> 940 ;
941 [label="entropy = 0.0\nsamples = 8\nvalue = [8, 0, 0]"] ;
935 -> 941 ;
942 [label="entropy = 0.0\nsamples = 80\nvalue = [80, 0, 0]"] ;
932 -> 942 ;
943 [label="entropy = 0.0\nsamples = 1\nvalue = [0, 1, 0]"] ;
925 -> 943 ;
944 [label="z <= 19.411\nentropy = 1.0\nsamples = 4\nvalue = [2, 2, 0]"] ;
918 -> 944 ;
945 [label="entropy = 0.0\nsamples = 2\nvalue = [0, 2, 0]"] ;
944 -> 945 ;
946 [label="entropy = 0.0\nsamples = 2\nvalue = [2, 0, 0]"] ;
944 -> 946 ;
947 [label="entropy = 0.0\nsamples = 96\nvalue = [96, 0, 0]"] ;
917 -> 947 ;
948 [label="z <= 19.357\nentropy = 0.029\nsamples = 7260\nvalue = [7239, 21, 0]"] ;
730 -> 948 ;
949 [label="alpha <= 0.922\nentropy = 0.011\nsamples = 5150\nvalue = [5145, 5, 0]"] ;
948 -> 949 ;
950 [label="redshift <= 0.458\nentropy = 0.276\nsamples = 21\nvalue = [20, 1, 0]"] ;
949 -> 950 ;
951 [label="entropy = 0.0\nsamples = 1\nvalue = [0, 1, 0]"] ;
950 -> 951 ;
952 [label="entropy = 0.0\nsamples = 20\nvalue = [20, 0, 0]"] ;
950 -> 952 ;
953 [label="alpha <= 203.91\nentropy = 0.009\nsamples = 5129\nvalue = [5125, 4, 0]"] ;
949 -> 953 ;
954 [label="entropy = 0.0\nsamples = 2862\nvalue = [2862, 0, 0]"] ;
953 -> 954 ;
955 [label="alpha <= 203.929\nentropy = 0.019\nsamples = 2267\nvalue = [2263, 4, 0]"] ;
953 -> 955 ;
956 [label="entropy = 0.0\nsamples = 1\nvalue = [0, 1, 0]"] ;
955 -> 956 ;
957 [label="u <= 25.099\nentropy = 0.015\nsamples = 2266\nvalue = [2263, 3, 0]"] ;
955 -> 957 ;
958 [label="entropy = 0.0\nsamples = 1549\nvalue = [1549, 0, 0]"] ;
957 -> 958 ;
959 [label="u <= 25.101\nentropy = 0.039\nsamples = 717\nvalue = [714, 3, 0]"] ;
957 -> 959 ;
960 [label="entropy = 0.0\nsamples = 1\nvalue = [0, 1, 0]"] ;
959 -> 960 ;
961 [label="u <= 25.362\nentropy = 0.028\nsamples = 716\nvalue = [714, 2, 0]"] ;
959 -> 961 ;
962 [label="u <= 25.361\nentropy = 0.109\nsamples = 138\nvalue = [136, 2, 0]"] ;
961 -> 962 ;
963 [label="MJD <= 55354.5\nentropy = 0.062\nsamples = 137\nvalue = [136, 1, 0]"] ;
962 -> 963 ;
964 [label="run_ID <= 4998.5\nentropy = 0.371\nsamples = 14\nvalue = [13, 1, 0]"] ;
963 -> 964 ;
965 [label="entropy = 0.0\nsamples = 13\nvalue = [13, 0, 0]"] ;
964 -> 965 ;
966 [label="entropy = 0.0\nsamples = 1\nvalue = [0, 1, 0]"] ;
964 -> 966 ;
967 [label="entropy = 0.0\nsamples = 123\nvalue = [123, 0, 0]"] ;
963 -> 967 ;
968 [label="entropy = 0.0\nsamples = 1\nvalue = [0, 1, 0]"] ;
962 -> 968 ;
969 [label="entropy = 0.0\nsamples = 578\nvalue = [578, 0, 0]"] ;
961 -> 969 ;
970 [label="g <= 22.578\nentropy = 0.064\nsamples = 2110\nvalue = [2094, 16, 0]"] ;
948 -> 970 ;
971 [label="g <= 22.576\nentropy = 0.106\nsamples = 1006\nvalue = [992, 14, 0]"] ;
970 -> 971 ;
972 [label="g <= 22.127\nentropy = 0.1\nsamples = 1005\nvalue = [992, 13, 0]"] ;
971 -> 972 ;
973 [label="fiber_ID <= 44.0\nentropy = 0.245\nsamples = 123\nvalue = [118, 5, 0]"] ;
972 -> 973 ;
974 [label="plate <= 5679.5\nentropy = 0.971\nsamples = 5\nvalue = [3, 2, 0]"] ;
973 -> 974 ;
975 [label="entropy = 0.0\nsamples = 2\nvalue = [0, 2, 0]"] ;
974 -> 975 ;
976 [label="entropy = 0.0\nsamples = 3\nvalue = [3, 0, 0]"] ;
974 -> 976 ;
977 [label="g <= 22.124\nentropy = 0.171\nsamples = 118\nvalue = [115, 3, 0]"] ;
973 -> 977 ;
978 [label="obj_ID <= 1.2376710362421002e+18\nentropy = 0.125\nsamples = 117\nvalue = [115, 2, 0]"] ;
977 -> 978 ;
979 [label="entropy = 0.0\nsamples = 81\nvalue = [81, 0, 0]"] ;
978 -> 979 ;
980 [label="obj_ID <= 1.2376732352653558e+18\nentropy = 0.31\nsamples = 36\nvalue = [34, 2, 0]"] ;
978 -> 980 ;
981 [label="spec_obj_ID <= 6.90538272268904e+18\nentropy = 0.971\nsamples = 5\nvalue = [3, 2, 0]"] ;
980 -> 981 ;
982 [label="entropy = 0.0\nsamples = 2\nvalue = [0, 2, 0]"] ;
981 -> 982 ;
983 [label="entropy = 0.0\nsamples = 3\nvalue = [3, 0, 0]"] ;
981 -> 983 ;
984 [label="entropy = 0.0\nsamples = 31\nvalue = [31, 0, 0]"] ;
980 -> 984 ;
985 [label="entropy = 0.0\nsamples = 1\nvalue = [0, 1, 0]"] ;
977 -> 985 ;
986 [label="redshift <= 0.513\nentropy = 0.075\nsamples = 882\nvalue = [874, 8, 0]"] ;
972 -> 986 ;
987 [label="entropy = 0.0\nsamples = 329\nvalue = [329, 0, 0]"] ;
986 -> 987 ;
988 [label="redshift <= 0.513\nentropy = 0.109\nsamples = 553\nvalue = [545, 8, 0]"] ;
986 -> 988 ;
989 [label="cam_col <= 1.5\nentropy = 0.918\nsamples = 6\nvalue = [4, 2, 0]"] ;
988 -> 989 ;
990 [label="entropy = 0.0\nsamples = 4\nvalue = [4, 0, 0]"] ;
989 -> 990 ;
991 [label="entropy = 0.0\nsamples = 2\nvalue = [0, 2, 0]"] ;
989 -> 991 ;
992 [label="i <= 20.043\nentropy = 0.087\nsamples = 547\nvalue = [541, 6, 0]"] ;
988 -> 992 ;
993 [label="i <= 19.863\nentropy = 0.053\nsamples = 494\nvalue = [491, 3, 0]"] ;
992 -> 993 ;
994 [label="i <= 19.862\nentropy = 0.096\nsamples = 243\nvalue = [240, 3, 0]"] ;
993 -> 994 ;
995 [label="obj_ID <= 1.237659147772625e+18\nentropy = 0.069\nsamples = 242\nvalue = [240, 2, 0]"] ;
994 -> 995 ;
996 [label="u <= 23.718\nentropy = 0.191\nsamples = 68\nvalue = [66, 2, 0]"] ;
995 -> 996 ;
997 [label="MJD <= 55237.0\nentropy = 0.414\nsamples = 24\nvalue = [22, 2, 0]"] ;
996 -> 997 ;
998 [label="entropy = 0.0\nsamples = 1\nvalue = [0, 1, 0]"] ;
997 -> 998 ;
999 [label="run_ID <= 3083.0\nentropy = 0.258\nsamples = 23\nvalue = [22, 1, 0]"] ;
997 -> 999 ;
1000 [label="entropy = 0.0\nsamples = 22\nvalue = [22, 0, 0]"] ;
999 -> 1000 ;
1001 [label="entropy = 0.0\nsamples = 1\nvalue = [0, 1, 0]"] ;
999 -> 1001 ;
1002 [label="entropy = 0.0\nsamples = 44\nvalue = [44, 0, 0]"] ;
996 -> 1002 ;
1003 [label="entropy = 0.0\nsamples = 174\nvalue = [174, 0, 0]"] ;
995 -> 1003 ;
1004 [label="entropy = 0.0\nsamples = 1\nvalue = [0, 1, 0]"] ;
994 -> 1004 ;
1005 [label="entropy = 0.0\nsamples = 251\nvalue = [251, 0, 0]"] ;
993 -> 1005 ;
1006 [label="alpha <= 355.654\nentropy = 0.314\nsamples = 53\nvalue = [50, 3, 0]"] ;
992 -> 1006 ;
1007 [label="MJD <= 56230.0\nentropy = 0.235\nsamples = 52\nvalue = [50, 2, 0]"] ;
1006 -> 1007 ;
1008 [label="entropy = 0.0\nsamples = 44\nvalue = [44, 0, 0]"] ;
1007 -> 1008 ;
1009 [label="cam_col <= 2.5\nentropy = 0.811\nsamples = 8\nvalue = [6, 2, 0]"] ;
1007 -> 1009 ;
1010 [label="obj_ID <= 1.2376733727043092e+18\nentropy = 0.918\nsamples = 3\nvalue = [1, 2, 0]"] ;
1009 -> 1010 ;
1011 [label="entropy = 0.0\nsamples = 2\nvalue = [0, 2, 0]"] ;
1010 -> 1011 ;
1012 [label="entropy = 0.0\nsamples = 1\nvalue = [1, 0, 0]"] ;
1010 -> 1012 ;
1013 [label="entropy = 0.0\nsamples = 5\nvalue = [5, 0, 0]"] ;
1009 -> 1013 ;
1014 [label="entropy = 0.0\nsamples = 1\nvalue = [0, 1, 0]"] ;
1006 -> 1014 ;
1015 [label="entropy = 0.0\nsamples = 1\nvalue = [0, 1, 0]"] ;
971 -> 1015 ;
1016 [label="z <= 19.358\nentropy = 0.019\nsamples = 1104\nvalue = [1102, 2, 0]"] ;
970 -> 1016 ;
1017 [label="entropy = 0.0\nsamples = 1\nvalue = [0, 1, 0]"] ;
1016 -> 1017 ;
1018 [label="u <= 22.368\nentropy = 0.01\nsamples = 1103\nvalue = [1102, 1, 0]"] ;
1016 -> 1018 ;
1019 [label="r <= 20.703\nentropy = 0.439\nsamples = 11\nvalue = [10, 1, 0]"] ;
1018 -> 1019 ;
1020 [label="entropy = 0.0\nsamples = 1\nvalue = [0, 1, 0]"] ;
1019 -> 1020 ;
1021 [label="entropy = 0.0\nsamples = 10\nvalue = [10, 0, 0]"] ;
1019 -> 1021 ;
1022 [label="entropy = 0.0\nsamples = 1092\nvalue = [1092, 0, 0]"] ;
1018 -> 1022 ;
1023 [label="g <= 22.084\nentropy = 0.52\nsamples = 1603\nvalue = [1416, 187, 0]"] ;
229 -> 1023 ;
1024 [label="redshift <= 0.396\nentropy = 0.84\nsamples = 629\nvalue = [460, 169, 0]"] ;
1023 -> 1024 ;
1025 [label="r <= 21.675\nentropy = 0.435\nsamples = 324\nvalue = [295, 29, 0]"] ;
1024 -> 1025 ;
1026 [label="redshift <= 0.309\nentropy = 0.3\nsamples = 282\nvalue = [267, 15, 0]"] ;
1025 -> 1026 ;
1027 [label="i <= 20.141\nentropy = 0.228\nsamples = 244\nvalue = [235, 9, 0]"] ;
1026 -> 1027 ;
1028 [label="i <= 19.729\nentropy = 0.407\nsamples = 86\nvalue = [79, 7, 0]"] ;
1027 -> 1028 ;
1029 [label="entropy = 0.0\nsamples = 36\nvalue = [36, 0, 0]"] ;
1028 -> 1029 ;
1030 [label="plate <= 3942.5\nentropy = 0.584\nsamples = 50\nvalue = [43, 7, 0]"] ;
1028 -> 1030 ;
1031 [label="obj_ID <= 1.2376563302740787e+18\nentropy = 0.881\nsamples = 20\nvalue = [14, 6, 0]"] ;
1030 -> 1031 ;
1032 [label="entropy = 0.0\nsamples = 3\nvalue = [0, 3, 0]"] ;
1031 -> 1032 ;
1033 [label="r <= 20.286\nentropy = 0.672\nsamples = 17\nvalue = [14, 3, 0]"] ;
1031 -> 1033 ;
1034 [label="fiber_ID <= 21.5\nentropy = 0.371\nsamples = 14\nvalue = [13, 1, 0]"] ;
1033 -> 1034 ;
1035 [label="entropy = 0.0\nsamples = 1\nvalue = [0, 1, 0]"] ;
1034 -> 1035 ;
1036 [label="entropy = 0.0\nsamples = 13\nvalue = [13, 0, 0]"] ;
1034 -> 1036 ;
1037 [label="r <= 20.428\nentropy = 0.918\nsamples = 3\nvalue = [1, 2, 0]"] ;
1033 -> 1037 ;
1038 [label="entropy = 0.0\nsamples = 2\nvalue = [0, 2, 0]"] ;
1037 -> 1038 ;
1039 [label="entropy = 0.0\nsamples = 1\nvalue = [1, 0, 0]"] ;
1037 -> 1039 ;
1040 [label="i <= 19.749\nentropy = 0.211\nsamples = 30\nvalue = [29, 1, 0]"] ;
1030 -> 1040 ;
1041 [label="entropy = 0.0\nsamples = 1\nvalue = [0, 1, 0]"] ;
1040 -> 1041 ;
1042 [label="entropy = 0.0\nsamples = 29\nvalue = [29, 0, 0]"] ;
1040 -> 1042 ;
1043 [label="fiber_ID <= 565.5\nentropy = 0.098\nsamples = 158\nvalue = [156, 2, 0]"] ;
1027 -> 1043 ;
1044 [label="entropy = 0.0\nsamples = 95\nvalue = [95, 0, 0]"] ;
1043 -> 1044 ;
1045 [label="fiber_ID <= 566.5\nentropy = 0.203\nsamples = 63\nvalue = [61, 2, 0]"] ;
1043 -> 1045 ;
1046 [label="entropy = 0.0\nsamples = 1\nvalue = [0, 1, 0]"] ;
1045 -> 1046 ;
1047 [label="r <= 21.567\nentropy = 0.119\nsamples = 62\nvalue = [61, 1, 0]"] ;
1045 -> 1047 ;
1048 [label="entropy = 0.0\nsamples = 56\nvalue = [56, 0, 0]"] ;
1047 -> 1048 ;
1049 [label="redshift <= 0.178\nentropy = 0.65\nsamples = 6\nvalue = [5, 1, 0]"] ;
1047 -> 1049 ;
1050 [label="entropy = 0.0\nsamples = 5\nvalue = [5, 0, 0]"] ;
1049 -> 1050 ;
1051 [label="entropy = 0.0\nsamples = 1\nvalue = [0, 1, 0]"] ;
1049 -> 1051 ;
1052 [label="field_ID <= 31.5\nentropy = 0.629\nsamples = 38\nvalue = [32, 6, 0]"] ;
1026 -> 1052 ;
1053 [label="entropy = 0.0\nsamples = 2\nvalue = [0, 2, 0]"] ;
1052 -> 1053 ;
1054 [label="redshift <= 0.359\nentropy = 0.503\nsamples = 36\nvalue = [32, 4, 0]"] ;
1052 -> 1054 ;
1055 [label="MJD <= 55505.5\nentropy = 0.89\nsamples = 13\nvalue = [9, 4, 0]"] ;
1054 -> 1055 ;
1056 [label="alpha <= 230.941\nentropy = 0.985\nsamples = 7\nvalue = [3, 4, 0]"] ;
1055 -> 1056 ;
1057 [label="redshift <= 0.347\nentropy = 0.811\nsamples = 4\nvalue = [3, 1, 0]"] ;
1056 -> 1057 ;
1058 [label="entropy = 0.0\nsamples = 3\nvalue = [3, 0, 0]"] ;
1057 -> 1058 ;
1059 [label="entropy = 0.0\nsamples = 1\nvalue = [0, 1, 0]"] ;
1057 -> 1059 ;
1060 [label="entropy = 0.0\nsamples = 3\nvalue = [0, 3, 0]"] ;
1056 -> 1060 ;
1061 [label="entropy = 0.0\nsamples = 6\nvalue = [6, 0, 0]"] ;
1055 -> 1061 ;
1062 [label="entropy = 0.0\nsamples = 23\nvalue = [23, 0, 0]"] ;
1054 -> 1062 ;
1063 [label="run_ID <= 7036.5\nentropy = 0.918\nsamples = 42\nvalue = [28, 14, 0]"] ;
1025 -> 1063 ;
1064 [label="redshift <= 0.142\nentropy = 0.764\nsamples = 36\nvalue = [28, 8, 0]"] ;
1063 -> 1064 ;
1065 [label="entropy = 0.0\nsamples = 18\nvalue = [18, 0, 0]"] ;
1064 -> 1065 ;
1066 [label="u <= 22.647\nentropy = 0.991\nsamples = 18\nvalue = [10, 8, 0]"] ;
1064 -> 1066 ;
1067 [label="obj_ID <= 1.237668218743554e+18\nentropy = 0.544\nsamples = 8\nvalue = [1, 7, 0]"] ;
1066 -> 1067 ;
1068 [label="entropy = 0.0\nsamples = 7\nvalue = [0, 7, 0]"] ;
1067 -> 1068 ;
1069 [label="entropy = 0.0\nsamples = 1\nvalue = [1, 0, 0]"] ;
1067 -> 1069 ;
1070 [label="r <= 22.13\nentropy = 0.469\nsamples = 10\nvalue = [9, 1, 0]"] ;
1066 -> 1070 ;
1071 [label="entropy = 0.0\nsamples = 9\nvalue = [9, 0, 0]"] ;
1070 -> 1071 ;
1072 [label="entropy = 0.0\nsamples = 1\nvalue = [0, 1, 0]"] ;
1070 -> 1072 ;
1073 [label="entropy = 0.0\nsamples = 6\nvalue = [0, 6, 0]"] ;
1063 -> 1073 ;
1074 [label="g <= 21.172\nentropy = 0.995\nsamples = 305\nvalue = [165, 140, 0]"] ;
1024 -> 1074 ;
1075 [label="i <= 19.109\nentropy = 0.523\nsamples = 102\nvalue = [12, 90, 0]"] ;
1074 -> 1075 ;
1076 [label="entropy = 0.0\nsamples = 4\nvalue = [4, 0, 0]"] ;
1075 -> 1076 ;
1077 [label="redshift <= 0.642\nentropy = 0.408\nsamples = 98\nvalue = [8, 90, 0]"] ;
1075 -> 1077 ;
1078 [label="i <= 19.941\nentropy = 0.567\nsamples = 60\nvalue = [8, 52, 0]"] ;
1077 -> 1078 ;
1079 [label="entropy = 0.0\nsamples = 16\nvalue = [0, 16, 0]"] ;
1078 -> 1079 ;
1080 [label="r <= 20.168\nentropy = 0.684\nsamples = 44\nvalue = [8, 36, 0]"] ;
1078 -> 1080 ;
1081 [label="entropy = 0.0\nsamples = 3\nvalue = [3, 0, 0]"] ;
1080 -> 1081 ;
1082 [label="i <= 19.956\nentropy = 0.535\nsamples = 41\nvalue = [5, 36, 0]"] ;
1080 -> 1082 ;
1083 [label="entropy = 0.0\nsamples = 2\nvalue = [2, 0, 0]"] ;
1082 -> 1083 ;
1084 [label="alpha <= 75.505\nentropy = 0.391\nsamples = 39\nvalue = [3, 36, 0]"] ;
1082 -> 1084 ;
1085 [label="alpha <= 23.692\nentropy = 0.985\nsamples = 7\nvalue = [3, 4, 0]"] ;
1084 -> 1085 ;
1086 [label="entropy = 0.0\nsamples = 4\nvalue = [0, 4, 0]"] ;
1085 -> 1086 ;
1087 [label="entropy = 0.0\nsamples = 3\nvalue = [3, 0, 0]"] ;
1085 -> 1087 ;
1088 [label="entropy = 0.0\nsamples = 32\nvalue = [0, 32, 0]"] ;
1084 -> 1088 ;
1089 [label="entropy = 0.0\nsamples = 38\nvalue = [0, 38, 0]"] ;
1077 -> 1089 ;
1090 [label="i <= 20.215\nentropy = 0.805\nsamples = 203\nvalue = [153, 50, 0]"] ;
1074 -> 1090 ;
1091 [label="plate <= 899.0\nentropy = 0.501\nsamples = 127\nvalue = [113, 14, 0]"] ;
1090 -> 1091 ;
1092 [label="entropy = 0.0\nsamples = 3\nvalue = [0, 3, 0]"] ;
1091 -> 1092 ;
1093 [label="z <= 19.846\nentropy = 0.432\nsamples = 124\nvalue = [113, 11, 0]"] ;
1091 -> 1093 ;
1094 [label="g <= 21.504\nentropy = 0.586\nsamples = 71\nvalue = [61, 10, 0]"] ;
1093 -> 1094 ;
1095 [label="fiber_ID <= 738.0\nentropy = 0.937\nsamples = 17\nvalue = [11, 6, 0]"] ;
1094 -> 1095 ;
1096 [label="spec_obj_ID <= 4.5334688228117053e+18\nentropy = 0.954\nsamples = 8\nvalue = [3, 5, 0]"] ;
1095 -> 1096 ;
1097 [label="entropy = 0.0\nsamples = 2\nvalue = [2, 0, 0]"] ;
1096 -> 1097 ;
1098 [label="alpha <= 160.073\nentropy = 0.65\nsamples = 6\nvalue = [1, 5, 0]"] ;
1096 -> 1098 ;
1099 [label="entropy = 0.0\nsamples = 1\nvalue = [1, 0, 0]"] ;
1098 -> 1099 ;
1100 [label="entropy = 0.0\nsamples = 5\nvalue = [0, 5, 0]"] ;
1098 -> 1100 ;
1101 [label="field_ID <= 31.0\nentropy = 0.503\nsamples = 9\nvalue = [8, 1, 0]"] ;
1095 -> 1101 ;
1102 [label="entropy = 0.0\nsamples = 1\nvalue = [0, 1, 0]"] ;
1101 -> 1102 ;
1103 [label="entropy = 0.0\nsamples = 8\nvalue = [8, 0, 0]"] ;
1101 -> 1103 ;
1104 [label="i <= 20.05\nentropy = 0.381\nsamples = 54\nvalue = [50, 4, 0]"] ;
1094 -> 1104 ;
1105 [label="plate <= 6810.5\nentropy = 0.162\nsamples = 42\nvalue = [41, 1, 0]"] ;
1104 -> 1105 ;
1106 [label="entropy = 0.0\nsamples = 39\nvalue = [39, 0, 0]"] ;
1105 -> 1106 ;
1107 [label="delta <= 24.792\nentropy = 0.918\nsamples = 3\nvalue = [2, 1, 0]"] ;
1105 -> 1107 ;
1108 [label="entropy = 0.0\nsamples = 2\nvalue = [2, 0, 0]"] ;
1107 -> 1108 ;
1109 [label="entropy = 0.0\nsamples = 1\nvalue = [0, 1, 0]"] ;
1107 -> 1109 ;
1110 [label="obj_ID <= 1.237673441423786e+18\nentropy = 0.811\nsamples = 12\nvalue = [9, 3, 0]"] ;
1104 -> 1110 ;
1111 [label="entropy = 0.0\nsamples = 8\nvalue = [8, 0, 0]"] ;
1110 -> 1111 ;
1112 [label="r <= 20.853\nentropy = 0.811\nsamples = 4\nvalue = [1, 3, 0]"] ;
1110 -> 1112 ;
1113 [label="entropy = 0.0\nsamples = 1\nvalue = [1, 0, 0]"] ;
1112 -> 1113 ;
1114 [label="entropy = 0.0\nsamples = 3\nvalue = [0, 3, 0]"] ;
1112 -> 1114 ;
1115 [label="i <= 19.7\nentropy = 0.135\nsamples = 53\nvalue = [52, 1, 0]"] ;
1093 -> 1115 ;
1116 [label="i <= 19.688\nentropy = 0.469\nsamples = 10\nvalue = [9, 1, 0]"] ;
1115 -> 1116 ;
1117 [label="entropy = 0.0\nsamples = 9\nvalue = [9, 0, 0]"] ;
1116 -> 1117 ;
1118 [label="entropy = 0.0\nsamples = 1\nvalue = [0, 1, 0]"] ;
1116 -> 1118 ;
1119 [label="entropy = 0.0\nsamples = 43\nvalue = [43, 0, 0]"] ;
1115 -> 1119 ;
1120 [label="obj_ID <= 1.237653650214486e+18\nentropy = 0.998\nsamples = 76\nvalue = [40, 36, 0]"] ;
1090 -> 1120 ;
1121 [label="entropy = 0.0\nsamples = 5\nvalue = [5, 0, 0]"] ;
1120 -> 1121 ;
1122 [label="alpha <= 319.382\nentropy = 1.0\nsamples = 71\nvalue = [35, 36, 0]"] ;
1120 -> 1122 ;
1123 [label="delta <= 0.13\nentropy = 0.99\nsamples = 61\nvalue = [34, 27, 0]"] ;
1122 -> 1123 ;
1124 [label="u <= 25.698\nentropy = 0.592\nsamples = 7\nvalue = [1, 6, 0]"] ;
1123 -> 1124 ;
1125 [label="entropy = 0.0\nsamples = 6\nvalue = [0, 6, 0]"] ;
1124 -> 1125 ;
1126 [label="entropy = 0.0\nsamples = 1\nvalue = [1, 0, 0]"] ;
1124 -> 1126 ;
1127 [label="g <= 21.913\nentropy = 0.964\nsamples = 54\nvalue = [33, 21, 0]"] ;
1123 -> 1127 ;
1128 [label="r <= 21.249\nentropy = 0.998\nsamples = 42\nvalue = [22, 20, 0]"] ;
1127 -> 1128 ;
1129 [label="z <= 20.539\nentropy = 0.874\nsamples = 17\nvalue = [12, 5, 0]"] ;
1128 -> 1129 ;
1130 [label="g <= 21.522\nentropy = 1.0\nsamples = 10\nvalue = [5, 5, 0]"] ;
1129 -> 1130 ;
1131 [label="entropy = 0.0\nsamples = 4\nvalue = [0, 4, 0]"] ;
1130 -> 1131 ;
1132 [label="plate <= 6915.5\nentropy = 0.65\nsamples = 6\nvalue = [5, 1, 0]"] ;
1130 -> 1132 ;
1133 [label="entropy = 0.0\nsamples = 5\nvalue = [5, 0, 0]"] ;
1132 -> 1133 ;
1134 [label="entropy = 0.0\nsamples = 1\nvalue = [0, 1, 0]"] ;
1132 -> 1134 ;
1135 [label="entropy = 0.0\nsamples = 7\nvalue = [7, 0, 0]"] ;
1129 -> 1135 ;
1136 [label="r <= 21.423\nentropy = 0.971\nsamples = 25\nvalue = [10, 15, 0]"] ;
1128 -> 1136 ;
1137 [label="entropy = 0.0\nsamples = 7\nvalue = [0, 7, 0]"] ;
1136 -> 1137 ;
1138 [label="i <= 21.493\nentropy = 0.991\nsamples = 18\nvalue = [10, 8, 0]"] ;
1136 -> 1138 ;
1139 [label="i <= 21.195\nentropy = 0.918\nsamples = 9\nvalue = [3, 6, 0]"] ;
1138 -> 1139 ;
1140 [label="MJD <= 54461.0\nentropy = 0.811\nsamples = 4\nvalue = [3, 1, 0]"] ;
1139 -> 1140 ;
1141 [label="entropy = 0.0\nsamples = 1\nvalue = [0, 1, 0]"] ;
1140 -> 1141 ;
1142 [label="entropy = 0.0\nsamples = 3\nvalue = [3, 0, 0]"] ;
1140 -> 1142 ;
1143 [label="entropy = 0.0\nsamples = 5\nvalue = [0, 5, 0]"] ;
1139 -> 1143 ;
1144 [label="i <= 21.831\nentropy = 0.764\nsamples = 9\nvalue = [7, 2, 0]"] ;
1138 -> 1144 ;
1145 [label="entropy = 0.0\nsamples = 7\nvalue = [7, 0, 0]"] ;
1144 -> 1145 ;
1146 [label="entropy = 0.0\nsamples = 2\nvalue = [0, 2, 0]"] ;
1144 -> 1146 ;
1147 [label="g <= 22.076\nentropy = 0.414\nsamples = 12\nvalue = [11, 1, 0]"] ;
1127 -> 1147 ;
1148 [label="entropy = 0.0\nsamples = 11\nvalue = [11, 0, 0]"] ;
1147 -> 1148 ;
1149 [label="entropy = 0.0\nsamples = 1\nvalue = [0, 1, 0]"] ;
1147 -> 1149 ;
1150 [label="u <= 21.966\nentropy = 0.469\nsamples = 10\nvalue = [1, 9, 0]"] ;
1122 -> 1150 ;
1151 [label="field_ID <= 160.5\nentropy = 1.0\nsamples = 2\nvalue = [1, 1, 0]"] ;
1150 -> 1151 ;
1152 [label="entropy = 0.0\nsamples = 1\nvalue = [0, 1, 0]"] ;
1151 -> 1152 ;
1153 [label="entropy = 0.0\nsamples = 1\nvalue = [1, 0, 0]"] ;
1151 -> 1153 ;
1154 [label="entropy = 0.0\nsamples = 8\nvalue = [0, 8, 0]"] ;
1150 -> 1154 ;
1155 [label="i <= 20.698\nentropy = 0.133\nsamples = 974\nvalue = [956, 18, 0]"] ;
1023 -> 1155 ;
