digraph Tree {
node [shape=box, fontname="helvetica"] ;
edge [fontname="helvetica"] ;
0 [label="redshift <= -0.783\nentropy = 1.379\nsamples = 70000\nvalue = [41600, 13261, 15139]"] ;
1 [label="redshift <= -0.789\nentropy = 0.161\nsamples = 15501\nvalue = [360, 2, 15139]"] ;
0 -> 1 [labeldistance=2.5, labelangle=45, headlabel="True"] ;
2 [label="redshift <= -0.795\nentropy = 0.034\nsamples = 9589\nvalue = [34, 0, 9555]"] ;
1 -> 2 ;
3 [label="entropy = 0.0\nsamples = 6\nvalue = [6, 0, 0]"] ;
2 -> 3 ;
4 [label="z <= 1.552\nentropy = 0.029\nsamples = 9583\nvalue = [28, 0, 9555]"] ;
2 -> 4 ;
5 [label="i <= -0.743\nentropy = 0.021\nsamples = 9284\nvalue = [19, 0, 9265]"] ;
4 -> 5 ;
6 [label="entropy = 0.0\nsamples = 3440\nvalue = [0, 0, 3440]"] ;
5 -> 6 ;
7 [label="run_ID <= -0.547\nentropy = 0.032\nsamples = 5844\nvalue = [19, 0, 5825]"] ;
5 -> 7 ;
8 [label="entropy = 0.0\nsamples = 1698\nvalue = [0, 0, 1698]"] ;
7 -> 8 ;
9 [label="obj_ID <= -0.522\nentropy = 0.042\nsamples = 4146\nvalue = [19, 0, 4127]"] ;
7 -> 9 ;
10 [label="r <= 0.477\nentropy = 0.345\nsamples = 62\nvalue = [4, 0, 58]"] ;
9 -> 10 ;
11 [label="entropy = 0.0\nsamples = 58\nvalue = [0, 0, 58]"] ;
10 -> 11 ;
12 [label="entropy = 0.0\nsamples = 4\nvalue = [4, 0, 0]"] ;
10 -> 12 ;
13 [label="i <= -0.743\nentropy = 0.035\nsamples = 4084\nvalue = [15, 0, 4069]"] ;
9 -> 13 ;
14 [label="entropy = 0.0\nsamples = 1\nvalue = [1, 0, 0]"] ;
13 -> 14 ;
15 [label="g <= 3.071\nentropy = 0.033\nsamples = 4083\nvalue = [14, 0, 4069]"] ;
13 -> 15 ;
16 [label="entropy = 0.031\nsamples = 4080\nvalue = [13, 0, 4067]"] ;
15 -> 16 ;
17 [label="entropy = 0.918\nsamples = 3\nvalue = [1, 0, 2]"] ;
15 -> 17 ;
18 [label="redshift <= -0.792\nentropy = 0.195\nsamples = 299\nvalue = [9, 0, 290]"] ;
4 -> 18 ;
19 [label="plate <= 1.477\nentropy = 0.954\nsamples = 8\nvalue = [3, 0, 5]"] ;
18 -> 19 ;
20 [label="g <= 0.653\nentropy = 1.0\nsamples = 6\nvalue = [3, 0, 3]"] ;
19 -> 20 ;
21 [label="entropy = 0.0\nsamples = 2\nvalue = [0, 0, 2]"] ;
20 -> 21 ;
22 [label="run_ID <= 1.688\nentropy = 0.811\nsamples = 4\nvalue = [3, 0, 1]"] ;
20 -> 22 ;
23 [label="entropy = 0.0\nsamples = 3\nvalue = [3, 0, 0]"] ;
22 -> 23 ;
24 [label="entropy = 0.0\nsamples = 1\nvalue = [0, 0, 1]"] ;
22 -> 24 ;
25 [label="entropy = 0.0\nsamples = 2\nvalue = [0, 0, 2]"] ;
19 -> 25 ;
26 [label="z <= 1.553\nentropy = 0.145\nsamples = 291\nvalue = [6, 0, 285]"] ;
18 -> 26 ;
27 [label="entropy = 0.0\nsamples = 1\nvalue = [1, 0, 0]"] ;
26 -> 27 ;
28 [label="redshift <= -0.789\nentropy = 0.126\nsamples = 290\nvalue = [5, 0, 285]"] ;
26 -> 28 ;
29 [label="redshift <= -0.789\nentropy = 0.237\nsamples = 129\nvalue = [5, 0, 124]"] ;
28 -> 29 ;
30 [label="z <= 1.717\nentropy = 0.201\nsamples = 128\nvalue = [4, 0, 124]"] ;
29 -> 30 ;
31 [label="entropy = 0.371\nsamples = 56\nvalue = [4, 0, 52]"] ;
30 -> 31 ;
32 [label="entropy = 0.0\nsamples = 72\nvalue = [0, 0, 72]"] ;
30 -> 32 ;
33 [label="entropy = 0.0\nsamples = 1\nvalue = [1, 0, 0]"] ;
29 -> 33 ;
34 [label="entropy = 0.0\nsamples = 161\nvalue = [0, 0, 161]"] ;
28 -> 34 ;
35 [label="redshift <= -0.789\nentropy = 0.312\nsamples = 5912\nvalue = [326, 2, 5584]"] ;
1 -> 35 ;
36 [label="spec_obj_ID <= -0.394\nentropy = 0.36\nsamples = 307\nvalue = [286, 0, 21]"] ;
35 -> 36 ;
37 [label="delta <= -0.065\nentropy = 0.662\nsamples = 99\nvalue = [82, 0, 17]"] ;
36 -> 37 ;
38 [label="fiber_ID <= -0.534\nentropy = 0.867\nsamples = 52\nvalue = [37, 0, 15]"] ;
37 -> 38 ;
39 [label="redshift <= -0.789\nentropy = 0.663\nsamples = 29\nvalue = [24, 0, 5]"] ;
38 -> 39 ;
40 [label="r <= 0.029\nentropy = 0.242\nsamples = 25\nvalue = [24, 0, 1]"] ;
39 -> 40 ;
41 [label="entropy = 0.0\nsamples = 23\nvalue = [23, 0, 0]"] ;
40 -> 41 ;
42 [label="field_ID <= -0.285\nentropy = 1.0\nsamples = 2\nvalue = [1, 0, 1]"] ;
40 -> 42 ;
43 [label="entropy = 0.0\nsamples = 1\nvalue = [1, 0, 0]"] ;
42 -> 43 ;
44 [label="entropy = 0.0\nsamples = 1\nvalue = [0, 0, 1]"] ;
42 -> 44 ;
45 [label="entropy = 0.0\nsamples = 4\nvalue = [0, 0, 4]"] ;
39 -> 45 ;
46 [label="field_ID <= 0.322\nentropy = 0.988\nsamples = 23\nvalue = [13, 0, 10]"] ;
38 -> 46 ;
47 [label="g <= -1.063\nentropy = 0.89\nsamples = 13\nvalue = [4, 0, 9]"] ;
46 -> 47 ;
48 [label="redshift <= -0.789\nentropy = 0.985\nsamples = 7\nvalue = [4, 0, 3]"] ;
47 -> 48 ;
49 [label="entropy = 0.0\nsamples = 4\nvalue = [4, 0, 0]"] ;
48 -> 49 ;
50 [label="entropy = 0.0\nsamples = 3\nvalue = [0, 0, 3]"] ;
48 -> 50 ;
51 [label="entropy = 0.0\nsamples = 6\nvalue = [0, 0, 6]"] ;
47 -> 51 ;
52 [label="i <= -1.584\nentropy = 0.469\nsamples = 10\nvalue = [9, 0, 1]"] ;
46 -> 52 ;
53 [label="u <= -1.72\nentropy = 1.0\nsamples = 2\nvalue = [1, 0, 1]"] ;
52 -> 53 ;
54 [label="entropy = 0.0\nsamples = 1\nvalue = [1, 0, 0]"] ;
53 -> 54 ;
55 [label="entropy = 0.0\nsamples = 1\nvalue = [0, 0, 1]"] ;
53 -> 55 ;
56 [label="entropy = 0.0\nsamples = 8\nvalue = [8, 0, 0]"] ;
52 -> 56 ;
57 [label="redshift <= -0.789\nentropy = 0.254\nsamples = 47\nvalue = [45, 0, 2]"] ;
37 -> 57 ;
58 [label="entropy = 0.0\nsamples = 45\nvalue = [45, 0, 0]"] ;
57 -> 58 ;
59 [label="entropy = 0.0\nsamples = 2\nvalue = [0, 0, 2]"] ;
57 -> 59 ;
60 [label="redshift <= -0.789\nentropy = 0.137\nsamples = 208\nvalue = [204, 0, 4]"] ;
36 -> 60 ;
61 [label="field_ID <= 1.975\nentropy = 0.044\nsamples = 205\nvalue = [204, 0, 1]"] ;
60 -> 61 ;
62 [label="entropy = 0.0\nsamples = 190\nvalue = [190, 0, 0]"] ;
61 -> 62 ;
63 [label="alpha <= -1.599\nentropy = 0.353\nsamples = 15\nvalue = [14, 0, 1]"] ;
61 -> 63 ;
64 [label="entropy = 0.0\nsamples = 1\nvalue = [0, 0, 1]"] ;
63 -> 64 ;
65 [label="entropy = 0.0\nsamples = 14\nvalue = [14, 0, 0]"] ;
63 -> 65 ;
66 [label="entropy = 0.0\nsamples = 3\nvalue = [0, 0, 3]"] ;
60 -> 66 ;
67 [label="redshift <= -0.788\nentropy = 0.066\nsamples = 5605\nvalue = [40, 2, 5563]"] ;
35 -> 67 ;
68 [label="z <= 0.883\nentropy = 0.029\nsamples = 5351\nvalue = [14, 1, 5336]"] ;
67 -> 68 ;
69 [label="field_ID <= -0.363\nentropy = 0.019\nsamples = 4602\nvalue = [7, 1, 4594]"] ;
68 -> 69 ;
70 [label="obj_ID <= -0.28\nentropy = 0.031\nsamples = 2184\nvalue = [7, 0, 2177]"] ;
69 -> 70 ;
71 [label="obj_ID <= -0.28\nentropy = 0.054\nsamples = 1147\nvalue = [7, 0, 1140]"] ;
70 -> 71 ;
72 [label="alpha <= -0.935\nentropy = 0.047\nsamples = 1146\nvalue = [6, 0, 1140]"] ;
71 -> 72 ;
73 [label="entropy = 0.15\nsamples = 186\nvalue = [4, 0, 182]"] ;
72 -> 73 ;
74 [label="entropy = 0.022\nsamples = 960\nvalue = [2, 0, 958]"] ;
72 -> 74 ;
75 [label="entropy = 0.0\nsamples = 1\nvalue = [1, 0, 0]"] ;
71 -> 75 ;
76 [label="entropy = 0.0\nsamples = 1037\nvalue = [0, 0, 1037]"] ;
70 -> 76 ;
77 [label="delta <= 1.619\nentropy = 0.005\nsamples = 2418\nvalue = [0, 1, 2417]"] ;
69 -> 77 ;
78 [label="entropy = 0.0\nsamples = 2343\nvalue = [0, 0, 2343]"] ;
77 -> 78 ;
79 [label="alpha <= 1.36\nentropy = 0.102\nsamples = 75\nvalue = [0, 1, 74]"] ;
77 -> 79 ;
80 [label="entropy = 0.0\nsamples = 74\nvalue = [0, 0, 74]"] ;
79 -> 80 ;
81 [label="entropy = 0.0\nsamples = 1\nvalue = [0, 1, 0]"] ;
79 -> 81 ;
82 [label="g <= 0.818\nentropy = 0.076\nsamples = 749\nvalue = [7, 0, 742]"] ;
68 -> 82 ;
83 [label="alpha <= -0.481\nentropy = 0.051\nsamples = 699\nvalue = [4, 0, 695]"] ;
82 -> 83 ;
84 [label="alpha <= -0.492\nentropy = 0.165\nsamples = 165\nvalue = [4, 0, 161]"] ;
83 -> 84 ;
85 [label="MJD <= 1.62\nentropy = 0.096\nsamples = 162\nvalue = [2, 0, 160]"] ;
84 -> 85 ;
86 [label="entropy = 0.054\nsamples = 161\nvalue = [1, 0, 160]"] ;
85 -> 86 ;
87 [label="entropy = 0.0\nsamples = 1\nvalue = [1, 0, 0]"] ;
85 -> 87 ;
88 [label="spec_obj_ID <= 0.052\nentropy = 0.918\nsamples = 3\nvalue = [2, 0, 1]"] ;
84 -> 88 ;
89 [label="entropy = 0.0\nsamples = 2\nvalue = [2, 0, 0]"] ;
88 -> 89 ;
90 [label="entropy = 0.0\nsamples = 1\nvalue = [0, 0, 1]"] ;
88 -> 90 ;
91 [label="entropy = 0.0\nsamples = 534\nvalue = [0, 0, 534]"] ;
83 -> 91 ;
92 [label="g <= 0.823\nentropy = 0.327\nsamples = 50\nvalue = [3, 0, 47]"] ;
82 -> 92 ;
93 [label="entropy = 0.0\nsamples = 2\nvalue = [2, 0, 0]"] ;
92 -> 93 ;
94 [label="fiber_ID <= 1.853\nentropy = 0.146\nsamples = 48\nvalue = [1, 0, 47]"] ;
92 -> 94 ;
95 [label="entropy = 0.0\nsamples = 47\nvalue = [0, 0, 47]"] ;
94 -> 95 ;
96 [label="entropy = 0.0\nsamples = 1\nvalue = [1, 0, 0]"] ;
94 -> 96 ;
97 [label="g <= -1.844\nentropy = 0.513\nsamples = 254\nvalue = [26, 1, 227]"] ;
67 -> 97 ;
98 [label="redshift <= -0.786\nentropy = 0.998\nsamples = 17\nvalue = [9, 0, 8]"] ;
97 -> 98 ;
99 [label="delta <= 1.244\nentropy = 0.544\nsamples = 8\nvalue = [1, 0, 7]"] ;
98 -> 99 ;
100 [label="entropy = 0.0\nsamples = 7\nvalue = [0, 0, 7]"] ;
99 -> 100 ;
101 [label="entropy = 0.0\nsamples = 1\nvalue = [1, 0, 0]"] ;
99 -> 101 ;
102 [label="redshift <= -0.784\nentropy = 0.503\nsamples = 9\nvalue = [8, 0, 1]"] ;
98 -> 102 ;
103 [label="entropy = 0.0\nsamples = 8\nvalue = [8, 0, 0]"] ;
102 -> 103 ;
104 [label="entropy = 0.0\nsamples = 1\nvalue = [0, 0, 1]"] ;
102 -> 104 ;
105 [label="delta <= 0.825\nentropy = 0.411\nsamples = 237\nvalue = [17, 1, 219]"] ;
97 -> 105 ;
106 [label="redshift <= -0.786\nentropy = 0.308\nsamples = 202\nvalue = [9, 1, 192]"] ;
105 -> 106 ;
107 [label="redshift <= -0.788\nentropy = 0.147\nsamples = 143\nvalue = [3, 0, 140]"] ;
106 -> 107 ;
108 [label="entropy = 0.0\nsamples = 1\nvalue = [1, 0, 0]"] ;
107 -> 108 ;
109 [label="spec_obj_ID <= 1.462\nentropy = 0.107\nsamples = 142\nvalue = [2, 0, 140]"] ;
107 -> 109 ;
110 [label="entropy = 0.0\nsamples = 130\nvalue = [0, 0, 130]"] ;
109 -> 110 ;
111 [label="entropy = 0.65\nsamples = 12\nvalue = [2, 0, 10]"] ;
109 -> 111 ;
112 [label="r <= 0.827\nentropy = 0.596\nsamples = 59\nvalue = [6, 1, 52]"] ;
106 -> 112 ;
113 [label="i <= 0.954\nentropy = 0.75\nsamples = 28\nvalue = [6, 0, 22]"] ;
112 -> 113 ;
114 [label="entropy = 0.414\nsamples = 24\nvalue = [2, 0, 22]"] ;
113 -> 114 ;
115 [label="entropy = 0.0\nsamples = 4\nvalue = [4, 0, 0]"] ;
113 -> 115 ;
116 [label="redshift <= -0.786\nentropy = 0.206\nsamples = 31\nvalue = [0, 1, 30]"] ;
112 -> 116 ;
117 [label="entropy = 0.0\nsamples = 1\nvalue = [0, 1, 0]"] ;
116 -> 117 ;
118 [label="entropy = 0.0\nsamples = 30\nvalue = [0, 0, 30]"] ;
116 -> 118 ;
119 [label="u <= 0.804\nentropy = 0.776\nsamples = 35\nvalue = [8, 0, 27]"] ;
105 -> 119 ;
120 [label="redshift <= -0.785\nentropy = 0.625\nsamples = 32\nvalue = [5, 0, 27]"] ;
119 -> 120 ;
121 [label="plate <= -1.231\nentropy = 0.267\nsamples = 22\nvalue = [1, 0, 21]"] ;
120 -> 121 ;
122 [label="entropy = 0.0\nsamples = 1\nvalue = [1, 0, 0]"] ;
121 -> 122 ;
123 [label="entropy = 0.0\nsamples = 21\nvalue = [0, 0, 21]"] ;
121 -> 123 ;
124 [label="redshift <= -0.785\nentropy = 0.971\nsamples = 10\nvalue = [4, 0, 6]"] ;
120 -> 124 ;
125 [label="entropy = 0.0\nsamples = 3\nvalue = [3, 0, 0]"] ;
124 -> 125 ;
126 [label="entropy = 0.592\nsamples = 7\nvalue = [1, 0, 6]"] ;
124 -> 126 ;
127 [label="entropy = 0.0\nsamples = 3\nvalue = [3, 0, 0]"] ;
119 -> 127 ;
128 [label="redshift <= 0.568\nentropy = 0.8\nsamples = 54499\nvalue = [41240, 13259, 0]"] ;
0 -> 128 [labeldistance=2.5, labelangle=-45, headlabel="False"] ;
129 [label="redshift <= 0.148\nentropy = 0.331\nsamples = 43200\nvalue = [40569, 2631, 0]"] ;
128 -> 129 ;
130 [label="plate <= 0.703\nentropy = 0.219\nsamples = 36311\nvalue = [35041, 1270, 0]"] ;
129 -> 130 ;
131 [label="z <= 0.501\nentropy = 0.161\nsamples = 32810\nvalue = [32034, 776, 0]"] ;
130 -> 131 ;
132 [label="u <= 0.06\nentropy = 0.135\nsamples = 31207\nvalue = [30618, 589, 0]"] ;
131 -> 132 ;
133 [label="z <= -0.748\nentropy = 0.211\nsamples = 14644\nvalue = [14155, 489, 0]"] ;
132 -> 133 ;
134 [label="u <= -1.402\nentropy = 0.081\nsamples = 11648\nvalue = [11532, 116, 0]"] ;
133 -> 134 ;
135 [label="redshift <= -0.565\nentropy = 0.176\nsamples = 2471\nvalue = [2406, 65, 0]"] ;
134 -> 135 ;
136 [label="entropy = 0.114\nsamples = 2431\nvalue = [2394, 37, 0]"] ;
135 -> 136 ;
137 [label="entropy = 0.881\nsamples = 40\nvalue = [12, 28, 0]"] ;
135 -> 137 ;
138 [label="redshift <= -0.604\nentropy = 0.05\nsamples = 9177\nvalue = [9126, 51, 0]"] ;
134 -> 138 ;
139 [label="entropy = 0.019\nsamples = 5116\nvalue = [5107, 9, 0]"] ;
138 -> 139 ;
140 [label="entropy = 0.083\nsamples = 4061\nvalue = [4019, 42, 0]"] ;
138 -> 140 ;
141 [label="u <= -0.666\nentropy = 0.542\nsamples = 2996\nvalue = [2623, 373, 0]"] ;
133 -> 141 ;
142 [label="redshift <= -0.48\nentropy = 0.926\nsamples = 763\nvalue = [503, 260, 0]"] ;
141 -> 142 ;
143 [label="entropy = 0.333\nsamples = 472\nvalue = [443, 29, 0]"] ;
142 -> 143 ;
144 [label="entropy = 0.734\nsamples = 291\nvalue = [60, 231, 0]"] ;
142 -> 144 ;
145 [label="z <= 0.119\nentropy = 0.289\nsamples = 2233\nvalue = [2120, 113, 0]"] ;
141 -> 145 ;
146 [label="entropy = 0.178\nsamples = 1642\nvalue = [1598, 44, 0]"] ;
145 -> 146 ;
147 [label="entropy = 0.52\nsamples = 591\nvalue = [522, 69, 0]"] ;
145 -> 147 ;
148 [label="g <= 0.681\nentropy = 0.053\nsamples = 16563\nvalue = [16463, 100, 0]"] ;
132 -> 148 ;
149 [label="i <= 0.051\nentropy = 0.071\nsamples = 9303\nvalue = [9224, 79, 0]"] ;
148 -> 149 ;
150 [label="g <= 0.283\nentropy = 0.03\nsamples = 6121\nvalue = [6102, 19, 0]"] ;
149 -> 150 ;
151 [label="entropy = 0.048\nsamples = 3525\nvalue = [3506, 19, 0]"] ;
150 -> 151 ;
152 [label="entropy = 0.0\nsamples = 2596\nvalue = [2596, 0, 0]"] ;
150 -> 152 ;
153 [label="g <= 0.49\nentropy = 0.135\nsamples = 3182\nvalue = [3122, 60, 0]"] ;
149 -> 153 ;
154 [label="entropy = 0.274\nsamples = 720\nvalue = [686, 34, 0]"] ;
153 -> 154 ;
155 [label="entropy = 0.084\nsamples = 2462\nvalue = [2436, 26, 0]"] ;
153 -> 155 ;
156 [label="z <= 0.334\nentropy = 0.029\nsamples = 7260\nvalue = [7239, 21, 0]"] ;
148 -> 156 ;
157 [label="alpha <= -1.834\nentropy = 0.011\nsamples = 5150\nvalue = [5145, 5, 0]"] ;
156 -> 157 ;
158 [label="entropy = 0.276\nsamples = 21\nvalue = [20, 1, 0]"] ;
157 -> 158 ;
159 [label="entropy = 0.009\nsamples = 5129\nvalue = [5125, 4, 0]"] ;
157 -> 159 ;
160 [label="g <= 0.957\nentropy = 0.064\nsamples = 2110\nvalue = [2094, 16, 0]"] ;
156 -> 160 ;
161 [label="entropy = 0.106\nsamples = 1006\nvalue = [992, 14, 0]"] ;
160 -> 161 ;
162 [label="entropy = 0.019\nsamples = 1104\nvalue = [1102, 2, 0]"] ;
160 -> 162 ;
163 [label="g <= 0.714\nentropy = 0.52\nsamples = 1603\nvalue = [1416, 187, 0]"] ;
131 -> 163 ;
164 [label="redshift <= -0.248\nentropy = 0.84\nsamples = 629\nvalue = [460, 169, 0]"] ;
163 -> 164 ;
165 [label="r <= 1.094\nentropy = 0.435\nsamples = 324\nvalue = [295, 29, 0]"] ;
164 -> 165 ;
166 [label="redshift <= -0.366\nentropy = 0.3\nsamples = 282\nvalue = [267, 15, 0]"] ;
165 -> 166 ;
167 [label="entropy = 0.228\nsamples = 244\nvalue = [235, 9, 0]"] ;
166 -> 167 ;
168 [label="entropy = 0.629\nsamples = 38\nvalue = [32, 6, 0]"] ;
166 -> 168 ;
169 [label="obj_ID <= 1.305\nentropy = 0.918\nsamples = 42\nvalue = [28, 14, 0]"] ;
165 -> 169 ;
170 [label="entropy = 0.764\nsamples = 36\nvalue = [28, 8, 0]"] ;
169 -> 170 ;
171 [label="entropy = 0.0\nsamples = 6\nvalue = [0, 6, 0]"] ;
169 -> 171 ;
172 [label="g <= 0.266\nentropy = 0.995\nsamples = 305\nvalue = [165, 140, 0]"] ;
164 -> 172 ;
173 [label="r <= -0.01\nentropy = 0.523\nsamples = 102\nvalue = [12, 90, 0]"] ;
172 -> 173 ;
174 [label="entropy = 0.0\nsamples = 4\nvalue = [4, 0, 0]"] ;
173 -> 174 ;
175 [label="entropy = 0.408\nsamples = 98\nvalue = [8, 90, 0]"] ;
173 -> 175 ;
176 [label="i <= 0.644\nentropy = 0.805\nsamples = 203\nvalue = [153, 50, 0]"] ;
172 -> 176 ;
177 [label="entropy = 0.501\nsamples = 127\nvalue = [113, 14, 0]"] ;
176 -> 177 ;
178 [label="entropy = 0.998\nsamples = 76\nvalue = [40, 36, 0]"] ;
176 -> 178 ;
179 [label="i <= 0.919\nentropy = 0.133\nsamples = 974\nvalue = [956, 18, 0]"] ;
163 -> 179 ;
180 [label="alpha <= 1.864\nentropy = 0.069\nsamples = 844\nvalue = [837, 7, 0]"] ;
179 -> 180 ;
181 [label="fiber_ID <= 0.175\nentropy = 0.053\nsamples = 829\nvalue = [824, 5, 0]"] ;
180 -> 181 ;
182 [label="entropy = 0.0\nsamples = 389\nvalue = [389, 0, 0]"] ;
181 -> 182 ;
183 [label="entropy = 0.09\nsamples = 440\nvalue = [435, 5, 0]"] ;
181 -> 183 ;
184 [label="alpha <= 1.874\nentropy = 0.567\nsamples = 15\nvalue = [13, 2, 0]"] ;
180 -> 184 ;
185 [label="entropy = 0.918\nsamples = 3\nvalue = [1, 2, 0]"] ;
184 -> 185 ;
186 [label="entropy = 0.0\nsamples = 12\nvalue = [12, 0, 0]"] ;
184 -> 186 ;
187 [label="r <= 0.727\nentropy = 0.418\nsamples = 130\nvalue = [119, 11, 0]"] ;
179 -> 187 ;
188 [label="i <= 2.648\nentropy = 0.971\nsamples = 5\nvalue = [2, 3, 0]"] ;
187 -> 188 ;
189 [label="entropy = 0.0\nsamples = 3\nvalue = [0, 3, 0]"] ;
188 -> 189 ;
190 [label="entropy = 0.0\nsamples = 2\nvalue = [2, 0, 0]"] ;
188 -> 190 ;
191 [label="u <= 1.414\nentropy = 0.343\nsamples = 125\nvalue = [117, 8, 0]"] ;
187 -> 191 ;
192 [label="entropy = 0.186\nsamples = 106\nvalue = [103, 3, 0]"] ;
191 -> 192 ;
193 [label="entropy = 0.831\nsamples = 19\nvalue = [14, 5, 0]"] ;
191 -> 193 ;
194 [label="u <= -0.379\nentropy = 0.587\nsamples = 3501\nvalue = [3007, 494, 0]"] ;
130 -> 194 ;
195 [label="redshift <= -0.471\nentropy = 0.944\nsamples = 324\nvalue = [117, 207, 0]"] ;
194 -> 195 ;
196 [label="redshift <= -0.612\nentropy = 0.595\nsamples = 111\nvalue = [95, 16, 0]"] ;
195 -> 196 ;
197 [label="alpha <= -0.384\nentropy = 0.242\nsamples = 75\nvalue = [72, 3, 0]"] ;
196 -> 197 ;
198 [label="u <= -1.218\nentropy = 0.592\nsamples = 21\nvalue = [18, 3, 0]"] ;
197 -> 198 ;
199 [label="entropy = 0.954\nsamples = 8\nvalue = [5, 3, 0]"] ;
198 -> 199 ;
200 [label="entropy = 0.0\nsamples = 13\nvalue = [13, 0, 0]"] ;
198 -> 200 ;
201 [label="entropy = 0.0\nsamples = 54\nvalue = [54, 0, 0]"] ;
197 -> 201 ;
202 [label="u <= -0.602\nentropy = 0.944\nsamples = 36\nvalue = [23, 13, 0]"] ;
196 -> 202 ;
203 [label="spec_obj_ID <= 0.823\nentropy = 0.949\nsamples = 19\nvalue = [7, 12, 0]"] ;
202 -> 203 ;
204 [label="entropy = 0.0\nsamples = 5\nvalue = [5, 0, 0]"] ;
203 -> 204 ;
205 [label="entropy = 0.592\nsamples = 14\nvalue = [2, 12, 0]"] ;
203 -> 205 ;
206 [label="spec_obj_ID <= 0.737\nentropy = 0.323\nsamples = 17\nvalue = [16, 1, 0]"] ;
202 -> 206 ;
207 [label="entropy = 0.0\nsamples = 1\nvalue = [0, 1, 0]"] ;
206 -> 207 ;
208 [label="entropy = 0.0\nsamples = 16\nvalue = [16, 0, 0]"] ;
206 -> 208 ;
209 [label="u <= -0.586\nentropy = 0.479\nsamples = 213\nvalue = [22, 191, 0]"] ;
195 -> 209 ;
210 [label="redshift <= -0.43\nentropy = 0.06\nsamples = 143\nvalue = [1, 142, 0]"] ;
209 -> 210 ;
211 [label="plate <= 1.188\nentropy = 0.592\nsamples = 7\nvalue = [1, 6, 0]"] ;
210 -> 211 ;
212 [label="entropy = 0.0\nsamples = 6\nvalue = [0, 6, 0]"] ;
211 -> 212 ;
213 [label="entropy = 0.0\nsamples = 1\nvalue = [1, 0, 0]"] ;
211 -> 213 ;
214 [label="entropy = 0.0\nsamples = 136\nvalue = [0, 136, 0]"] ;
210 -> 214 ;
215 [label="redshift <= -0.29\nentropy = 0.881\nsamples = 70\nvalue = [21, 49, 0]"] ;
209 -> 215 ;
216 [label="delta <= 1.628\nentropy = 0.353\nsamples = 15\nvalue = [14, 1, 0]"] ;
215 -> 216 ;
217 [label="entropy = 0.0\nsamples = 14\nvalue = [14, 0, 0]"] ;
216 -> 217 ;
218 [label="entropy = 0.0\nsamples = 1\nvalue = [0, 1, 0]"] ;
216 -> 218 ;
219 [label="cam_col <= 0.623\nentropy = 0.55\nsamples = 55\nvalue = [7, 48, 0]"] ;
215 -> 219 ;
220 [label="entropy = 0.172\nsamples = 39\nvalue = [1, 38, 0]"] ;
219 -> 220 ;
221 [label="entropy = 0.954\nsamples = 16\nvalue = [6, 10, 0]"] ;
219 -> 221 ;
222 [label="z <= 0.72\nentropy = 0.438\nsamples = 3177\nvalue = [2890, 287, 0]"] ;
194 -> 222 ;
223 [label="u <= -0.06\nentropy = 0.254\nsamples = 2115\nvalue = [2025, 90, 0]"] ;
222 -> 223 ;
224 [label="redshift <= -0.39\nentropy = 0.764\nsamples = 171\nvalue = [133, 38, 0]"] ;
223 -> 224 ;
225 [label="spec_obj_ID <= 2.136\nentropy = 0.209\nsamples = 91\nvalue = [88, 3, 0]"] ;
224 -> 225 ;
226 [label="entropy = 0.154\nsamples = 90\nvalue = [88, 2, 0]"] ;
225 -> 226 ;
227 [label="entropy = 0.0\nsamples = 1\nvalue = [0, 1, 0]"] ;
225 -> 227 ;
228 [label="g <= 0.268\nentropy = 0.989\nsamples = 80\nvalue = [45, 35, 0]"] ;
224 -> 228 ;
229 [label="entropy = 0.947\nsamples = 52\nvalue = [19, 33, 0]"] ;
228 -> 229 ;
230 [label="entropy = 0.371\nsamples = 28\nvalue = [26, 2, 0]"] ;
228 -> 230 ;
231 [label="i <= 1.211\nentropy = 0.178\nsamples = 1944\nvalue = [1892, 52, 0]"] ;
223 -> 231 ;
232 [label="redshift <= -0.606\nentropy = 0.157\nsamples = 1924\nvalue = [1880, 44, 0]"] ;
231 -> 232 ;
233 [label="entropy = 0.996\nsamples = 13\nvalue = [7, 6, 0]"] ;
232 -> 233 ;
234 [label="entropy = 0.141\nsamples = 1911\nvalue = [1873, 38, 0]"] ;
232 -> 234 ;
235 [label="field_ID <= -0.815\nentropy = 0.971\nsamples = 20\nvalue = [12, 8, 0]"] ;
231 -> 235 ;
236 [label="entropy = 0.0\nsamples = 6\nvalue = [0, 6, 0]"] ;
235 -> 236 ;
237 [label="entropy = 0.592\nsamples = 14\nvalue = [12, 2, 0]"] ;
235 -> 237 ;
238 [label="redshift <= -0.269\nentropy = 0.692\nsamples = 1062\nvalue = [865, 197, 0]"] ;
222 -> 238 ;
239 [label="spec_obj_ID <= 2.092\nentropy = 0.326\nsamples = 487\nvalue = [458, 29, 0]"] ;
238 -> 239 ;
240 [label="r <= 1.452\nentropy = 0.279\nsamples = 476\nvalue = [453, 23, 0]"] ;
239 -> 240 ;
241 [label="entropy = 0.217\nsamples = 434\nvalue = [419, 15, 0]"] ;
240 -> 241 ;
242 [label="entropy = 0.702\nsamples = 42\nvalue = [34, 8, 0]"] ;
240 -> 242 ;
243 [label="cam_col <= 1.252\nentropy = 0.994\nsamples = 11\nvalue = [5, 6, 0]"] ;
239 -> 243 ;
244 [label="entropy = 0.811\nsamples = 8\nvalue = [2, 6, 0]"] ;
243 -> 244 ;
245 [label="entropy = 0.0\nsamples = 3\nvalue = [3, 0, 0]"] ;
243 -> 245 ;
246 [label="g <= 0.704\nentropy = 0.872\nsamples = 575\nvalue = [407, 168, 0]"] ;
238 -> 246 ;
247 [label="g <= 0.276\nentropy = 1.0\nsamples = 217\nvalue = [106, 111, 0]"] ;
246 -> 247 ;
248 [label="entropy = 0.533\nsamples = 33\nvalue = [4, 29, 0]"] ;
247 -> 248 ;
249 [label="entropy = 0.991\nsamples = 184\nvalue = [102, 82, 0]"] ;
247 -> 249 ;
250 [label="u <= 1.124\nentropy = 0.632\nsamples = 358\nvalue = [301, 57, 0]"] ;
246 -> 250 ;
251 [label="entropy = 0.699\nsamples = 291\nvalue = [236, 55, 0]"] ;
250 -> 251 ;
252 [label="entropy = 0.194\nsamples = 67\nvalue = [65, 2, 0]"] ;
250 -> 252 ;
253 [label="g <= 0.569\nentropy = 0.717\nsamples = 6889\nvalue = [5528, 1361, 0]"] ;
129 -> 253 ;
254 [label="u <= -0.201\nentropy = 0.808\nsamples = 1485\nvalue = [368, 1117, 0]"] ;
253 -> 254 ;
255 [label="g <= 0.192\nentropy = 0.443\nsamples = 946\nvalue = [87, 859, 0]"] ;
254 -> 255 ;
256 [label="u <= -0.609\nentropy = 0.291\nsamples = 801\nvalue = [41, 760, 0]"] ;
255 -> 256 ;
257 [label="z <= -0.545\nentropy = 0.153\nsamples = 451\nvalue = [10, 441, 0]"] ;
256 -> 257 ;
258 [label="u <= -1.522\nentropy = 0.811\nsamples = 20\nvalue = [5, 15, 0]"] ;
257 -> 258 ;
259 [label="entropy = 0.0\nsamples = 15\nvalue = [0, 15, 0]"] ;
258 -> 259 ;
260 [label="entropy = 0.0\nsamples = 5\nvalue = [5, 0, 0]"] ;
258 -> 260 ;
261 [label="i <= 0.742\nentropy = 0.091\nsamples = 431\nvalue = [5, 426, 0]"] ;
257 -> 261 ;
262 [label="entropy = 0.061\nsamples = 425\nvalue = [3, 422, 0]"] ;
261 -> 262 ;
263 [label="entropy = 0.918\nsamples = 6\nvalue = [2, 4, 0]"] ;
261 -> 263 ;
264 [label="i <= 0.281\nentropy = 0.432\nsamples = 350\nvalue = [31, 319, 0]"] ;
256 -> 264 ;
265 [label="g <= -0.186\nentropy = 0.787\nsamples = 17\nvalue = [13, 4, 0]"] ;
264 -> 265 ;
266 [label="entropy = 0.985\nsamples = 7\nvalue = [3, 4, 0]"] ;
265 -> 266 ;
267 [label="entropy = 0.0\nsamples = 10\nvalue = [10, 0, 0]"] ;
265 -> 267 ;
268 [label="z <= 0.59\nentropy = 0.303\nsamples = 333\nvalue = [18, 315, 0]"] ;
264 -> 268 ;
269 [label="entropy = 0.65\nsamples = 60\nvalue = [10, 50, 0]"] ;
268 -> 269 ;
270 [label="entropy = 0.191\nsamples = 273\nvalue = [8, 265, 0]"] ;
268 -> 270 ;
271 [label="i <= 0.679\nentropy = 0.901\nsamples = 145\nvalue = [46, 99, 0]"] ;
255 -> 271 ;
272 [label="entropy = 0.0\nsamples = 23\nvalue = [23, 0, 0]"] ;
271 -> 272 ;
273 [label="redshift <= 0.409\nentropy = 0.698\nsamples = 122\nvalue = [23, 99, 0]"] ;
271 -> 273 ;
274 [label="u <= -0.378\nentropy = 0.883\nsamples = 63\nvalue = [19, 44, 0]"] ;
273 -> 274 ;
275 [label="entropy = 0.0\nsamples = 4\nvalue = [4, 0, 0]"] ;
274 -> 275 ;
276 [label="entropy = 0.818\nsamples = 59\nvalue = [15, 44, 0]"] ;
274 -> 276 ;
277 [label="alpha <= 0.135\nentropy = 0.358\nsamples = 59\nvalue = [4, 55, 0]"] ;
273 -> 277 ;
278 [label="entropy = 0.579\nsamples = 29\nvalue = [4, 25, 0]"] ;
277 -> 278 ;
279 [label="entropy = 0.0\nsamples = 30\nvalue = [0, 30, 0]"] ;
277 -> 279 ;
280 [label="i <= 0.698\nentropy = 0.999\nsamples = 539\nvalue = [281, 258, 0]"] ;
254 -> 280 ;
281 [label="r <= 0.489\nentropy = 0.425\nsamples = 208\nvalue = [190, 18, 0]"] ;
280 -> 281 ;
282 [label="i <= 0.37\nentropy = 0.684\nsamples = 88\nvalue = [72, 16, 0]"] ;
281 -> 282 ;
283 [label="cam_col <= -0.006\nentropy = 0.326\nsamples = 67\nvalue = [63, 4, 0]"] ;
282 -> 283 ;
284 [label="entropy = 0.0\nsamples = 34\nvalue = [34, 0, 0]"] ;
283 -> 284 ;
285 [label="entropy = 0.533\nsamples = 33\nvalue = [29, 4, 0]"] ;
283 -> 285 ;
286 [label="g <= 0.09\nentropy = 0.985\nsamples = 21\nvalue = [9, 12, 0]"] ;
282 -> 286 ;
287 [label="entropy = 0.0\nsamples = 6\nvalue = [6, 0, 0]"] ;
286 -> 287 ;
288 [label="entropy = 0.722\nsamples = 15\nvalue = [3, 12, 0]"] ;
286 -> 288 ;
289 [label="g <= 0.292\nentropy = 0.122\nsamples = 120\nvalue = [118, 2, 0]"] ;
281 -> 289 ;
290 [label="i <= 0.593\nentropy = 0.811\nsamples = 8\nvalue = [6, 2, 0]"] ;
289 -> 290 ;
291 [label="entropy = 0.0\nsamples = 6\nvalue = [6, 0, 0]"] ;
290 -> 291 ;
292 [label="entropy = 0.0\nsamples = 2\nvalue = [0, 2, 0]"] ;
290 -> 292 ;
293 [label="entropy = 0.0\nsamples = 112\nvalue = [112, 0, 0]"] ;
289 -> 293 ;
294 [label="plate <= 1.371\nentropy = 0.848\nsamples = 331\nvalue = [91, 240, 0]"] ;
280 -> 294 ;
295 [label="g <= 0.536\nentropy = 0.626\nsamples = 230\nvalue = [36, 194, 0]"] ;
294 -> 295 ;
296 [label="delta <= 0.957\nentropy = 0.523\nsamples = 195\nvalue = [23, 172, 0]"] ;
295 -> 296 ;
297 [label="entropy = 0.364\nsamples = 144\nvalue = [10, 134, 0]"] ;
296 -> 297 ;
298 [label="entropy = 0.819\nsamples = 51\nvalue = [13, 38, 0]"] ;
296 -> 298 ;
299 [label="fiber_ID <= 1.453\nentropy = 0.952\nsamples = 35\nvalue = [13, 22, 0]"] ;
295 -> 299 ;
300 [label="entropy = 0.996\nsamples = 28\nvalue = [13, 15, 0]"] ;
299 -> 300 ;
301 [label="entropy = 0.0\nsamples = 7\nvalue = [0, 7, 0]"] ;
299 -> 301 ;
302 [label="spec_obj_ID <= 1.882\nentropy = 0.994\nsamples = 101\nvalue = [55, 46, 0]"] ;
294 -> 302 ;
303 [label="delta <= 0.509\nentropy = 0.747\nsamples = 61\nvalue = [48, 13, 0]"] ;
302 -> 303 ;
304 [label="entropy = 0.592\nsamples = 56\nvalue = [48, 8, 0]"] ;
303 -> 304 ;
305 [label="entropy = 0.0\nsamples = 5\nvalue = [0, 5, 0]"] ;
303 -> 305 ;
306 [label="r <= 0.618\nentropy = 0.669\nsamples = 40\nvalue = [7, 33, 0]"] ;
302 -> 306 ;
307 [label="entropy = 0.0\nsamples = 2\nvalue = [2, 0, 0]"] ;
306 -> 307 ;
308 [label="entropy = 0.562\nsamples = 38\nvalue = [5, 33, 0]"] ;
306 -> 308 ;
309 [label="g <= 0.825\nentropy = 0.265\nsamples = 5404\nvalue = [5160, 244, 0]"] ;
253 -> 309 ;
310 [label="i <= 1.199\nentropy = 0.631\nsamples = 870\nvalue = [732, 138, 0]"] ;
309 -> 310 ;
311 [label="MJD <= 1.521\nentropy = 0.284\nsamples = 588\nvalue = [559, 29, 0]"] ;
310 -> 311 ;
312 [label="i <= 0.932\nentropy = 0.241\nsamples = 578\nvalue = [555, 23, 0]"] ;
311 -> 312 ;
313 [label="plate <= -0.151\nentropy = 0.128\nsamples = 339\nvalue = [333, 6, 0]"] ;
312 -> 313 ;
314 [label="entropy = 0.317\nsamples = 87\nvalue = [82, 5, 0]"] ;
313 -> 314 ;
315 [label="entropy = 0.037\nsamples = 252\nvalue = [251, 1, 0]"] ;
313 -> 315 ;
316 [label="plate <= 1.368\nentropy = 0.37\nsamples = 239\nvalue = [222, 17, 0]"] ;
312 -> 316 ;
317 [label="entropy = 0.773\nsamples = 44\nvalue = [34, 10, 0]"] ;
316 -> 317 ;
318 [label="entropy = 0.223\nsamples = 195\nvalue = [188, 7, 0]"] ;
316 -> 318 ;
319 [label="obj_ID <= 0.16\nentropy = 0.971\nsamples = 10\nvalue = [4, 6, 0]"] ;
311 -> 319 ;
320 [label="entropy = 0.0\nsamples = 5\nvalue = [0, 5, 0]"] ;
319 -> 320 ;
321 [label="u <= 0.056\nentropy = 0.722\nsamples = 5\nvalue = [4, 1, 0]"] ;
319 -> 321 ;
322 [label="entropy = 0.0\nsamples = 1\nvalue = [0, 1, 0]"] ;
321 -> 322 ;
323 [label="entropy = 0.0\nsamples = 4\nvalue = [4, 0, 0]"] ;
321 -> 323 ;
324 [label="plate <= 1.361\nentropy = 0.963\nsamples = 282\nvalue = [173, 109, 0]"] ;
310 -> 324 ;
325 [label="MJD <= 1.04\nentropy = 0.992\nsamples = 132\nvalue = [59, 73, 0]"] ;
324 -> 325 ;
326 [label="r <= 1.332\nentropy = 0.996\nsamples = 102\nvalue = [55, 47, 0]"] ;
325 -> 326 ;
327 [label="entropy = 1.0\nsamples = 94\nvalue = [47, 47, 0]"] ;
326 -> 327 ;
328 [label="entropy = 0.0\nsamples = 8\nvalue = [8, 0, 0]"] ;
326 -> 328 ;
329 [label="r <= 1.161\nentropy = 0.567\nsamples = 30\nvalue = [4, 26, 0]"] ;
325 -> 329 ;
330 [label="entropy = 0.0\nsamples = 17\nvalue = [0, 17, 0]"] ;
329 -> 330 ;
331 [label="entropy = 0.89\nsamples = 13\nvalue = [4, 9, 0]"] ;
329 -> 331 ;
332 [label="MJD <= 1.423\nentropy = 0.795\nsamples = 150\nvalue = [114, 36, 0]"] ;
324 -> 332 ;
333 [label="cam_col <= 1.252\nentropy = 0.485\nsamples = 114\nvalue = [102, 12, 0]"] ;
332 -> 333 ;
334 [label="entropy = 0.358\nsamples = 103\nvalue = [96, 7, 0]"] ;
333 -> 334 ;
335 [label="entropy = 0.994\nsamples = 11\nvalue = [6, 5, 0]"] ;
333 -> 335 ;
336 [label="redshift <= 0.467\nentropy = 0.918\nsamples = 36\nvalue = [12, 24, 0]"] ;
332 -> 336 ;
337 [label="entropy = 0.999\nsamples = 25\nvalue = [12, 13, 0]"] ;
336 -> 337 ;
338 [label="entropy = 0.0\nsamples = 11\nvalue = [0, 11, 0]"] ;
336 -> 338 ;
339 [label="redshift <= 0.44\nentropy = 0.16\nsamples = 4534\nvalue = [4428, 106, 0]"] ;
309 -> 339 ;
340 [label="i <= 1.132\nentropy = 0.129\nsamples = 3933\nvalue = [3863, 70, 0]"] ;
339 -> 340 ;
341 [label="redshift <= 0.257\nentropy = 0.084\nsamples = 2483\nvalue = [2457, 26, 0]"] ;
340 -> 341 ;
342 [label="i <= 0.932\nentropy = 0.04\nsamples = 1406\nvalue = [1400, 6, 0]"] ;
341 -> 342 ;
343 [label="entropy = 0.018\nsamples = 1194\nvalue = [1192, 2, 0]"] ;
342 -> 343 ;
344 [label="entropy = 0.135\nsamples = 212\nvalue = [208, 4, 0]"] ;
342 -> 344 ;
345 [label="r <= 0.686\nentropy = 0.133\nsamples = 1077\nvalue = [1057, 20, 0]"] ;
341 -> 345 ;
346 [label="entropy = 0.779\nsamples = 13\nvalue = [10, 3, 0]"] ;
345 -> 346 ;
347 [label="entropy = 0.118\nsamples = 1064\nvalue = [1047, 17, 0]"] ;
345 -> 347 ;
348 [label="spec_obj_ID <= 1.013\nentropy = 0.196\nsamples = 1450\nvalue = [1406, 44, 0]"] ;
340 -> 348 ;
349 [label="z <= 1.021\nentropy = 0.638\nsamples = 99\nvalue = [83, 16, 0]"] ;
348 -> 349 ;
350 [label="entropy = 0.126\nsamples = 58\nvalue = [57, 1, 0]"] ;
349 -> 350 ;
351 [label="entropy = 0.947\nsamples = 41\nvalue = [26, 15, 0]"] ;
349 -> 351 ;
352 [label="obj_ID <= -0.144\nentropy = 0.145\nsamples = 1351\nvalue = [1323, 28, 0]"] ;
348 -> 352 ;
353 [label="entropy = 0.0\nsamples = 232\nvalue = [232, 0, 0]"] ;
352 -> 353 ;
354 [label="entropy = 0.169\nsamples = 1119\nvalue = [1091, 28, 0]"] ;
352 -> 354 ;
355 [label="r <= 1.359\nentropy = 0.327\nsamples = 601\nvalue = [565, 36, 0]"] ;
339 -> 355 ;
356 [label="i <= 1.483\nentropy = 0.452\nsamples = 296\nvalue = [268, 28, 0]"] ;
355 -> 356 ;
357 [label="delta <= -0.032\nentropy = 0.355\nsamples = 268\nvalue = [250, 18, 0]"] ;
356 -> 357 ;
358 [label="entropy = 0.105\nsamples = 145\nvalue = [143, 2, 0]"] ;
357 -> 358 ;
359 [label="entropy = 0.558\nsamples = 123\nvalue = [107, 16, 0]"] ;
357 -> 359 ;
360 [label="redshift <= 0.54\nentropy = 0.94\nsamples = 28\nvalue = [18, 10, 0]"] ;
356 -> 360 ;
361 [label="entropy = 1.0\nsamples = 20\nvalue = [10, 10, 0]"] ;
360 -> 361 ;
362 [label="entropy = 0.0\nsamples = 8\nvalue = [8, 0, 0]"] ;
360 -> 362 ;
363 [label="obj_ID <= -0.108\nentropy = 0.175\nsamples = 305\nvalue = [297, 8, 0]"] ;
355 -> 363 ;
364 [label="entropy = 0.0\nsamples = 107\nvalue = [107, 0, 0]"] ;
363 -> 364 ;
365 [label="obj_ID <= -0.1\nentropy = 0.244\nsamples = 198\nvalue = [190, 8, 0]"] ;
363 -> 365 ;
366 [label="entropy = 0.0\nsamples = 1\nvalue = [0, 1, 0]"] ;
365 -> 366 ;
367 [label="entropy = 0.221\nsamples = 197\nvalue = [190, 7, 0]"] ;
365 -> 367 ;
368 [label="g <= 0.778\nentropy = 0.325\nsamples = 11299\nvalue = [671, 10628, 0]"] ;
128 -> 368 ;
369 [label="g <= 0.382\nentropy = 0.123\nsamples = 9974\nvalue = [167, 9807, 0]"] ;
368 -> 369 ;
370 [label="MJD <= 0.804\nentropy = 0.026\nsamples = 6570\nvalue = [17, 6553, 0]"] ;
369 -> 370 ;
371 [label="entropy = 0.0\nsamples = 3666\nvalue = [0, 3666, 0]"] ;
370 -> 371 ;
372 [label="z <= 2.824\nentropy = 0.052\nsamples = 2904\nvalue = [17, 2887, 0]"] ;
370 -> 372 ;
373 [label="z <= -0.171\nentropy = 0.047\nsamples = 2900\nvalue = [15, 2885, 0]"] ;
372 -> 373 ;
374 [label="r <= -0.19\nentropy = 0.386\nsamples = 53\nvalue = [4, 49, 0]"] ;
373 -> 374 ;
375 [label="MJD <= 1.726\nentropy = 0.144\nsamples = 49\nvalue = [1, 48, 0]"] ;
374 -> 375 ;
376 [label="entropy = 0.0\nsamples = 48\nvalue = [0, 48, 0]"] ;
375 -> 376 ;
377 [label="entropy = 0.0\nsamples = 1\nvalue = [1, 0, 0]"] ;
375 -> 377 ;
378 [label="i <= -0.368\nentropy = 0.811\nsamples = 4\nvalue = [3, 1, 0]"] ;
374 -> 378 ;
379 [label="entropy = 0.0\nsamples = 1\nvalue = [0, 1, 0]"] ;
378 -> 379 ;
380 [label="entropy = 0.0\nsamples = 3\nvalue = [3, 0, 0]"] ;
378 -> 380 ;
381 [label="u <= -0.339\nentropy = 0.037\nsamples = 2847\nvalue = [11, 2836, 0]"] ;
373 -> 381 ;
382 [label="g <= -0.964\nentropy = 0.006\nsamples = 1997\nvalue = [1, 1996, 0]"] ;
381 -> 382 ;
383 [label="entropy = 0.811\nsamples = 4\nvalue = [1, 3, 0]"] ;
382 -> 383 ;
384 [label="entropy = 0.0\nsamples = 1993\nvalue = [0, 1993, 0]"] ;
382 -> 384 ;
385 [label="redshift <= 1.642\nentropy = 0.092\nsamples = 850\nvalue = [10, 840, 0]"] ;
381 -> 385 ;
386 [label="entropy = 0.183\nsamples = 360\nvalue = [10, 350, 0]"] ;
385 -> 386 ;
387 [label="entropy = 0.0\nsamples = 490\nvalue = [0, 490, 0]"] ;
385 -> 387 ;
388 [label="redshift <= 1.166\nentropy = 1.0\nsamples = 4\nvalue = [2, 2, 0]"] ;
372 -> 388 ;
389 [label="entropy = 0.0\nsamples = 2\nvalue = [2, 0, 0]"] ;
388 -> 389 ;
390 [label="entropy = 0.0\nsamples = 2\nvalue = [0, 2, 0]"] ;
388 -> 390 ;
391 [label="redshift <= 1.654\nentropy = 0.261\nsamples = 3404\nvalue = [150, 3254, 0]"] ;
369 -> 391 ;
392 [label="redshift <= 0.836\nentropy = 0.434\nsamples = 1645\nvalue = [147, 1498, 0]"] ;
391 -> 392 ;
393 [label="z <= 0.922\nentropy = 0.721\nsamples = 396\nvalue = [79, 317, 0]"] ;
392 -> 393 ;
394 [label="r <= 0.794\nentropy = 0.958\nsamples = 50\nvalue = [31, 19, 0]"] ;
393 -> 394 ;
395 [label="redshift <= 0.606\nentropy = 0.684\nsamples = 22\nvalue = [4, 18, 0]"] ;
394 -> 395 ;
396 [label="entropy = 0.0\nsamples = 3\nvalue = [3, 0, 0]"] ;
395 -> 396 ;
397 [label="entropy = 0.297\nsamples = 19\nvalue = [1, 18, 0]"] ;
395 -> 397 ;
398 [label="obj_ID <= 1.727\nentropy = 0.222\nsamples = 28\nvalue = [27, 1, 0]"] ;
394 -> 398 ;
399 [label="entropy = 0.0\nsamples = 26\nvalue = [26, 0, 0]"] ;
398 -> 399 ;
400 [label="entropy = 1.0\nsamples = 2\nvalue = [1, 1, 0]"] ;
398 -> 400 ;
401 [label="r <= 1.15\nentropy = 0.581\nsamples = 346\nvalue = [48, 298, 0]"] ;
393 -> 401 ;
402 [label="z <= 1.206\nentropy = 0.407\nsamples = 295\nvalue = [24, 271, 0]"] ;
401 -> 402 ;
403 [label="entropy = 0.654\nsamples = 101\nvalue = [17, 84, 0]"] ;
402 -> 403 ;
404 [label="entropy = 0.224\nsamples = 194\nvalue = [7, 187, 0]"] ;
402 -> 404 ;
405 [label="plate <= 0.754\nentropy = 0.998\nsamples = 51\nvalue = [24, 27, 0]"] ;
401 -> 405 ;
406 [label="entropy = 0.0\nsamples = 12\nvalue = [0, 12, 0]"] ;
405 -> 406 ;
407 [label="entropy = 0.961\nsamples = 39\nvalue = [24, 15, 0]"] ;
405 -> 407 ;
408 [label="i <= 1.402\nentropy = 0.305\nsamples = 1249\nvalue = [68, 1181, 0]"] ;
392 -> 408 ;
409 [label="u <= 0.112\nentropy = 0.224\nsamples = 942\nvalue = [34, 908, 0]"] ;
408 -> 409 ;
410 [label="i <= 1.215\nentropy = 0.151\nsamples = 739\nvalue = [16, 723, 0]"] ;
409 -> 410 ;
411 [label="entropy = 0.049\nsamples = 367\nvalue = [2, 365, 0]"] ;
410 -> 411 ;
412 [label="entropy = 0.231\nsamples = 372\nvalue = [14, 358, 0]"] ;
410 -> 412 ;
413 [label="spec_obj_ID <= 1.05\nentropy = 0.432\nsamples = 203\nvalue = [18, 185, 0]"] ;
409 -> 413 ;
414 [label="entropy = 0.127\nsamples = 115\nvalue = [2, 113, 0]"] ;
413 -> 414 ;
415 [label="entropy = 0.684\nsamples = 88\nvalue = [16, 72, 0]"] ;
413 -> 415 ;
416 [label="MJD <= 0.64\nentropy = 0.502\nsamples = 307\nvalue = [34, 273, 0]"] ;
408 -> 416 ;
417 [label="i <= 1.402\nentropy = 0.106\nsamples = 72\nvalue = [1, 71, 0]"] ;
416 -> 417 ;
418 [label="entropy = 0.0\nsamples = 1\nvalue = [1, 0, 0]"] ;
417 -> 418 ;
419 [label="entropy = 0.0\nsamples = 71\nvalue = [0, 71, 0]"] ;
417 -> 419 ;
420 [label="u <= 0.473\nentropy = 0.585\nsamples = 235\nvalue = [33, 202, 0]"] ;
416 -> 420 ;
421 [label="entropy = 0.505\nsamples = 224\nvalue = [25, 199, 0]"] ;
420 -> 421 ;
422 [label="entropy = 0.845\nsamples = 11\nvalue = [8, 3, 0]"] ;
420 -> 422 ;
423 [label="redshift <= 1.939\nentropy = 0.018\nsamples = 1759\nvalue = [3, 1756, 0]"] ;
391 -> 423 ;
424 [label="redshift <= 1.939\nentropy = 0.068\nsamples = 368\nvalue = [3, 365, 0]"] ;
423 -> 424 ;
425 [label="MJD <= 1.621\nentropy = 0.049\nsamples = 367\nvalue = [2, 365, 0]"] ;
424 -> 425 ;
426 [label="delta <= 1.278\nentropy = 0.027\nsamples = 364\nvalue = [1, 363, 0]"] ;
425 -> 426 ;
427 [label="entropy = 0.0\nsamples = 312\nvalue = [0, 312, 0]"] ;
426 -> 427 ;
428 [label="entropy = 0.137\nsamples = 52\nvalue = [1, 51, 0]"] ;
426 -> 428 ;
429 [label="alpha <= -1.035\nentropy = 0.918\nsamples = 3\nvalue = [1, 2, 0]"] ;
425 -> 429 ;
430 [label="entropy = 0.0\nsamples = 1\nvalue = [1, 0, 0]"] ;
429 -> 430 ;
431 [label="entropy = 0.0\nsamples = 2\nvalue = [0, 2, 0]"] ;
429 -> 431 ;
432 [label="entropy = 0.0\nsamples = 1\nvalue = [1, 0, 0]"] ;
424 -> 432 ;
433 [label="entropy = 0.0\nsamples = 1391\nvalue = [0, 1391, 0]"] ;
423 -> 433 ;
434 [label="redshift <= 0.871\nentropy = 0.958\nsamples = 1325\nvalue = [504, 821, 0]"] ;
368 -> 434 ;
435 [label="plate <= 1.372\nentropy = 0.854\nsamples = 542\nvalue = [391, 151, 0]"] ;
434 -> 435 ;
436 [label="r <= 1.219\nentropy = 0.985\nsamples = 196\nvalue = [84, 112, 0]"] ;
435 -> 436 ;
437 [label="fiber_ID <= 0.685\nentropy = 0.717\nsamples = 81\nvalue = [16, 65, 0]"] ;
436 -> 437 ;
438 [label="alpha <= 0.156\nentropy = 0.414\nsamples = 48\nvalue = [4, 44, 0]"] ;
437 -> 438 ;
439 [label="alpha <= -0.991\nentropy = 0.702\nsamples = 21\nvalue = [4, 17, 0]"] ;
438 -> 439 ;
440 [label="entropy = 0.0\nsamples = 13\nvalue = [0, 13, 0]"] ;
439 -> 440 ;
441 [label="entropy = 1.0\nsamples = 8\nvalue = [4, 4, 0]"] ;
439 -> 441 ;
442 [label="entropy = 0.0\nsamples = 27\nvalue = [0, 27, 0]"] ;
438 -> 442 ;
443 [label="redshift <= 0.75\nentropy = 0.946\nsamples = 33\nvalue = [12, 21, 0]"] ;
437 -> 443 ;
444 [label="r <= 1.201\nentropy = 0.999\nsamples = 23\nvalue = [12, 11, 0]"] ;
443 -> 444 ;
445 [label="entropy = 0.918\nsamples = 18\nvalue = [12, 6, 0]"] ;
444 -> 445 ;
446 [label="entropy = 0.0\nsamples = 5\nvalue = [0, 5, 0]"] ;
444 -> 446 ;
447 [label="entropy = 0.0\nsamples = 10\nvalue = [0, 10, 0]"] ;
443 -> 447 ;
448 [label="r <= 1.755\nentropy = 0.976\nsamples = 115\nvalue = [68, 47, 0]"] ;
436 -> 448 ;
449 [label="plate <= 1.36\nentropy = 0.997\nsamples = 101\nvalue = [54, 47, 0]"] ;
448 -> 449 ;
450 [label="MJD <= 1.396\nentropy = 0.989\nsamples = 96\nvalue = [54, 42, 0]"] ;
449 -> 450 ;
451 [label="entropy = 0.996\nsamples = 91\nvalue = [49, 42, 0]"] ;
450 -> 451 ;
452 [label="entropy = 0.0\nsamples = 5\nvalue = [5, 0, 0]"] ;
450 -> 452 ;
453 [label="entropy = 0.0\nsamples = 5\nvalue = [0, 5, 0]"] ;
449 -> 453 ;
454 [label="entropy = 0.0\nsamples = 14\nvalue = [14, 0, 0]"] ;
448 -> 454 ;
455 [label="MJD <= 1.423\nentropy = 0.508\nsamples = 346\nvalue = [307, 39, 0]"] ;
435 -> 455 ;
456 [label="fiber_ID <= -1.493\nentropy = 0.4\nsamples = 302\nvalue = [278, 24, 0]"] ;
455 -> 456 ;
457 [label="r <= 1.421\nentropy = 0.961\nsamples = 13\nvalue = [8, 5, 0]"] ;
456 -> 457 ;
458 [label="entropy = 0.0\nsamples = 6\nvalue = [6, 0, 0]"] ;
457 -> 458 ;
459 [label="u <= 0.411\nentropy = 0.863\nsamples = 7\nvalue = [2, 5, 0]"] ;
457 -> 459 ;
460 [label="entropy = 0.0\nsamples = 2\nvalue = [2, 0, 0]"] ;
459 -> 460 ;
461 [label="entropy = 0.0\nsamples = 5\nvalue = [0, 5, 0]"] ;
459 -> 461 ;
462 [label="redshift <= 0.718\nentropy = 0.35\nsamples = 289\nvalue = [270, 19, 0]"] ;
456 -> 462 ;
463 [label="redshift <= 0.652\nentropy = 0.221\nsamples = 198\nvalue = [191, 7, 0]"] ;
462 -> 463 ;
464 [label="entropy = 0.303\nsamples = 130\nvalue = [123, 7, 0]"] ;
463 -> 464 ;
465 [label="entropy = 0.0\nsamples = 68\nvalue = [68, 0, 0]"] ;
463 -> 465 ;
466 [label="obj_ID <= -0.108\nentropy = 0.563\nsamples = 91\nvalue = [79, 12, 0]"] ;
462 -> 466 ;
467 [label="entropy = 0.0\nsamples = 28\nvalue = [28, 0, 0]"] ;
466 -> 467 ;
468 [label="entropy = 0.702\nsamples = 63\nvalue = [51, 12, 0]"] ;
466 -> 468 ;
469 [label="z <= 0.673\nentropy = 0.926\nsamples = 44\nvalue = [29, 15, 0]"] ;
455 -> 469 ;
470 [label="spec_obj_ID <= 1.732\nentropy = 0.605\nsamples = 27\nvalue = [23, 4, 0]"] ;
469 -> 470 ;
471 [label="entropy = 0.0\nsamples = 2\nvalue = [0, 2, 0]"] ;
470 -> 471 ;
472 [label="r <= 1.191\nentropy = 0.402\nsamples = 25\nvalue = [23, 2, 0]"] ;
470 -> 472 ;
473 [label="entropy = 1.0\nsamples = 4\nvalue = [2, 2, 0]"] ;
472 -> 473 ;
474 [label="entropy = 0.0\nsamples = 21\nvalue = [21, 0, 0]"] ;
472 -> 474 ;
475 [label="field_ID <= -0.369\nentropy = 0.937\nsamples = 17\nvalue = [6, 11, 0]"] ;
469 -> 475 ;
476 [label="entropy = 0.0\nsamples = 7\nvalue = [0, 7, 0]"] ;
475 -> 476 ;
477 [label="field_ID <= 0.052\nentropy = 0.971\nsamples = 10\nvalue = [6, 4, 0]"] ;
475 -> 477 ;
478 [label="entropy = 0.0\nsamples = 4\nvalue = [4, 0, 0]"] ;
477 -> 478 ;
479 [label="entropy = 0.918\nsamples = 6\nvalue = [2, 4, 0]"] ;
477 -> 479 ;
480 [label="redshift <= 1.939\nentropy = 0.595\nsamples = 783\nvalue = [113, 670, 0]"] ;
434 -> 480 ;
481 [label="plate <= 1.372\nentropy = 0.784\nsamples = 484\nvalue = [113, 371, 0]"] ;
480 -> 481 ;
482 [label="z <= 0.605\nentropy = 0.552\nsamples = 289\nvalue = [37, 252, 0]"] ;
481 -> 482 ;
483 [label="u <= 0.458\nentropy = 0.863\nsamples = 63\nvalue = [18, 45, 0]"] ;
482 -> 483 ;
484 [label="i <= 0.828\nentropy = 0.985\nsamples = 21\nvalue = [12, 9, 0]"] ;
483 -> 484 ;
485 [label="entropy = 0.918\nsamples = 12\nvalue = [4, 8, 0]"] ;
484 -> 485 ;
486 [label="entropy = 0.503\nsamples = 9\nvalue = [8, 1, 0]"] ;
484 -> 486 ;
487 [label="plate <= 0.771\nentropy = 0.592\nsamples = 42\nvalue = [6, 36, 0]"] ;
483 -> 487 ;
488 [label="entropy = 0.0\nsamples = 18\nvalue = [0, 18, 0]"] ;
487 -> 488 ;
489 [label="entropy = 0.811\nsamples = 24\nvalue = [6, 18, 0]"] ;
487 -> 489 ;
490 [label="plate <= 0.713\nentropy = 0.416\nsamples = 226\nvalue = [19, 207, 0]"] ;
482 -> 490 ;
491 [label="entropy = 0.0\nsamples = 49\nvalue = [0, 49, 0]"] ;
490 -> 491 ;
492 [label="redshift <= 1.234\nentropy = 0.492\nsamples = 177\nvalue = [19, 158, 0]"] ;
490 -> 492 ;
493 [label="entropy = 0.694\nsamples = 75\nvalue = [14, 61, 0]"] ;
492 -> 493 ;
494 [label="entropy = 0.282\nsamples = 102\nvalue = [5, 97, 0]"] ;
492 -> 494 ;
495 [label="MJD <= 1.417\nentropy = 0.965\nsamples = 195\nvalue = [76, 119, 0]"] ;
481 -> 495 ;
496 [label="i <= 1.505\nentropy = 0.978\nsamples = 121\nvalue = [71, 50, 0]"] ;
495 -> 496 ;
497 [label="redshift <= 1.584\nentropy = 0.911\nsamples = 46\nvalue = [15, 31, 0]"] ;
496 -> 497 ;
498 [label="entropy = 0.974\nsamples = 37\nvalue = [15, 22, 0]"] ;
497 -> 498 ;
499 [label="entropy = 0.0\nsamples = 9\nvalue = [0, 9, 0]"] ;
497 -> 499 ;
500 [label="redshift <= 1.436\nentropy = 0.817\nsamples = 75\nvalue = [56, 19, 0]"] ;
496 -> 500 ;
501 [label="entropy = 0.657\nsamples = 59\nvalue = [49, 10, 0]"] ;
500 -> 501 ;
502 [label="entropy = 0.989\nsamples = 16\nvalue = [7, 9, 0]"] ;
500 -> 502 ;
503 [label="i <= 2.0\nentropy = 0.357\nsamples = 74\nvalue = [5, 69, 0]"] ;
495 -> 503 ;
504 [label="z <= 1.489\nentropy = 0.306\nsamples = 73\nvalue = [4, 69, 0]"] ;
503 -> 504 ;
505 [label="entropy = 0.439\nsamples = 44\nvalue = [4, 40, 0]"] ;
504 -> 505 ;
506 [label="entropy = 0.0\nsamples = 29\nvalue = [0, 29, 0]"] ;
504 -> 506 ;
507 [label="entropy = 0.0\nsamples = 1\nvalue = [1, 0, 0]"] ;
503 -> 507 ;
508 [label="entropy = 0.0\nsamples = 299\nvalue = [0, 299, 0]"] ;
480 -> 508 ;
}